{"conv1.weight": [[[[2.459855794906616, 1.9151558876037598], [-0.46093523502349854, -0.30334821343421936]]], [[[-2.320469379425049, 4.3632025718688965], [-4.834564208984375, 3.4227278232574463]]], [[[-4.01072883605957, 0.34451529383659363], [-0.6678588390350342, 3.9142298698425293]]], [[[0.6712380051612854, -0.26145073771476746], [1.8228423595428467, 2.8017172813415527]]]], "conv1.bias": [1.7405368089675903, -2.087395668029785, -1.4002351760864258, 2.6422228813171387], "fc1.weight": [[0.21160274744033813, 0.23465795814990997, 0.20104265213012695, 0.20601332187652588, 0.18756058812141418, 0.20619362592697144, 0.296320378780365, 0.4479098618030548, 0.1928585171699524, 0.2202526479959488, 0.19142848253250122, 0.21049058437347412, 0.23965692520141602, 0.22918611764907837, 0.2103230357170105, 0.22118772566318512, -0.028508683666586876, 0.06696338206529617, -1.746402382850647, -0.04415523260831833, -2.085691213607788, -3.7353436946868896, -3.2283856868743896, -1.3153810501098633, -1.7182180881500244, -0.9156218767166138, 0.12837979197502136, 0.2318686693906784, 0.22185952961444855, 0.015946319326758385, -0.5768750905990601, -0.5996827483177185, -1.306867241859436, -0.8073886036872864, -2.328660726547241, -0.7368173599243164, -0.7280062437057495, -0.9690876603126526, 0.9041553735733032, -0.5064852237701416, -1.1262518167495728, 0.25228843092918396, 0.22603577375411987, 0.25615063309669495, -1.2369343042373657, -1.1919324398040771, -1.2840111255645752, -0.8027392625808716, 0.9271071553230286, 1.7227301597595215, 1.9475821256637573, 1.043281078338623, -0.14870896935462952, 2.0244338512420654, -1.9032199382781982, -2.580148696899414, 0.1884361207485199, 0.3480880558490753, -1.439318299293518, -1.0989230871200562, -0.09778181463479996, 0.86611407995224, 1.1065373420715332, 2.135608434677124, 3.70092511177063, 2.3205952644348145, 0.7034541964530945, 0.5347552299499512, -3.315509796142578, -2.35463809967041, 0.22988742589950562, 0.20457759499549866, 0.6659210324287415, 0.09496168792247772, -0.7008194327354431, -1.4578957557678223, -0.48574933409690857, -2.0307116508483887, -0.2766151428222656, 3.033470630645752, 4.063202857971191, 3.2392983436584473, 1.0699001550674438, 1.7211267948150635, 0.2099800705909729, -0.1849644035100937, -0.33411797881126404, 0.4581202566623688, 1.9918256998062134, 1.4956778287887573, -0.5686273574829102, -7.871603488922119, -5.579320907592773, -2.0465025901794434, -0.02752888947725296, 4.438560485839844, 2.646833896636963, -0.8580026030540466, 0.22041453421115875, -0.893618106842041, 0.39046549797058105, 2.4882326126098633, 2.2930617332458496, 2.08095645904541, -2.292060375213623, -8.61129379272461, -4.2391791343688965, -2.5149948596954346, 0.17757339775562286, 2.533665180206299, 1.369070291519165, -0.2307332307100296, 0.228399395942688, -0.7258694171905518, 0.431547075510025, 1.5346592664718628, 0.8857954740524292, 1.2243952751159668, -5.8386945724487305, -7.197563648223877, -3.7055511474609375, -0.36398524045944214, 1.195239782333374, 1.56825590133667, -2.489039897918701, -0.2264891266822815, 0.19814079999923706, -1.7586055994033813, 0.9849229454994202, 1.1978733539581299, 0.7957646250724792, 1.3951563835144043, -2.9744770526885986, -2.9442379474639893, 0.5638329982757568, -0.838650643825531, 0.4666801691055298, 0.21750715374946594, 0.45868560671806335, 0.6453126072883606, 0.6059464812278748, 0.36884650588035583, 1.4873570203781128, 1.1798256635665894, 1.580275297164917, 2.975987434387207, 1.0115724802017212, 0.21375703811645508, -0.338198721408844, -1.3550338745117188, 0.4784032702445984, 1.2941560745239258, -0.39084362983703613, -0.19327270984649658, 0.19544082880020142, -0.5180907845497131, -0.46389004588127136, 1.2011758089065552, 1.8864485025405884, 1.3711256980895996, 3.547156810760498, 1.352143406867981, 0.526526927947998, 0.8156712651252747, 0.8475438356399536, -0.05648231506347656, 0.3302071690559387, 0.20543086528778076, 0.24830098450183868, 0.22511734068393707, -1.766815185546875, -3.1073081493377686, -2.467219591140747, -0.4618227183818817, 2.7354984283447266, -0.7353569865226746, -2.6625683307647705, -4.495068073272705, -3.305628538131714, -1.9820009469985962, 0.1306188851594925, 0.2525360882282257, 0.23792536556720734, 0.20551860332489014, 0.007401019800454378, -2.6246731281280518, -2.825390338897705, -1.7509983777999878, -1.465218424797058, -2.2364652156829834, -0.724199116230011, -0.6914924383163452, -1.121070146560669, -1.3116016387939453, 0.24368460476398468, 0.18873974680900574, 0.02220842055976391, 0.019037999212741852, 0.025837983936071396, -0.0006722311954945326, -0.02389509789645672, 0.03627408295869827, 0.02444130927324295, 0.013300219550728798, -0.009273559786379337, 0.02423197589814663, 0.021256085485219955, -0.0002702497586142272, -0.036389824002981186, 0.02250789664685726, 0.02639305219054222, 0.28790417313575745, -0.31175369024276733, 0.6445951461791992, -1.8640068769454956, -0.11316680163145065, -2.539977788925171, -1.5716710090637207, 0.014401157386600971, -0.3860214352607727, -0.9098055362701416, -0.02031356282532215, -0.3419882357120514, -0.018637118861079216, -0.027362370863556862, -0.03601190820336342, -0.19255463778972626, -0.5548518300056458, -0.3045823872089386, -1.293803334236145, 2.025556802749634, 1.2185180187225342, 2.869086503982544, 2.3912267684936523, -0.6943331956863403, -0.2186298966407776, -0.030985064804553986, 0.008853300474584103, -0.0019179281080141664, 0.009841605089604855, 0.2453908920288086, 0.8001823425292969, 0.5003039240837097, 2.449047327041626, 1.308081030845642, -1.1753578186035156, 3.4013397693634033, 1.0997016429901123, 0.7975572347640991, 1.046823263168335, 0.02661272883415222, -0.02338811755180359, -0.02976628579199314, -0.42703112959861755, -0.36208227276802063, -0.15893185138702393, 0.16456089913845062, 0.06232267618179321, 2.0928781032562256, 3.586158275604248, 2.6391184329986572, 3.0451903343200684, 1.857306957244873, 3.341369390487671, -0.6466124653816223, -0.02885165810585022, -0.0021021459251642227, 0.3645957410335541, 0.6273022890090942, -0.6290438175201416, -0.9901123642921448, -0.7960265874862671, 0.8276799917221069, 0.6793785095214844, 4.606985569000244, 3.502708911895752, 3.5820841789245605, 4.391753673553467, -0.10588406771421432, -0.021272649988532066, 0.02466554194688797, 0.38606828451156616, 1.0069942474365234, -1.1968426704406738, -0.8743685483932495, 0.5029692053794861, -1.8083009719848633, 0.011231018230319023, 2.6398558616638184, 0.8913000226020813, 2.954486846923828, 1.5009119510650635, -1.0444892644882202, 0.0170300230383873, 0.02945544198155403, -1.98481285572052, 2.3617286682128906, 1.6938880681991577, 0.9455078840255737, 0.8836118578910828, -2.5957162380218506, -3.0359199047088623, 0.10974214971065521, -0.043476931750774384, -0.2257012277841568, 0.6398829221725464, -0.0589207224547863, 0.023703841492533684, 0.0003912727697752416, -1.915929913520813, 0.8949244618415833, -0.1177457869052887, 0.5068569183349609, 0.11978597193956375, -3.0224525928497314, -1.0779383182525635, 0.07071725279092789, 0.2575744688510895, -0.0745592787861824, -1.644718885421753, 0.6133649945259094, -0.011549437418580055, -0.023140085861086845, -1.2903475761413574, 1.889682412147522, 1.0534615516662598, 2.3974990844726562, -0.02322482503950596, -4.2210693359375, 0.1491830050945282, -0.9627482295036316, -0.08154010027647018, 0.3581482768058777, 0.8348856568336487, -0.03414372727274895, 0.005321600940078497, 0.8807739019393921, 1.375027060508728, 1.4753518104553223, 1.3831369876861572, 1.2082322835922241, 4.083281517028809, -1.890957236289978, -2.686532497406006, -2.1489357948303223, -1.0808873176574707, -0.9888356924057007, -0.572636067867279, 0.025374004617333412, 0.012735013850033283, -0.007676227483898401, -0.20403620600700378, 0.02191203273832798, 0.9430834650993347, 1.1993674039840698, 2.235884428024292, 1.7068766355514526, -1.6775891780853271, -2.8288042545318604, -0.3583103120326996, -0.21438194811344147, -0.7319669127464294, 0.020289210602641106, -0.013476341962814331, -0.030638664960861206, 0.0020895337220281363, -2.0848922729492188, -1.7672388553619385, -1.323592185974121, 2.2381622791290283, 1.3776371479034424, -2.7052865028381348, -1.903626561164856, -2.2689077854156494, -2.1728687286376953, 0.3739645481109619, 0.009615990333259106, 0.003994655329734087, 0.008192108012735844, -0.029055478051304817, -0.20943909883499146, -1.5756748914718628, -1.2426429986953735, 0.5262445211410522, -1.2680851221084595, -0.759052038192749, -0.8898172974586487, 0.3049207031726837, -1.6006964445114136, -0.018058013170957565, 0.019305892288684845, 0.009057136252522469, -0.02283540368080139, -0.02449539490044117, -0.028493672609329224, -0.044858772307634354, -0.07237837463617325, 0.5621833801269531, -0.07477066665887833, -0.0315549299120903, -0.027153704315423965, -0.02203976921737194, -0.040369171649217606, -0.05133504047989845, -0.032670311629772186, -0.03267466276884079, -0.06953733414411545, -0.2516613006591797, -0.5713715553283691, -0.034393761307001114, -1.9472596645355225, -0.7713539004325867, -3.2071406841278076, -0.7548310160636902, 0.8834312558174133, -0.05960005894303322, -1.9874353408813477, -0.2379847764968872, -0.19191020727157593, -0.011207145638763905, -0.059842146933078766, -0.0076050544157624245, -0.3393777906894684, -0.8404636979103088, -1.5962169170379639, -0.5603818297386169, 1.8742496967315674, 0.4906299412250519, 1.2374318838119507, 0.09767588973045349, 0.6730979084968567, -3.2187421321868896, -1.569358468055725, -0.12857715785503387, -0.06130567193031311, 0.0020583670120686293, -1.0821514129638672, -0.2547372579574585, -0.2812608480453491, 0.35049477219581604, -0.8049440383911133, -0.9836969375610352, 1.0333213806152344, -2.6824090480804443, -2.882568836212158, -5.418532371520996, -1.0047327280044556, 0.054759182035923004, -0.016940299421548843, 0.06451579928398132, 0.10906646400690079, -0.07302720844745636, 0.3918965458869934, -1.620663046836853, 0.11242452263832092, -5.667300224304199, -2.130065441131592, -2.4411611557006836, -4.851658344268799, -0.29581838846206665, -1.2394219636917114, -0.019768115133047104, -0.07392630726099014, -0.04256974905729294, 0.6815474629402161, -1.2028075456619263, -0.5256633758544922, -0.37898844480514526, -0.3783814609050751, -5.32011604309082, -0.9722127318382263, -0.27335381507873535, -0.5314077734947205, 0.9443195462226868, 0.19246578216552734, -0.020923906937241554, -0.07587508112192154, -1.677311897277832, 0.8111359477043152, 1.2402039766311646, 1.7161543369293213, 0.5055484771728516, -5.078887462615967, -2.3557119369506836, 1.7157279253005981, -0.5919095277786255, 2.8861987590789795, 1.6515384912490845, -1.7613235712051392, -0.060593344271183014, -0.06785421073436737, -2.440845012664795, 2.12003755569458, 2.122602701187134, 1.8491908311843872, 0.052436456084251404, -3.453463554382324, -3.910801410675049, -1.0897196531295776, 1.5092389583587646, 1.44728684425354, 1.3630343675613403, 0.44551190733909607, -0.07300380617380142, -0.04288061335682869, -1.7990373373031616, 1.5529201030731201, 0.6874826550483704, 0.6643342971801758, -0.31784623861312866, -1.1354426145553589, -1.040479063987732, 0.6832602024078369, 1.4169800281524658, 0.44592002034187317, -1.0060529708862305, 1.7153371572494507, 0.5164405107498169, 0.5399894714355469, -0.5285416841506958, 1.3684309720993042, -0.9944425225257874, 1.428774356842041, -1.0067218542099, 1.4094464778900146, 1.0281444787979126, 0.8714384436607361, 1.360353708267212, -0.3566676676273346, 1.060364007949829, 0.35973477363586426, -0.0540308952331543, 0.09385179728269577, 0.8685938119888306, 0.8360263705253601, -0.17221608757972717, 1.1047128438949585, -0.6334579586982727, -1.1890068054199219, -1.2165309190750122, 0.003974644932895899, -0.3863065838813782, -1.8743820190429688, -1.4690921306610107, -0.5657173991203308, -0.06749485433101654, -0.0560760498046875, -0.7566003799438477, -0.544813334941864, 0.023660672828555107, 0.34159985184669495, 1.1649900674819946, -1.8669817447662354, -4.205236434936523, -3.8716976642608643, 0.22878475487232208, -1.7873034477233887, -0.9647842645645142, -0.039582449942827225, -0.04443367198109627, -0.05235416069626808, -0.07528505474328995, -0.35907918214797974, -1.9805957078933716, -1.6808475255966187, -1.842417597770691, -4.3520965576171875, -1.2148067951202393, -2.519231081008911, -2.271409749984741, -1.7161924839019775, 0.4965773820877075, -0.06754682958126068, -0.03929992392659187, -0.020857805386185646, -0.029530497267842293, -0.17163598537445068, 0.04505531117320061, -0.7656317949295044, 0.16519270837306976, -0.5270266532897949, -0.4387546479701996, -0.728783905506134, -0.026349278166890144, -1.0918982028961182, -0.02402469515800476, -0.03821152076125145, -0.005643062759190798, -0.1632518768310547, -0.17159534990787506, -0.14288149774074554, -0.1824219673871994, -0.34549033641815186, 0.35464367270469666, 0.4862416386604309, -0.2161402702331543, -0.2038535624742508, -0.08073791861534119, -0.1532316505908966, -0.1918741762638092, -0.19842840731143951, -0.14507560431957245, -0.1621260643005371, -0.0897630900144577, -0.8306307196617126, -0.9514319896697998, -0.8796225786209106, -0.586876392364502, -3.5814332962036133, -2.5846261978149414, -1.0357954502105713, -0.3351115584373474, -2.6520333290100098, -2.059816360473633, 0.1818745732307434, -0.13841499388217926, -0.18847881257534027, -0.6127442121505737, -1.9771003723144531, -1.1423327922821045, -0.6947372555732727, -0.1321883201599121, 1.063320517539978, -0.20263779163360596, 0.3915962874889374, 0.6006112098693848, 0.07456720620393753, 0.9208691120147705, -1.3398257493972778, -0.7381057739257812, -0.1648837924003601, -0.3042682409286499, -1.6746364831924438, 0.06512365490198135, -1.1036971807479858, 0.6802499294281006, 1.658399224281311, 2.2227587699890137, 2.6426119804382324, 1.7454049587249756, 0.14664791524410248, 0.22698290646076202, -2.2166028022766113, -1.048747181892395, -0.13305802643299103, -0.018623607233166695, 0.4079728126525879, 0.3055768609046936, 0.32241982221603394, 0.23081012070178986, -0.9456827640533447, 0.150440514087677, 2.3207879066467285, 2.565654993057251, -0.03526412323117256, 0.9710997343063354, -2.8875319957733154, -1.0791947841644287, -0.05096103250980377, -0.039180368185043335, 0.2268434315919876, 0.30507776141166687, -1.433656096458435, 0.8084889650344849, 0.053048569709062576, -5.5370635986328125, -3.3646175861358643, 1.1473067998886108, 3.292341470718384, 3.370530366897583, 1.1561001539230347, 0.7562253475189209, -0.19206789135932922, -1.2233115434646606, 0.9611564874649048, 1.9413295984268188, 2.513740062713623, 1.9017713069915771, -2.8803727626800537, -6.5659708976745605, -4.1930952072143555, -2.673450469970703, -0.08594277501106262, 4.183196067810059, 2.0035808086395264, -0.1512196660041809, -0.19417545199394226, -2.2170615196228027, 1.6864545345306396, 2.130756139755249, 2.3781299591064453, 1.350500464439392, -4.758687973022461, -8.906214714050293, -4.606669902801514, -0.9981796145439148, -0.11901000142097473, 2.0461068153381348, 0.3151613175868988, -0.24185271561145782, -0.13916094601154327, -1.9746720790863037, 1.7663795948028564, 1.6346662044525146, 1.3164235353469849, 0.6994153261184692, -4.711264610290527, -6.144068717956543, -0.1677037626504898, 0.2043130248785019, 1.28480064868927, 1.162955403327942, 0.3506573736667633, 0.7680879831314087, 0.31157660484313965, 0.4795958399772644, 1.70079505443573, 1.8218077421188354, 1.0393201112747192, 1.6871755123138428, -0.8330394625663757, -1.3588730096817017, 0.07418529689311981, -0.6587380766868591, 0.24623124301433563, 1.2349404096603394, 0.6084649562835693, -0.12165975570678711, -0.20544923841953278, 0.577670156955719, 1.4926350116729736, 1.7532925605773926, 2.6431937217712402, 2.226288318634033, 2.0862419605255127, 0.9629511833190918, -1.5757702589035034, -1.3992388248443604, 0.1528652161359787, -0.38128289580345154, -1.7643566131591797, -0.4580267369747162, -0.14673911035060883, -0.6051732301712036, -1.5137382745742798, -0.7342802882194519, 0.6544101238250732, 1.6313384771347046, 2.8872599601745605, 1.1605302095413208, 1.0671892166137695, -0.006340102758258581, -0.867799699306488, -0.8696262836456299, -0.5367563366889954, -0.1998317986726761, -0.18644271790981293, -0.24319776892662048, -0.19512924551963806, -1.753631591796875, -3.3285763263702393, -3.8069252967834473, -3.8447041511535645, -3.762876033782959, -4.212374687194824, -3.952869176864624, -2.4712462425231934, -1.9739408493041992, -0.18525342643260956, -0.1698167473077774, -0.1901172697544098, -0.18571506440639496, -0.10927114635705948, -0.178477942943573, -0.6198466420173645, -0.03496960923075676, 0.03309633955359459, -1.4608893394470215, -1.3938679695129395, -0.1878475397825241, -0.6766485571861267, -1.3062160015106201, -0.1388939768075943, -0.1482381820678711], [0.615612268447876, 0.6068618893623352, 0.6166550517082214, 0.6084745526313782, 0.6207534074783325, 0.6656858921051025, 0.669766366481781, 0.6366044878959656, 0.5117473602294922, 0.6400334239006042, 0.610857367515564, 0.6189760565757751, 0.6392043232917786, 0.6696506142616272, 0.621551513671875, 0.6073511838912964, 0.6296104788780212, 0.6646068096160889, -0.6320531964302063, -0.5341693162918091, 1.2354851961135864, 2.9227614402770996, 0.8253577351570129, -0.588753342628479, -0.840193510055542, -0.2694600224494934, -0.23774242401123047, 0.6510364413261414, 0.6551164388656616, 0.5310608148574829, 0.618381679058075, -1.2448915243148804, -2.814328908920288, 0.6663526892662048, 0.5752027034759521, 0.4550071656703949, -0.04002101719379425, 0.1849156767129898, 0.6911060214042664, 0.7993890047073364, -2.2517282962799072, 0.898938000202179, 0.6372257471084595, 0.9842431545257568, -0.909525990486145, -2.4797513484954834, -2.7526533603668213, -2.227678060531616, -1.2664695978164673, -1.527764081954956, -0.9438092708587646, -0.32312145829200745, 1.0885255336761475, 0.6820485591888428, -3.273664712905884, 0.3499199151992798, 0.6373295187950134, 0.6934584975242615, -1.369859218597412, -1.6215794086456299, -3.428621530532837, -3.2201218605041504, -0.07707589864730835, 0.46549880504608154, -0.1690061390399933, 0.5423212051391602, -1.273823857307434, -5.029077053070068, -5.182593822479248, -0.21614348888397217, 0.673716127872467, 0.8507887721061707, -1.4362462759017944, -1.9118081331253052, -2.656104564666748, -1.9337266683578491, 0.9023375511169434, 6.110559463500977, 1.7969392538070679, -0.412321537733078, -3.901667356491089, -3.1082098484039307, -2.5181472301483154, 0.7077879905700684, 0.6675618886947632, 0.7445740103721619, -0.20065546035766602, -1.704931616783142, -0.8761096596717834, -2.6903038024902344, 0.23709197342395782, 5.577967643737793, 0.473419189453125, -1.1830452680587769, -2.3344852924346924, -1.579236388206482, -0.6124823689460754, 0.6874510645866394, 0.6579258441925049, 0.8196472525596619, 0.5392671823501587, -2.2552037239074707, -2.460117816925049, -3.939584970474243, -0.435219943523407, 4.445969581604004, -0.0975840613245964, -3.899658679962158, -1.1457494497299194, -0.7453581094741821, -1.022502064704895, 0.6074626445770264, 0.657996416091919, 0.6541450619697571, -0.44474148750305176, -2.4024879932403564, -1.5820198059082031, -1.1152135133743286, 1.3289458751678467, 3.3111815452575684, -3.2570111751556396, -6.866422176361084, -1.7393494844436646, -2.953803300857544, -1.7243657112121582, 0.34821608662605286, 0.6251318454742432, 0.5235260725021362, -2.280195474624634, -5.2645769119262695, -0.8057082891464233, -0.6376466155052185, 1.8121610879898071, 0.46365100145339966, -1.7883305549621582, -1.499678373336792, -0.8097128868103027, -2.5537407398223877, -1.5270130634307861, 0.7099698781967163, 0.6627417802810669, 0.24618913233280182, -3.0089914798736572, -2.825965166091919, -0.2895296514034271, 1.4689897298812866, -0.652835488319397, -0.16277310252189636, 2.392184257507324, 0.910918116569519, -2.4571070671081543, -3.5138823986053467, -0.17709943652153015, 1.0326775312423706, 0.6747903227806091, 0.9179615378379822, 1.6468427181243896, 2.676060438156128, -0.21216167509555817, -1.1264127492904663, -2.675072193145752, -0.7437336444854736, 3.8655622005462646, 0.27101653814315796, -1.9289203882217407, -1.2378689050674438, 0.3747851848602295, 0.634101927280426, 0.6424034833908081, 0.4816270172595978, 0.886917233467102, 0.2843902111053467, -1.1122249364852905, -3.544933557510376, -3.311534881591797, -3.006300926208496, -1.2642182111740112, -0.09062718600034714, -1.9493203163146973, 1.293750286102295, 0.8537809252738953, 0.6410370469093323, 0.6152871251106262, 0.6537743210792542, 0.5067298412322998, -0.23663564026355743, -0.582552433013916, -1.582815170288086, -2.5649540424346924, -1.6760666370391846, -0.8947499394416809, 0.9241093993186951, 0.6187687516212463, 0.6398133039474487, 0.6527737975120544, 0.6452193260192871, 0.0945243239402771, 0.10789366811513901, 0.08318155258893967, 0.09721297770738602, 0.07526911050081253, 0.062498368322849274, 0.09117645025253296, 0.10358971357345581, 0.07782144099473953, 0.1053960993885994, 0.08604317903518677, 0.10892903059720993, 0.07357867062091827, 0.04213353246450424, 0.05555572733283043, 0.06130064278841019, 0.04111780971288681, -0.06834741681814194, -0.2874177396297455, -0.1517798751592636, 1.0907394886016846, 2.801675319671631, 0.7267037034034729, 0.48805004358291626, -0.17549745738506317, 0.03642833232879639, 0.08113730698823929, 0.04898563027381897, 0.07638970762491226, 0.0727943629026413, -0.36469030380249023, 0.6736271381378174, -1.1447144746780396, 1.3424479961395264, 3.3370823860168457, 0.8573089241981506, 2.5977494716644287, 2.704671859741211, 2.2955901622772217, 0.32893258333206177, 0.07086944580078125, 0.09655814617872238, 0.05126073956489563, 1.0297935009002686, -1.1211527585983276, -1.3290139436721802, -0.23195885121822357, 0.335223913192749, 1.7847912311553955, 0.9677190184593201, 0.8912025094032288, 2.2643063068389893, -1.0662287473678589, -0.8312017321586609, -0.7545382380485535, 0.07553324848413467, 0.10700885206460953, 0.061109744012355804, -1.011553168296814, -1.9530878067016602, -1.468141794204712, -0.09859215468168259, 0.053504567593336105, 0.20491288602352142, -1.197616457939148, -2.7445688247680664, -1.196877121925354, -1.9492876529693604, -0.988717257976532, 0.0504465326666832, 0.0497184656560421, 0.09886972606182098, -1.1408170461654663, -0.3322696089744568, -1.4324990510940552, -1.2105475664138794, 1.2412835359573364, 0.7492860555648804, -4.324836254119873, -2.7524800300598145, -0.5303567051887512, -1.0944671630859375, 0.3352878987789154, 0.09093882143497467, 0.09558536112308502, 0.09552051872015, -0.27358800172805786, -1.8854279518127441, -1.1268926858901978, -3.4695987701416016, 0.5497936606407166, 2.2165181636810303, -4.116856575012207, 0.6565113663673401, 1.2671020030975342, 0.6684247255325317, 0.7178401947021484, 0.07396162301301956, 0.05147445201873779, 0.739158034324646, -0.759272575378418, -0.7821091413497925, -2.2486484050750732, -0.3855687081813812, -0.04120110720396042, -0.017322372645139694, -1.8345884084701538, 0.3488471806049347, 0.04969337582588196, -0.8617143034934998, 0.05114034190773964, 0.06611751765012741, 0.06781243532896042, 0.07734455913305283, -1.4434919357299805, -0.44108280539512634, -0.01996896229684353, 0.8630320429801941, 2.1104214191436768, -5.492904186248779, -4.701601028442383, -1.7642501592636108, -0.13065814971923828, -0.535302996635437, 0.057105034589767456, 0.07013943046331406, 0.07669732719659805, -0.21331512928009033, -2.6891870498657227, -0.852574348449707, 0.259887158870697, 0.6091954112052917, 0.9545938372612, -1.928575038909912, -5.472621917724609, -0.7241359353065491, 0.05163279175758362, -0.3137131333351135, 1.0686578750610352, 0.10189630091190338, 0.10038622468709946, 0.5577166080474854, -2.1151795387268066, -0.7991264462471008, -0.044970352202653885, -0.3859300911426544, -0.227857306599617, 2.5159385204315186, -1.084769368171692, 0.3088260889053345, -0.5082629919052124, 1.117271900177002, 0.01934126764535904, 0.10866329818964005, 0.054091837257146835, 1.0873034000396729, 1.7860960960388184, 0.044365424662828445, 1.2171040773391724, -0.0493655800819397, 1.9235175848007202, 4.372203350067139, 3.2844395637512207, -0.29050537943840027, -0.8588113784790039, 0.06333477795124054, 0.0735572949051857, 0.09955962747335434, 0.059299737215042114, -0.07126879692077637, 1.4989311695098877, -1.5674707889556885, -0.7151041030883789, -0.37534448504447937, 0.5373464822769165, -1.350184440612793, 1.3833104372024536, -0.20318573713302612, -0.21140672266483307, 0.5441553592681885, 0.042097173631191254, 0.06898386776447296, 0.07296216487884521, 0.044233374297618866, 0.09866560250520706, 0.041826315224170685, -0.2582033574581146, -1.2900112867355347, -1.0307917594909668, -0.8752362132072449, 0.06447164714336395, 0.07962154597043991, 0.07983618974685669, 0.06707318872213364, 0.07119997590780258, 0.09883519262075424, 0.23007062077522278, 0.28272202610969543, 0.2681259512901306, 0.29232057929039, -0.0732412189245224, 0.2883407175540924, 0.24263153970241547, 1.3938159942626953, 0.27926692366600037, 0.27814653515815735, 0.2908879816532135, 0.2762157618999481, 0.2359190285205841, 0.2878399193286896, 0.23702701926231384, 0.27198660373687744, 0.2548225522041321, 0.23827853798866272, -0.6914595365524292, -2.711097478866577, -0.40636828541755676, 1.0645478963851929, -0.7327268719673157, -0.9119254350662231, -0.7093700170516968, -0.7292433977127075, 0.2521764934062958, 0.262239933013916, 0.24615760147571564, 0.5515255928039551, -0.22495701909065247, -0.7015888690948486, -2.525954008102417, -0.3662900924682617, 0.44705337285995483, 1.6113464832305908, 1.0613174438476562, 2.188941717147827, 3.9533777236938477, 0.2437421977519989, -1.2069547176361084, 0.26219815015792847, 0.2608010172843933, 0.2508167624473572, -0.3399943709373474, -1.2729684114456177, -2.3678243160247803, -1.901261806488037, -1.0670878887176514, -1.983843207359314, -0.658334493637085, 2.4067201614379883, -1.625874638557434, -3.0165610313415527, -0.46334001421928406, -0.23365134000778198, 0.051674291491508484, 0.25013992190361023, -1.1131798028945923, -2.4532408714294434, -1.913273572921753, -0.20476704835891724, -0.9148813486099243, 1.6104564666748047, 0.9298937320709229, -4.718042373657227, -3.129671096801758, -2.014846086502075, -0.06386654078960419, 0.23266731202602386, 0.24686461687088013, 0.2484603375196457, -0.6707814335823059, -1.3848060369491577, -0.5316890478134155, -0.9147656559944153, 2.13676118850708, 0.6187217235565186, -6.233137607574463, -3.223496675491333, 1.332850694656372, -0.14133934676647186, 0.8406829833984375, 0.2563660740852356, 0.22957466542720795, 0.4622797667980194, -0.43083083629608154, -1.8522135019302368, -0.14256422221660614, -1.6293491125106812, 0.405021607875824, 1.7472362518310547, -7.002162933349609, -0.7141097187995911, -0.1665206253528595, -0.24604196846485138, 0.5090006589889526, 0.2902134954929352, 0.22420258820056915, 0.4832375645637512, -0.6427262425422668, -1.5409411191940308, -2.3020498752593994, -0.07420410960912704, 2.0632238388061523, -0.12918701767921448, -2.9484291076660156, -0.21931543946266174, 0.12711359560489655, -0.8516672253608704, 0.05886460840702057, 0.518792986869812, 0.24198518693447113, 0.26960277557373047, -1.7427207231521606, -1.201704740524292, 0.5120918154716492, 0.18457964062690735, 0.6548115611076355, -5.6307196617126465, -4.650182247161865, -0.036419786512851715, 0.26896125078201294, -1.4156275987625122, 1.1175236701965332, 0.5302093029022217, 0.2322860062122345, -0.04900007322430611, -3.6335723400115967, 0.6800684332847595, 0.2884846031665802, -0.8274474143981934, 1.4647886753082275, -2.7921714782714844, -4.422332763671875, -0.7771055698394775, -1.6084280014038086, -1.0637545585632324, 0.5220891833305359, 0.2423216551542282, 0.2729896903038025, 1.3492048978805542, -0.3684270977973938, 1.146709680557251, 0.0456048920750618, 0.45539408922195435, -0.8470892906188965, -2.2829110622406006, -5.8178181648254395, -2.2826485633850098, -0.8360961675643921, -0.09240388870239258, 0.3059285283088684, 0.2773343026638031, 0.236087828874588, 0.5532426834106445, 2.173640012741089, 1.8672553300857544, 0.9542672038078308, 0.13951164484024048, -0.7752575874328613, 0.8824779987335205, 2.8123278617858887, -0.2139912247657776, -0.3499857783317566, 0.28148165345191956, 0.25811055302619934, 0.2779187262058258, 0.25911471247673035, -0.3076893389225006, 0.019885605201125145, -3.292203664779663, -0.595679759979248, -0.1237514317035675, -2.818413257598877, -0.04884355142712593, 0.8665333390235901, 1.1315124034881592, 0.5133121609687805, 0.259481817483902, 0.2869095504283905, 0.28893908858299255, 0.25639432668685913, 0.22842375934123993, 0.28164687752723694, 0.23084935545921326, 0.23060747981071472, 0.26680850982666016, 0.21284998953342438, -0.10044611245393753, 0.269400954246521, 0.25525468587875366, 0.2830757796764374, 0.24866794049739838, 0.2904163897037506, 0.26346588134765625, 1.7547953128814697, 1.7751082181930542, 1.7346993684768677, 1.7808092832565308, 1.418815016746521, 1.7845767736434937, 1.8316168785095215, 2.748380184173584, 1.770330548286438, 1.8542357683181763, 1.7933146953582764, 1.7347760200500488, 1.730854868888855, 1.7443758249282837, 1.7949252128601074, 1.777846336364746, 1.7512354850769043, 1.7030681371688843, -0.028648605570197105, -2.180277109146118, -2.0121121406555176, -0.8960160613059998, -1.2029080390930176, -1.7239528894424438, -1.196211814880371, -0.5390672087669373, 0.3555346131324768, 1.7492502927780151, 1.7561503648757935, 2.2091269493103027, 1.0399550199508667, -0.6126696467399597, -3.103192090988159, -0.41215360164642334, 0.24340255558490753, 0.9289203882217407, -0.06304476410150528, -1.5003979206085205, 1.233818769454956, 1.0099363327026367, -1.1080118417739868, 2.049196243286133, 1.7635433673858643, 1.9183423519134521, 0.02883683331310749, -2.715527057647705, -3.418327569961548, -3.555880308151245, -0.6811814904212952, -1.416460394859314, -1.5099533796310425, -0.36565637588500977, -0.11520702391862869, -2.6527626514434814, -3.1095893383026123, 0.6349486708641052, 1.6939489841461182, 1.6194638013839722, -1.0645321607589722, -1.32921302318573, -4.1167449951171875, -1.6874014139175415, 0.2025020569562912, 3.517799139022827, 1.3896934986114502, -0.8476700782775879, -3.735661745071411, -4.701049327850342, -3.4684133529663086, 1.3600811958312988, 1.798682689666748, 1.8491350412368774, -0.026247918605804443, -1.7157305479049683, -1.806995153427124, -1.7242707014083862, 1.446178674697876, 6.649325370788574, 0.8462266325950623, -0.9932268857955933, -2.4211645126342773, -1.6787140369415283, 0.1213407814502716, 1.6981801986694336, 1.7602474689483643, 1.8741445541381836, 0.8249061107635498, -2.9296984672546387, -1.4990674257278442, -3.7280938625335693, -0.21074669063091278, 4.608543395996094, 0.08779861778020859, -2.91695237159729, -1.2676743268966675, -0.601326584815979, -0.033358827233314514, 1.2516621351242065, 1.7520115375518799, 2.2969727516174316, 0.4482070207595825, -1.5902212858200073, -1.244878888130188, -1.9357664585113525, 1.72098708152771, 3.671316623687744, -2.3873744010925293, -6.142878532409668, -1.7349246740341187, -1.2098807096481323, 0.08988209068775177, 1.6146488189697266, 1.7732230424880981, 1.506135106086731, -0.3786426782608032, -3.3330538272857666, -0.9805103540420532, -0.15101434290409088, 1.9949740171432495, 0.7834230661392212, -4.0715179443359375, -3.9170100688934326, -0.754551887512207, -2.481112003326416, -0.9994578957557678, 0.5627182126045227, 1.7727419137954712, 0.8648945689201355, -2.897141218185425, -3.132324457168579, -0.3332708477973938, 0.6979860663414001, 1.4240427017211914, -0.43031519651412964, 0.013408361934125423, 1.1611543893814087, -1.4420424699783325, -2.3520238399505615, 2.0001401901245117, 1.5866507291793823, 1.7766237258911133, 1.949011206626892, 0.22497119009494781, 0.7096207737922668, 0.5064871907234192, -0.03815370425581932, -1.603357195854187, -0.2167583405971527, 2.640334129333496, -0.6167897582054138, -3.3924601078033447, -1.2685706615447998, 1.1463141441345215, 1.7792749404907227, 1.7476342916488647, 1.696359395980835, 2.6870057582855225, 2.5256452560424805, -1.6317081451416016, -3.0586421489715576, -1.3078769445419312, -1.2364240884780884, 6.628861904144287, 0.011335233226418495, -2.561854124069214, -0.3499750792980194, 1.7971537113189697, 1.7429845333099365, 1.7639163732528687, 1.4436639547348022, -0.42135411500930786, -1.2199862003326416, -2.8845391273498535, -3.683600425720215, -5.023776054382324, -3.313922643661499, -1.9593043327331543, 0.6057166457176208, 1.6944289207458496, 1.7921494245529175, 1.77346932888031, 1.7468771934509277, 1.790233850479126, 1.7589772939682007, 1.6694931983947754, 1.6235060691833496, 1.815755844116211, 1.2845882177352905, 1.069471001625061, 1.6969953775405884, 1.6992145776748657, 1.607974886894226, 1.7687357664108276, 1.7768290042877197, 1.7391042709350586, 1.7644115686416626], [-0.5451481938362122, -0.5533457398414612, -0.5460853576660156, -0.5605200529098511, -0.5642324090003967, -0.5438268184661865, -0.5725544691085815, -0.3467024564743042, -0.5171661972999573, -0.5850585103034973, -0.5686848163604736, -0.5275893807411194, -0.537166178226471, -0.5620925426483154, -0.526171863079071, -0.5343188643455505, -0.5346509218215942, -0.9273698329925537, -1.7035984992980957, -0.6614563465118408, 0.1431046426296234, 1.535337209701538, 0.5671646595001221, -0.7975772023200989, -1.157546043395996, -1.5775023698806763, -0.6268746852874756, -0.5232568383216858, -0.5382494926452637, -0.5701694488525391, -1.0731271505355835, 0.3125559389591217, 2.9511775970458984, 2.7063021659851074, 2.9373576641082764, 1.4640318155288696, 1.3392210006713867, 0.1610291451215744, -2.2519705295562744, -3.5527799129486084, -1.1799323558807373, -0.20981179177761078, -0.5323240756988525, -0.492622435092926, 1.9610342979431152, 0.9206745028495789, 1.638645052909851, 1.7230042219161987, 0.6860456466674805, 2.144819498062134, 0.9870379567146301, 0.2021496444940567, -0.23223736882209778, -1.8887652158737183, -3.6884589195251465, -0.5928605794906616, -0.5531361103057861, -1.344825029373169, 1.078047275543213, 0.3216327130794525, 1.0664358139038086, 0.21157075464725494, 1.446865439414978, 2.676187038421631, -0.46122652292251587, -0.6221505403518677, -1.2365281581878662, -1.0226656198501587, -5.275356292724609, -1.1150411367416382, -0.5780910849571228, -1.1454551219940186, -1.195419192314148, 0.6144938468933105, -0.9393243193626404, -2.189251184463501, -3.203279495239258, -0.3795243203639984, -0.0704796090722084, -0.19591937959194183, -0.9164142608642578, -2.055673599243164, -0.5557973980903625, -0.3434543013572693, -0.5269243121147156, -1.3229236602783203, -4.10029411315918, -10.3997802734375, -9.478047370910645, -8.630255699157715, -6.618706226348877, -3.5815210342407227, -3.535062313079834, 0.18535612523555756, -0.206620991230011, -4.226221084594727, -0.3768390715122223, -0.1371479034423828, -0.5874922275543213, -2.067659616470337, -2.7709686756134033, -3.1253855228424072, -0.5680575370788574, 2.2385342121124268, 1.4286882877349854, -2.0987167358398438, -2.2687904834747314, -0.08999888598918915, -2.7695860862731934, -2.598350763320923, 1.9279333353042603, 2.1316299438476562, -0.5715782642364502, 1.9517303705215454, 4.382737636566162, 1.8317999839782715, -0.0003030396474059671, 2.5697150230407715, 2.191697835922241, 0.36899515986442566, -0.1291375607252121, -1.800103783607483, 0.3890182077884674, 2.247678756713867, 3.1836841106414795, 2.311096668243408, -0.5822957158088684, 0.4633623957633972, 3.081346273422241, 2.935633659362793, 2.1245853900909424, 2.7678635120391846, 3.382136821746826, 1.9160194396972656, 1.0696632862091064, 0.8097091317176819, 1.7079473733901978, 3.7053990364074707, 5.413754463195801, 0.4965401887893677, -1.0271269083023071, -1.8244222402572632, 1.839145541191101, 2.3054709434509277, 1.4599930047988892, 2.599217176437378, 1.2273937463760376, 1.6598643064498901, 1.341235876083374, 1.6712031364440918, 0.683757483959198, 4.384454727172852, 3.4770686626434326, 0.46795323491096497, -0.5272045731544495, -0.6119045615196228, 0.48352253437042236, 0.752437174320221, -0.3460545837879181, -0.27596861124038696, 0.40490421652793884, 0.18613380193710327, 0.03757898882031441, 2.118793487548828, 1.8557378053665161, 3.895904302597046, 1.812287449836731, -0.5474183559417725, -0.5623454451560974, -2.5669398307800293, -4.447833061218262, -3.048801898956299, -2.3205583095550537, -2.9283316135406494, -1.595312476158142, -1.8003523349761963, -2.393397808074951, -2.122907876968384, 0.7157456278800964, -0.3907952904701233, -0.7958166599273682, -0.5109667778015137, -0.5498085021972656, -0.5244709849357605, -0.5080248713493347, -0.6385721564292908, -0.7243757247924805, -1.2138625383377075, -0.5349905490875244, -1.3739521503448486, -0.6602150797843933, -1.3060674667358398, -1.367008924484253, -0.48043379187583923, -0.5308412909507751, -0.5291634202003479, -0.22041727602481842, -0.23470330238342285, -0.21961750090122223, -0.18384036421775818, -0.19392302632331848, -0.21940770745277405, -0.18785232305526733, 0.3048883080482483, -0.1960245668888092, -0.48868075013160706, -0.1870126724243164, -0.20979954302310944, -0.21609675884246826, -0.19027960300445557, -0.2237638235092163, -0.2190660834312439, 0.13468989729881287, -0.1489068567752838, 2.8326025009155273, 2.0557303428649902, 1.3856396675109863, -0.1599377691745758, -0.5755214095115662, -1.3401011228561401, -0.5904258489608765, 0.18348261713981628, -0.19371473789215088, -0.21932226419448853, -0.22597944736480713, 0.679023802280426, 0.06113457679748535, 0.9662714600563049, 1.6798179149627686, -1.5889334678649902, -0.7896333336830139, 2.091013193130493, 0.1520349532365799, -2.187688112258911, -1.1660122871398926, -0.7896888256072998, -0.2075401097536087, -0.22958175837993622, -0.16642950475215912, 0.5258158445358276, 0.6857122182846069, -0.6351280808448792, -1.1812126636505127, -1.2982255220413208, 0.5424265265464783, 1.996359944343567, 0.5457697510719299, 1.3095184564590454, 3.162140130996704, 0.02603534795343876, -0.2744065225124359, -0.18798184394836426, -0.1652534008026123, -0.8316598534584045, 1.4773777723312378, 0.9742462635040283, -0.7680412530899048, -2.686044454574585, -0.596250593662262, 1.1880284547805786, 2.399055242538452, 1.6470258235931396, 2.6204025745391846, -1.5110403299331665, -0.1563086211681366, -0.22560757398605347, -0.20301808416843414, -2.1278343200683594, 1.7898681163787842, -1.6351838111877441, -1.4066414833068848, -4.221699237823486, -2.2744410037994385, 1.8295286893844604, 2.3479721546173096, 2.23932147026062, 0.9296209812164307, 0.07987922430038452, 0.4443992078304291, -0.1915193796157837, -0.22304853796958923, -0.9720797538757324, -4.148958206176758, -6.475214004516602, -4.974868297576904, -7.062597274780273, -5.0738091468811035, 1.0859838724136353, 2.39148211479187, 2.0079445838928223, 1.3332856893539429, -1.3441383838653564, -0.3579232692718506, -0.19691884517669678, -0.5638608336448669, 0.9878550171852112, -2.134018659591675, -3.704352855682373, -4.530612945556641, -3.5617873668670654, 0.5252732038497925, -1.2085505723953247, -1.0940196514129639, -4.112832069396973, -5.26015043258667, -2.7895584106445312, 0.9235360026359558, -0.23537197709083557, -0.5140548944473267, 2.070345640182495, -0.020519953221082687, -1.0772439241409302, -2.9965126514434814, -0.2796742916107178, -0.42037612199783325, 0.37260347604751587, -3.963632822036743, -4.3638410568237305, -4.3203959465026855, -2.4725136756896973, 0.11413692682981491, 0.07171661406755447, -0.23593290150165558, 1.7018827199935913, 2.744811773300171, -0.363659143447876, -0.9462714791297913, 0.029182881116867065, -1.2847448587417603, -1.4382051229476929, -0.7309780716896057, -2.792238473892212, 0.36011990904808044, 1.2144672870635986, -0.36176401376724243, -0.21613965928554535, -0.5068416595458984, 0.22578571736812592, 0.1059054583311081, -0.14280672371387482, 0.6021302938461304, 0.4363473355770111, -1.6040817499160767, -0.5247936844825745, -0.6528241634368896, 1.3444361686706543, 2.736556053161621, 3.681307077407837, 1.263272762298584, -0.22565291821956635, -0.2206106185913086, -0.9368523359298706, 0.4353303909301758, 0.8482002019882202, -0.36883461475372314, -1.2490636110305786, -4.1389336585998535, -3.166343927383423, 2.48793625831604, 1.934574007987976, 1.4212932586669922, 1.9768399000167847, -0.3002950847148895, -0.18416498601436615, -0.1979508250951767, -1.2308608293533325, -2.28743052482605, -0.7665278911590576, -4.719198703765869, -0.5151447653770447, -0.16824810206890106, -2.2027111053466797, -3.0106470584869385, -0.22896167635917664, 0.7568236589431763, -1.5678577423095703, 0.5618067383766174, -0.1821170598268509, -0.2229277491569519, -0.17231084406375885, -0.2199668288230896, -0.18908244371414185, -0.1879233717918396, -0.6628767848014832, -0.4753120243549347, -1.3677335977554321, 0.3416142165660858, -0.3191225230693817, -0.4217880964279175, -0.1838095635175705, -0.23377808928489685, -0.20891264081001282, -0.6963035464286804, -0.6350170373916626, -0.6472318768501282, -1.0129282474517822, -1.0197663307189941, -0.7980986833572388, -0.4813385307788849, -0.8971162438392639, -0.7513465881347656, -0.8176412582397461, -0.6306679844856262, -0.6953896880149841, -0.6980589032173157, -0.6689502596855164, -0.6743627190589905, -0.6619825959205627, 0.43417492508888245, 0.3167322278022766, 3.44107985496521, 2.0027849674224854, 1.386965036392212, -1.3542777299880981, -2.3082072734832764, -1.0832053422927856, -0.7343604564666748, -2.3236231803894043, -0.7062650322914124, -0.6962560415267944, -0.6951512694358826, 0.5554342269897461, 0.2914854884147644, -0.18419122695922852, 0.12148766964673996, 0.09569753706455231, 0.2867133319377899, 0.7139517068862915, -0.4642432928085327, -4.081204891204834, -3.081753730773926, -1.447365403175354, -0.7221333980560303, -0.6708789467811584, -0.6493802666664124, -0.22782830893993378, 1.8694738149642944, 1.5040334463119507, 1.039482593536377, -0.48659393191337585, 0.4569688141345978, -3.1968812942504883, -4.03358268737793, -2.946190595626831, -1.8314613103866577, -3.053269624710083, -0.9741368889808655, -0.6941549181938171, -0.6400441527366638, -1.011200189590454, 1.7986029386520386, 3.265007734298706, 0.2656031548976898, -0.6555051207542419, -2.545207977294922, -1.8707072734832764, 0.22985154390335083, -1.0782667398452759, 1.3086947202682495, -0.7145643830299377, -0.998514711856842, -0.6994379758834839, -0.6302798390388489, -2.4149067401885986, -0.6373856663703918, -5.716930389404297, -3.828186273574829, -5.245778560638428, -3.861121892929077, 0.3880419433116913, -1.2953803539276123, 1.4093550443649292, 1.6526459455490112, 1.1792376041412354, 0.07598429173231125, -0.6657819747924805, -0.6805877089500427, -1.9480955600738525, -4.246944427490234, -5.596816539764404, -0.6170676350593567, 0.16196992993354797, 1.1830838918685913, 0.6744289398193359, 2.8474063873291016, 2.2916460037231445, 1.4671982526779175, 1.301013469696045, 2.9905903339385986, -0.4658336341381073, -0.7476968169212341, 1.0369199514389038, 2.467305898666382, 3.524552583694458, 0.9135068655014038, 2.115663766860962, 1.5985140800476074, 1.1315664052963257, 2.90604567527771, 1.3212974071502686, 0.5733644366264343, 4.422898769378662, 4.390692234039307, 0.5994874835014343, -0.6603670120239258, 1.6082227230072021, 1.5633710622787476, 2.1676671504974365, 3.597912549972534, 2.8249385356903076, 3.558307647705078, 2.7428994178771973, 0.2834182381629944, -1.4146333932876587, 0.3579084873199463, 1.7861067056655884, 2.6103930473327637, -0.41938403248786926, -0.6491757035255432, 0.7684241533279419, 2.744563579559326, 1.3645284175872803, 3.7369399070739746, 4.229879856109619, -1.1963402032852173, 0.8129529356956482, -1.5072495937347412, -0.7837468981742859, 1.526200294494629, 1.1740649938583374, 1.2726190090179443, -0.6796519756317139, -0.6455378532409668, -0.06817493587732315, 0.6045509576797485, 0.4548674523830414, 1.1406139135360718, 1.6656506061553955, -0.9990979433059692, -1.0028014183044434, 0.07936154305934906, 0.7219438552856445, -0.7356532216072083, 2.8445229530334473, -0.32292553782463074, -0.642442524433136, -0.6804520487785339, -1.3253540992736816, 0.1386491060256958, 2.2099826335906982, -1.141874074935913, -2.655423641204834, -3.892240524291992, -3.5743908882141113, -3.538926839828491, -1.5973840951919556, -0.033690374344587326, 0.26235610246658325, -0.8254395723342896, -0.6438446044921875, -0.6949889659881592, -2.125659704208374, -2.498922824859619, -3.3857975006103516, -4.5228800773620605, -3.3478596210479736, -3.0929195880889893, -3.59614634513855, -0.5156388878822327, -0.6745761632919312, -1.570518970489502, -1.6553313732147217, -0.6359933614730835, -0.6512393355369568, -0.6440207958221436, -0.6345988512039185, -0.6494783163070679, -0.6659460663795471, -0.6538921594619751, -0.6332929134368896, -0.6938693523406982, -0.6825387477874756, -0.7094746828079224, -0.6645490527153015, -0.6600915789604187, -0.6943918466567993, -0.6685544848442078, -0.6829327940940857, -0.18128477036952972, -0.20601046085357666, -0.1968010514974594, -0.49775588512420654, -0.004679371137171984, -0.40417584776878357, -0.030436523258686066, -0.9613797664642334, 0.22310203313827515, -1.5029494762420654, -0.5814440846443176, -0.18046726286411285, -0.22781610488891602, -0.23043937981128693, -0.16496652364730835, -0.16810664534568787, 0.023491939529776573, 0.5929492115974426, 2.9275383949279785, 2.0192840099334717, 3.373542070388794, 0.9098608493804932, 2.5759634971618652, -1.344938039779663, -1.9805781841278076, -0.19914622604846954, -0.9351418018341064, -0.2268316149711609, -0.2154378443956375, 0.9382829666137695, 0.3304823935031891, 0.4297821819782257, 1.709086298942566, 2.7863991260528564, 3.1451220512390137, 2.060332775115967, 2.2400200366973877, 0.5056566596031189, -1.7726852893829346, -2.6651008129119873, -1.2339588403701782, -0.07544098794460297, -0.17153698205947876, -1.3418076038360596, 0.7272812724113464, 1.152227520942688, 1.386103630065918, 0.9680464267730713, 0.8885746002197266, 1.0533075332641602, -1.01771080493927, -0.03404918313026428, -1.230433702468872, -2.366182327270508, -3.8430323600769043, -0.14359180629253387, -0.1656244993209839, 0.13023176789283752, 0.6925534605979919, 1.3889703750610352, 1.426555871963501, 0.38383927941322327, 1.6652265787124634, 3.187093734741211, 0.4413253962993622, -0.6020091772079468, -0.6241880655288696, -1.313132405281067, -2.0193960666656494, -0.42950597405433655, -0.12404986470937729, -0.9720489382743835, -3.47379732131958, -5.352184772491455, -5.314891815185547, -6.699214458465576, -7.805466175079346, -3.0136773586273193, -1.1557444334030151, 0.47494861483573914, -1.1448332071304321, -2.7253036499023438, -0.17921742796897888, -0.26556092500686646, -0.16961994767189026, -0.8325904011726379, -6.928363800048828, -10.122175216674805, -7.540882587432861, -4.04177713394165, -1.9912388324737549, -3.1420650482177734, -4.4731669425964355, -0.42466235160827637, -1.6721456050872803, -3.205307960510254, 1.0768812894821167, 1.8602068424224854, -0.47133445739746094, 1.7628668546676636, 2.3367605209350586, 1.4355496168136597, 1.4020510911941528, 2.2990059852600098, 1.7938460111618042, -0.20398372411727905, -1.409881591796875, -1.8341182470321655, -2.0997724533081055, -0.38410884141921997, 4.305050373077393, 2.9944229125976562, -0.20554062724113464, 1.2766265869140625, 2.7094905376434326, 1.5621212720870972, 0.9603385925292969, 2.5510365962982178, 1.5741915702819824, 1.1619287729263306, 0.4045628011226654, -0.12868283689022064, 2.108410596847534, 3.6293981075286865, 4.875596523284912, 1.859552025794983, -0.2768646478652954, -0.053524162620306015, 2.4720656871795654, 1.9148346185684204, 2.1020028591156006, 2.402611494064331, 2.638235569000244, 1.827118158340454, 1.4436414241790771, 0.4970560669898987, 2.741342782974243, 3.184446096420288, 4.378136157989502, 1.805263638496399, -0.19133053719997406, -0.4948998987674713, 0.48514267802238464, 2.227008104324341, 0.43321502208709717, 1.1769224405288696, 1.5387427806854248, 1.3809572458267212, 2.883251428604126, 2.306635856628418, 1.703774094581604, 5.085845470428467, 3.905036449432373, -0.09100097417831421, -0.209612175822258, -0.589503288269043, -0.1878952533006668, 0.8846070170402527, -0.47656044363975525, -0.3950965404510498, -0.15255005657672882, -1.584531545639038, -0.5945461392402649, 0.9213472604751587, 1.6642786264419556, 2.3393895626068115, 0.5648065805435181, -0.21439135074615479, -0.2255132794380188, -1.2591500282287598, -2.54470157623291, -4.328505516052246, -6.270519256591797, -5.3052873611450195, -4.896774768829346, -4.940605163574219, -2.7620632648468018, -0.47460776567459106, -0.7641270756721497, -2.017857313156128, 0.021794356405735016, -0.1418977826833725, -0.16099590063095093, -0.22287963330745697, -0.11407136172056198, -0.2901424169540405, 0.04769079387187958, 0.016577430069446564, 0.05607824772596359, -0.03974596783518791, -0.0059505607932806015, -0.04865666478872299, -0.1402759999036789, -0.21610502898693085, -0.19645021855831146, -0.19971837103366852], [-0.5530624389648438, -0.5565816760063171, -0.5075737237930298, -0.49870577454566956, -0.5101833939552307, -0.5629134774208069, -0.5682982802391052, -0.5667770504951477, -0.5380874276161194, -0.5170814394950867, -0.5321917533874512, -0.5468435287475586, -0.5425552129745483, -0.5099757313728333, -0.5200817584991455, -0.5626968741416931, -0.5639175772666931, -0.5616249442100525, -0.7141982316970825, -0.49238118529319763, 0.9522525668144226, 1.2583141326904297, 0.35564887523651123, -0.9357748031616211, -0.8721563816070557, -0.6544384360313416, -0.7767089009284973, -0.568092405796051, -0.5496984720230103, -0.48854732513427734, 2.3643856048583984, 3.685140371322632, 3.3454208374023438, 1.1653159856796265, 2.51430082321167, 1.8132859468460083, 0.9270031452178955, 0.9903284907341003, -1.9010076522827148, -1.9422651529312134, -2.7847509384155273, -0.5612232685089111, -0.5290840268135071, 1.8893625736236572, 2.639766216278076, 0.8789998888969421, 0.9288997650146484, 2.3599114418029785, 1.966241717338562, 1.4535408020019531, 1.210349202156067, -1.0096203088760376, 0.33243340253829956, -2.4685075283050537, -4.406863212585449, -0.6610591411590576, -1.154503583908081, -0.09714550524950027, 0.7080592513084412, 1.4178234338760376, -1.6420704126358032, 0.7338297963142395, 1.7064076662063599, 3.863149881362915, 1.364166259765625, 1.2489805221557617, 0.5451368093490601, -0.8594092130661011, -4.818081378936768, -1.1138126850128174, -0.9167938828468323, 2.4826149940490723, 1.056688666343689, -1.152570128440857, -4.399771690368652, -5.573204040527344, -1.9630073308944702, 3.667191505432129, 3.766324758529663, 0.8015602827072144, 1.564735770225525, -0.5591628551483154, -3.9228978157043457, -0.5572723746299744, -0.40688955783843994, 0.5229102373123169, -1.9549330472946167, -3.5403614044189453, -2.000866413116455, -1.9764479398727417, -0.7077446579933167, 1.6191246509552002, 2.035513162612915, 0.10549981147050858, -2.7490944862365723, -4.35507869720459, -1.9787089824676514, -0.5413026213645935, -0.5503321886062622, 1.6188592910766602, -0.77237868309021, -2.9476370811462402, -1.7098538875579834, -3.0314111709594727, 0.35200682282447815, 0.48126673698425293, -1.2247722148895264, 0.5375146269798279, -0.777143120765686, -2.212867259979248, -0.20130957663059235, -0.975751519203186, -0.5636890530586243, 0.9785404801368713, -1.9518011808395386, -1.9925570487976074, -4.71519660949707, -3.9174931049346924, -0.6772656440734863, -1.2371962070465088, -0.6271517276763916, 1.62052583694458, 1.4955894947052002, 2.1402525901794434, 1.0111697912216187, -0.7365695238113403, -0.5174486041069031, 2.3631303310394287, 3.1196706295013428, -0.595675528049469, -3.191408395767212, -4.1889872550964355, -5.733530044555664, -1.7293881177902222, 3.240614891052246, 2.5656683444976807, 1.3551323413848877, 0.14093349874019623, -3.9069161415100098, -0.5604987740516663, -0.5309005975723267, 2.1053972244262695, 3.885183572769165, 1.1216241121292114, 1.3125373125076294, -0.595535159111023, -1.4332538843154907, 0.3567478656768799, 0.9535809755325317, 2.0587151050567627, 1.1624032258987427, -0.42993220686912537, -0.18255212903022766, -0.5813003778457642, -0.5175009369850159, 2.8252999782562256, 3.57120418548584, 2.7072885036468506, 1.555534839630127, 2.3428573608398438, 1.0177139043807983, 1.5092612504959106, 0.6797431707382202, -0.2239808589220047, -0.13692517578601837, -2.358333110809326, -2.2226688861846924, -0.565673291683197, -0.5460909008979797, -0.480404794216156, 4.0875701904296875, 3.729074239730835, 2.7727577686309814, 2.7793970108032227, 0.8007998466491699, 1.3650245666503906, 1.4121102094650269, -1.4403409957885742, -1.576399803161621, 0.3058881163597107, -0.5624240040779114, -0.5005092620849609, -0.5099352598190308, -0.5032467842102051, 0.4223875105381012, 1.4728716611862183, -1.6599395275115967, -2.031250476837158, -0.5421331524848938, -1.3015437126159668, 0.044406741857528687, -0.3508565127849579, -0.6381304264068604, -0.6133949160575867, -0.5363305807113647, -0.5475055575370789, 0.1720661073923111, 0.11447037756443024, 0.12296167761087418, 0.12171333283185959, 0.17579740285873413, 0.1583588868379593, 0.13432301580905914, 0.16806155443191528, 0.16201770305633545, 0.14849330484867096, 0.16267643868923187, 0.1617317646741867, 0.12814341485500336, 0.1814945638179779, 0.138205885887146, 0.14074648916721344, 0.4443957507610321, 0.11818245053291321, -0.5054340958595276, 0.755942165851593, 2.495478868484497, 0.1934996396303177, -1.0840469598770142, -1.4349517822265625, 0.14068186283111572, 0.16640476882457733, 0.152864471077919, 0.15716075897216797, 0.12347880750894547, 0.09203753620386124, 1.7525615692138672, 1.2026008367538452, 0.8270788788795471, 0.7669389843940735, 1.2450779676437378, 1.0336662530899048, -1.0356910228729248, -1.310817003250122, 0.3403363525867462, -1.142180323600769, 0.1513500213623047, 0.16089530289173126, 0.44705477356910706, 1.2842581272125244, -0.08644407987594604, -1.353198766708374, -0.12499058991670609, -0.7536444067955017, -2.261329174041748, 1.1383076906204224, 0.6674507856369019, 2.1547417640686035, 2.0381929874420166, -1.0173720121383667, 0.14303410053253174, 0.18033690750598907, -0.17389553785324097, 0.4986238181591034, -1.8852213621139526, -0.5629433393478394, -1.9415066242218018, -5.48737096786499, -2.832878589630127, -1.1310683488845825, -0.11479432135820389, 1.3991177082061768, 0.538310170173645, -1.7870665788650513, 0.1395953744649887, 0.1784626990556717, 0.14796221256256104, 2.53933048248291, 0.08584276586771011, -3.768226146697998, -4.280015468597412, -5.971311569213867, -7.22617769241333, -2.4276368618011475, -2.370175361633301, -0.9965548515319824, -3.281351327896118, -1.8412607908248901, 0.2960357666015625, 0.12271200865507126, 0.14741407334804535, 1.0514931678771973, -2.4465348720550537, -2.1957802772521973, -3.848332643508911, -5.935417175292969, -1.7467173337936401, -3.754648447036743, -3.0358195304870605, -2.7270781993865967, -4.446844577789307, 0.7146871089935303, 0.2907945215702057, 0.1267324835062027, 0.5368798971176147, 0.5573181509971619, -1.2868703603744507, -0.8645724654197693, -0.5939385890960693, -0.21579793095588684, 0.6974928379058838, 0.29264193773269653, -0.08804894983768463, 1.859944462776184, -1.518871545791626, 0.9359473586082458, -0.4353654086589813, 0.11925733089447021, 0.5119438171386719, 1.1680301427841187, -1.2641183137893677, -1.1340312957763672, -0.07468200474977493, 0.741574227809906, 1.0080246925354004, 0.9764826893806458, 0.7853294610977173, 2.7484781742095947, 2.96004056930542, 3.509117603302002, 0.1866210699081421, 0.15427429974079132, 0.14860378205776215, 2.5564544200897217, 0.45808765292167664, -0.4852825701236725, -3.401362657546997, -5.03558349609375, -2.972933769226074, 0.287370502948761, 1.4382861852645874, 0.639520525932312, 2.2250044345855713, 1.9496263265609741, -0.7660535573959351, 0.1162162721157074, 0.1181892529129982, 2.4733736515045166, 0.84326171875, -0.12012553960084915, -0.2781751751899719, -3.5026509761810303, -4.277099132537842, -0.9334474205970764, 1.0331915616989136, 0.6254066228866577, -0.3223211467266083, 0.6719822883605957, 0.1743626743555069, 0.13631780445575714, 0.18267376720905304, 2.4708850383758545, 1.8774012327194214, 0.22358198463916779, 1.182448387145996, -1.5517299175262451, -1.7404166460037231, -0.1617688238620758, -1.1275105476379395, -1.3023245334625244, -3.8703229427337646, -0.8902294039726257, 0.16346119344234467, 0.1448955535888672, 0.1777380406856537, 0.7550413012504578, 3.131382942199707, 1.5269744396209717, 0.8381941914558411, -0.5729979276657104, -0.5330474376678467, -2.2171432971954346, -3.4362876415252686, -1.6784517765045166, -0.5343916416168213, -0.12129151076078415, 0.14563830196857452, 0.1482851803302765, 0.1440640240907669, 0.1393321454524994, 0.13509592413902283, 1.8417730331420898, -1.1138077974319458, -0.6896620392799377, -0.6723255515098572, 0.4767346680164337, -0.7027215361595154, -0.34209054708480835, 0.030749551951885223, 0.13731823861598969, 0.1737648993730545, 0.12902551889419556, 0.13866066932678223, 0.17023293673992157, 0.1484205424785614, 0.12633535265922546, 0.18148159980773926, 0.13338269293308258, 0.1724194586277008, 0.04155948758125305, 0.18917642533779144, 0.18454816937446594, 0.17958618700504303, 0.18707117438316345, 0.1902470886707306, 0.1578666865825653, 0.1479320526123047, 0.14698994159698486, 0.6012553572654724, 1.6503621339797974, 0.7682232856750488, 2.7675082683563232, 3.3675100803375244, 1.3702692985534668, 1.5290876626968384, 0.4607076942920685, -0.6471073627471924, 0.3301910161972046, 0.12624210119247437, 0.18008719384670258, 0.14893457293510437, 0.4621308743953705, 3.5803537368774414, 0.7341546416282654, 0.8840128779411316, 2.032214641571045, 0.008291560225188732, -3.298464298248291, -2.26962947845459, -0.12315186113119125, -4.554550647735596, -3.3111839294433594, 0.28591397404670715, 0.14835909008979797, 0.8369359374046326, 1.8818788528442383, 0.786166787147522, -0.49181580543518066, 1.1952121257781982, 0.16530346870422363, -1.2738091945648193, 0.015231465920805931, -1.1587374210357666, -2.3953564167022705, -3.6821069717407227, -3.2950289249420166, 0.38167211413383484, 0.15146973729133606, 0.029995594173669815, 1.8633486032485962, 0.3532099425792694, 0.6548627018928528, -0.12481840699911118, -4.393205165863037, -0.2700098752975464, 4.3755950927734375, 4.609242916107178, 0.6384463906288147, 0.605416476726532, -2.6942543983459473, -0.019312698394060135, 0.18634334206581116, 0.13017208874225616, 2.2846438884735107, -2.585073471069336, -1.6922705173492432, 1.4455251693725586, 3.039559841156006, 1.8555400371551514, 2.4488766193389893, 0.20846278965473175, 2.6213088035583496, -2.9694316387176514, -0.10158912092447281, 0.46180781722068787, 0.1508673131465912, 0.1395760476589203, 0.7988623380661011, -0.9872003197669983, 1.7176549434661865, 1.7154368162155151, 0.48592713475227356, 5.500607013702393, 1.551277756690979, -1.3626291751861572, -3.7460057735443115, -4.359410285949707, -1.1437987089157104, 0.36968889832496643, -0.022739410400390625, 0.18485227227210999, 1.8088433742523193, -2.3241894245147705, -1.170169711112976, -1.1769427061080933, -0.19738616049289703, -1.879767656326294, -4.0254693031311035, -1.8477009534835815, -1.1791304349899292, -3.083205461502075, 1.0844931602478027, -0.1901169866323471, 0.1767028421163559, 0.16319993138313293, 2.2344226837158203, -1.8752628564834595, -4.587364196777344, -4.591015338897705, -4.023622035980225, -4.956679821014404, -2.6593949794769287, 0.29271525144577026, -1.2610774040222168, 0.642997682094574, -0.3324345350265503, -0.24571754038333893, 0.12012579292058945, 0.18134522438049316, 2.3193113803863525, -0.8045039176940918, -2.4225451946258545, -5.033133506774902, -5.5797224044799805, -3.088026285171509, -0.8405176401138306, -0.8434752821922302, 1.0164536237716675, 2.8528311252593994, 1.5956975221633911, 0.20453818142414093, 0.1865280568599701, 0.1754598170518875, 3.110304355621338, -0.14009609818458557, 0.3048965632915497, -3.741889238357544, -1.9822264909744263, -1.339830756187439, 0.20081235468387604, 1.7454543113708496, 1.371477484703064, 1.6647217273712158, 0.055627889931201935, -0.019006764516234398, 0.16369257867336273, 0.1287662833929062, 1.0060627460479736, 1.017735242843628, 0.30402639508247375, 1.5489177703857422, 1.5669128894805908, 1.1355997323989868, 4.126060962677002, 2.7551400661468506, 0.41493532061576843, -1.00100576877594, -0.0740424171090126, 0.15204599499702454, 0.13834649324417114, 0.12737685441970825, -0.05220538005232811, 3.46962833404541, 1.7389453649520874, 1.0453531742095947, 2.159097671508789, 1.652052402496338, 1.5636426210403442, -1.595888376235962, -0.2612701952457428, 0.08553166687488556, 0.17979420721530914, 0.1491006314754486, 0.1831507384777069, 0.17994527518749237, 0.1861044466495514, 0.15285876393318176, 0.6416995525360107, 0.13489514589309692, -0.1493433117866516, -0.358882874250412, 0.183329775929451, -0.430937796831131, 0.13590338826179504, 0.15455104410648346, 0.1351468563079834, 0.15709921717643738, 0.18542543053627014, 0.23010843992233276, 0.2792747914791107, 0.23554085195064545, 0.22764219343662262, 0.08678266406059265, 0.2774724066257477, 0.41443774104118347, -0.034274231642484665, 0.31179240345954895, 0.23155124485492706, 0.2589988708496094, 0.259738564491272, 0.21916741132736206, 0.24996288120746613, 0.2777283489704132, 0.21865075826644897, 0.29013538360595703, 1.135190725326538, 1.401484727859497, 2.9669620990753174, 3.0806872844696045, 3.458622694015503, 1.7368826866149902, 1.8053768873214722, -0.7208142876625061, 0.8379954099655151, 0.7210486531257629, 0.2726624011993408, 0.2326621562242508, 0.15312011539936066, 3.861053943634033, 2.9535322189331055, 2.4644672870635986, 1.9651252031326294, 1.5450513362884521, 0.5823842883110046, 0.8596683740615845, 1.167729139328003, -2.1821186542510986, -3.1271207332611084, -2.794945478439331, 0.2314748913049698, 0.5776950716972351, 2.0014455318450928, 2.5707459449768066, 0.36191144585609436, -0.4740970730781555, 1.7229065895080566, 2.4212660789489746, 2.731032133102417, 0.44765692949295044, -0.5520616173744202, 0.24477355182170868, -2.0937652587890625, -2.348299980163574, 0.22000396251678467, 0.29314348101615906, 1.439534068107605, 1.6904031038284302, 1.6621558666229248, -1.5942398309707642, -2.5318732261657715, -0.38254955410957336, 4.308036804199219, 3.2166833877563477, 0.9664472341537476, 0.7748681902885437, -2.543386936187744, -3.504056930541992, -0.1605207920074463, 0.130362868309021, 2.993027687072754, -1.7634971141815186, -3.542055368423462, -6.3670477867126465, -2.9562299251556396, -0.8998407125473022, 0.5958953499794006, 1.9924683570861816, 1.1952027082443237, 0.17833048105239868, -3.2067575454711914, -1.8385554552078247, 0.2869531810283661, 0.25992703437805176, 1.0726505517959595, -1.3346290588378906, -3.5696980953216553, -2.248645305633545, -2.6691248416900635, 0.13386332988739014, 1.1309853792190552, 0.8630208373069763, 0.07651738822460175, -3.9627604484558105, -4.548454761505127, -1.757352590560913, 0.09404772520065308, 0.3201889395713806, 1.7756613492965698, -2.0982255935668945, -3.0161030292510986, -2.3527677059173584, -2.408629894256592, 0.771538496017456, 0.5612307190895081, -0.5993638038635254, 1.2322638034820557, 2.054194688796997, 1.1455895900726318, -1.1693830490112305, 0.29314088821411133, 0.22388356924057007, 2.5653433799743652, 1.0159709453582764, -1.0799930095672607, -6.227343559265137, -5.523342132568359, -2.35070538520813, -2.6918318271636963, 2.067499876022339, 3.1492578983306885, 1.26197350025177, 1.9953279495239258, -1.2792426347732544, 0.2901994287967682, 0.284190833568573, 2.12727952003479, 1.984087347984314, -0.6568464040756226, 0.7185841202735901, -2.1086032390594482, -1.083644986152649, 0.7940082550048828, 2.772049903869629, 2.577157497406006, 1.2405284643173218, -0.5099528431892395, -0.7416534423828125, 0.28093984723091125, 0.21924179792404175, 3.0916175842285156, 3.8693010807037354, 1.5629016160964966, 0.2981768846511841, -0.28544989228248596, -0.23361729085445404, 1.175764799118042, 0.7774595618247986, 1.5214142799377441, -0.1376885026693344, -0.19737671315670013, -1.1415516138076782, -0.026455894112586975, 0.25988656282424927, 0.9806911945343018, 2.2654073238372803, 1.9436233043670654, 0.8965761065483093, 1.485641598701477, -0.08191957324743271, 1.016021966934204, 0.9426235556602478, 1.343503713607788, -0.4645366072654724, -0.09969638288021088, -0.01656198874115944, 0.2774224579334259, 0.2853766679763794, 0.3240428864955902, 3.0887820720672607, 4.1714301109313965, 2.907552480697632, 4.549283981323242, 2.254450559616089, 1.813454270362854, 1.5089778900146484, -2.3300399780273438, -0.7904713749885559, 0.5634899735450745, 0.22894901037216187, 0.2185099720954895, 0.2809966504573822, 0.22884279489517212, 0.389140784740448, 0.377770334482193, 0.230470210313797, 0.4950791597366333, 0.4137429893016815, 0.23459161818027496, 0.7071088552474976, 0.5156583786010742, 0.3521541655063629, 0.2750089466571808, 0.22672633826732635, 0.21799808740615845], [1.3523186445236206, 1.3825016021728516, 1.345470905303955, 1.3419336080551147, 0.9691344499588013, 0.8119979500770569, 0.990432620048523, 1.5762403011322021, 1.5469428300857544, 1.1090271472930908, 1.380169153213501, 1.3344306945800781, 1.4052321910858154, 1.3362771272659302, 1.3407189846038818, 1.3414411544799805, 1.3420839309692383, 0.46173253655433655, -1.347419023513794, -3.0188028812408447, -3.9888157844543457, -3.0822877883911133, -2.828098773956299, -1.0220937728881836, 1.7216538190841675, 0.031283970922231674, -0.23445726931095123, 1.3403180837631226, 1.3763034343719482, 0.5145901441574097, 1.4549241065979004, -2.239497661590576, -4.726264476776123, -5.361921310424805, -4.201565265655518, -3.8804922103881836, -3.0416789054870605, -1.0425260066986084, 0.2313576638698578, -0.013017063960433006, 1.86253023147583, 0.25559282302856445, 1.3876222372055054, 2.0724997520446777, 1.3598346710205078, 0.47641637921333313, 0.7068765759468079, -1.116740107536316, -3.8183367252349854, -8.295433044433594, -3.300654888153076, -1.5397260189056396, -1.9096473455429077, 1.9381778240203857, 1.0843757390975952, 0.29286569356918335, 1.029086947441101, 1.9292922019958496, 0.36514967679977417, -0.3743523359298706, -0.6931412220001221, -1.1216459274291992, -3.330981492996216, -6.154410362243652, -2.7937216758728027, -0.2865503430366516, -1.0940468311309814, -0.6173607707023621, 0.39092621207237244, -0.1851840764284134, 1.0119558572769165, -0.33683067560195923, -1.9895762205123901, -0.4639643430709839, 1.6544826030731201, 0.9993665218353271, 0.5011605024337769, -7.2416887283325195, -0.6025599241256714, 0.6959919929504395, 0.44910258054733276, -0.6815686821937561, -0.3245842754840851, -0.6999330520629883, 0.8495232462882996, -0.45308801531791687, 0.05640769377350807, 1.0480995178222656, 3.7867655754089355, 3.714048147201538, 3.9797184467315674, -1.529721736907959, 1.6265251636505127, 0.9551370739936829, 0.36777278780937195, -0.5366153717041016, -2.094160556793213, 1.0549232959747314, 0.7852569818496704, -0.14216600358486176, 1.6175707578659058, 3.6758639812469482, 3.31624174118042, 4.008779048919678, 0.9666658043861389, 0.2974718511104584, 5.042637825012207, 4.058854579925537, 2.410306453704834, 1.9973913431167603, 0.17384055256843567, 0.17254969477653503, 1.380527138710022, -1.2401002645492554, -1.5516477823257446, 1.1909319162368774, 2.9304497241973877, 0.3106972575187683, 1.5700758695602417, 2.1982126235961914, 3.608182191848755, 1.9798890352249146, 1.3836790323257446, -1.1738297939300537, -1.9718694686889648, -0.2602132558822632, 1.1920057535171509, -0.40163007378578186, -2.6901450157165527, -0.5964034199714661, 0.24883508682250977, -1.3542882204055786, 0.8139322400093079, -0.19107528030872345, -0.5540497303009033, -1.3694524765014648, -2.8502016067504883, -4.440880298614502, -3.7457025051116943, 1.3915449380874634, 1.3695811033248901, 0.33600375056266785, -2.368617296218872, -4.0340189933776855, -4.3115620613098145, -3.2591562271118164, -1.919730544090271, -0.952274739742279, -1.5436785221099854, -0.6393585801124573, -1.643923044204712, -3.299168586730957, -2.347390651702881, 1.3962680101394653, 1.3635010719299316, -0.04058023914694786, -2.0464978218078613, -3.0739545822143555, -3.363011121749878, -0.6915361285209656, -1.3318023681640625, -0.8760074973106384, -1.1379860639572144, -0.034591395407915115, 0.21109344065189362, 0.1802753359079361, -1.0844358205795288, 1.370875597000122, 1.3456721305847168, 1.3975130319595337, 0.8814420700073242, -3.049940586090088, -0.5087052583694458, -0.6802926659584045, -2.220313787460327, -2.583726406097412, 0.35950806736946106, -0.9084363579750061, -0.4441278874874115, 1.3265942335128784, 0.6279948949813843, 1.3866075277328491, 1.3752515316009521, 1.340724229812622, -0.643805205821991, -2.4938220977783203, -4.638113021850586, -5.053795337677002, -4.137717247009277, -6.7129740715026855, -5.14247989654541, -4.5657830238342285, -2.5818190574645996, 0.6614432334899902, 1.3829621076583862, 1.4023624658584595, -0.24422664940357208, -0.22834834456443787, -0.2832825779914856, -0.30946916341781616, -0.30015259981155396, -0.5633308291435242, -0.6100042462348938, -1.2976469993591309, -0.27917975187301636, -0.34597983956336975, -0.29132896661758423, -0.27686163783073425, -0.28217658400535583, -0.2913140058517456, -0.2833747863769531, -0.20801252126693726, -0.25898969173431396, -1.4745436906814575, -2.0256965160369873, -2.37737774848938, -3.1743955612182617, -1.542608380317688, -1.5136886835098267, 1.6108331680297852, 1.22665536403656, -0.5053536295890808, -0.27183470129966736, -0.22965535521507263, -0.2639178931713104, -0.4921707510948181, -0.706093430519104, -2.2400615215301514, -0.9613621234893799, -0.5479649901390076, 0.8842469453811646, 3.646730422973633, 2.4032022953033447, 4.118180751800537, 0.6365577578544617, 1.8769468069076538, -0.10023369640111923, -0.27953919768333435, -0.237910196185112, 0.4465564489364624, 1.0647040605545044, 0.4287797212600708, 2.494738817214966, 3.709372043609619, 5.425601005554199, 5.4227094650268555, 4.650444507598877, 3.003927707672119, 5.155430316925049, 4.490881443023682, 0.20038895308971405, -0.2636931240558624, -0.37037378549575806, 0.06904138624668121, 0.7068126797676086, 1.5479252338409424, 3.8666789531707764, 5.6823248863220215, 3.5555179119110107, 0.9532219171524048, 0.6568195819854736, 0.83152836561203, 1.988875150680542, 2.6804399490356445, 0.47975602746009827, -0.2314382940530777, -0.7390533089637756, -1.987596035003662, -1.6433792114257812, 0.9995194673538208, 2.483484983444214, 1.4583052396774292, -1.0554617643356323, 3.8675379753112793, 1.1629717350006104, 0.41666433215141296, -0.39015936851501465, -3.0406835079193115, 0.5911325216293335, -0.28117960691452026, -1.2435169219970703, 0.7982162833213806, -0.23715740442276, -0.17037707567214966, 0.9388996362686157, 3.122037172317505, -4.63258171081543, 2.2318289279937744, 1.7571806907653809, -0.04526972770690918, -2.0903244018554688, -1.6411817073822021, -0.3202802538871765, -0.2897656261920929, -0.6105471849441528, -0.3028925061225891, 1.6454942226409912, 0.6104358434677124, 0.03784150630235672, -0.015572475269436836, -0.14243574440479279, 0.4465269446372986, 0.0687955990433693, -1.824562668800354, -1.446021556854248, 1.3070534467697144, 0.7459294199943542, -0.23332737386226654, -0.26419222354888916, -2.5212388038635254, -0.4486304521560669, 0.7645773887634277, -2.168941020965576, -1.251970648765564, 1.0075181722640991, 0.39709344506263733, -0.9796826243400574, -3.2164504528045654, -1.1119654178619385, 0.14597786962985992, -0.8761727213859558, -0.40912044048309326, -0.28169897198677063, -1.4682035446166992, -0.7359029054641724, -2.171252965927124, -1.9635132551193237, -0.8801882266998291, 2.409883737564087, 1.1881104707717896, -0.22409775853157043, 0.01249727699905634, -4.072100639343262, -1.9789626598358154, -1.0171138048171997, -0.2560560405254364, -0.28271958231925964, -1.9569056034088135, -3.593759536743164, -2.3356547355651855, -1.786415457725525, 0.7232139706611633, 0.5169801712036133, 1.410598874092102, 0.6822659373283386, 0.9990827441215515, -0.6714837551116943, -2.2932229042053223, -0.6653404831886292, -0.23580293357372284, -0.2363625019788742, -1.4824466705322266, -2.8435542583465576, 0.4274451732635498, -0.1598220020532608, -0.38059550523757935, 0.9119927883148193, 0.9243016242980957, 1.7696888446807861, 2.282473087310791, 0.5343616008758545, -1.273841381072998, -0.3012670874595642, -0.2715781331062317, -0.2760677933692932, -0.44080212712287903, -1.720927119255066, -2.828357219696045, 0.421364426612854, -0.6709924936294556, -0.4068715572357178, 0.9132932424545288, 1.2492793798446655, 1.1915427446365356, 0.6281169652938843, 1.0097726583480835, -0.3016774356365204, -0.25294220447540283, -0.25775834918022156, -0.29206088185310364, -1.8851957321166992, -2.2399635314941406, -3.9550347328186035, -3.676086187362671, -3.101203441619873, -0.8673683404922485, -3.458784341812134, -0.8324617743492126, -1.6266732215881348, -0.289172887802124, -0.2926436960697174, -0.2437702864408493, -0.0957568883895874, -0.08682023733854294, -0.08571561425924301, -0.22044482827186584, -0.3126130998134613, -0.3391115665435791, -1.0302637815475464, -0.6872590780258179, -0.4052538573741913, -0.11027322709560394, -0.2012529969215393, -0.29736191034317017, -0.037392787635326385, -0.09589451551437378, -0.07604500651359558, -0.09953118860721588, -0.056274522095918655, -0.9255719184875488, -1.9556058645248413, -2.4019758701324463, -4.667667865753174, -3.4989829063415527, -1.302398681640625, -0.5654664635658264, 0.6541463732719421, 0.5321590304374695, -0.07343555986881256, -0.09027101844549179, -0.05378835275769234, -0.09794172644615173, 0.23657168447971344, 0.05854961276054382, -0.8369712829589844, 1.494281530380249, -1.7451188564300537, -0.8774723410606384, 1.5821839570999146, 1.1310029029846191, 0.6975932717323303, 1.9311065673828125, -1.0826709270477295, -0.03161938115954399, -0.08294256776571274, -0.7170544266700745, 0.42324113845825195, 1.2982124090194702, 0.05178520083427429, 0.023284131661057472, 0.5588837265968323, 1.1736756563186646, 2.629549264907837, 4.171761512756348, 5.013692855834961, 2.5859525203704834, 1.1510251760482788, -0.1196187287569046, 0.02228011004626751, -0.3803858160972595, -0.6959911584854126, 0.04282758757472038, 1.1016005277633667, -0.23103682696819305, -1.4061617851257324, 0.6099391579627991, 1.4602947235107422, 2.7823901176452637, 3.769333839416504, 1.3639554977416992, -0.817540168762207, -0.30072563886642456, -0.3579537570476532, -1.3776614665985107, -1.560684323310852, 1.497357964515686, 1.652782917022705, 2.183544158935547, -3.62583327293396, 2.510418653488159, 1.0965852737426758, 1.3696775436401367, 0.8853006362915039, -0.9366270899772644, -0.40339693427085876, -0.08493773639202118, -0.4759407341480255, 1.7727110385894775, 1.6756439208984375, 1.0988303422927856, 1.6055556535720825, 0.24582980573177338, -3.8477463722229004, -0.08738391101360321, 1.192007303237915, 2.4802846908569336, 1.9167481660842896, 2.7052903175354004, -0.1725468784570694, -0.08947787433862686, -0.05142476409673691, 0.8237579464912415, -0.47918373346328735, 0.5431888699531555, -0.6278172731399536, -0.22633177042007446, -1.2932900190353394, 0.1879308819770813, -0.9590296149253845, 0.3298971951007843, 0.4834432601928711, -1.3072893619537354, -1.3937466144561768, -0.4186267852783203, -0.08748313039541245, -2.6511762142181396, -0.3072873055934906, 2.3669235706329346, -0.18868575990200043, -3.448099374771118, -0.6021223664283752, -0.42116567492485046, -0.5821679830551147, -0.3661947548389435, -0.09921219944953918, -1.3188598155975342, 0.7706720232963562, -0.11969813704490662, -0.018447665497660637, -1.4673473834991455, -0.10742311179637909, -2.3886990547180176, -1.2221263647079468, 0.35753920674324036, -1.7331821918487549, 0.9327571988105774, -0.32350602746009827, 0.6780266165733337, -0.32940515875816345, 0.06715191900730133, 0.10695963352918625, -0.039890438318252563, -0.09268400073051453, -1.6116260290145874, -1.6972482204437256, -0.14729130268096924, -0.2050185352563858, 0.25993847846984863, -0.16743114590644836, 0.2953244745731354, -0.2774774134159088, 0.049006689339876175, -0.11679620295763016, -0.479783833026886, -0.09683182835578918, -0.09216156601905823, -0.07014822959899902, -0.4739014804363251, -1.741005301475525, 0.6780254244804382, 1.2963494062423706, -0.4777466356754303, 0.9119964241981506, -0.531112551689148, 1.0536980628967285, -0.8104573488235474, 0.5594205856323242, -1.174944519996643, 0.16912174224853516, -0.041633639484643936, -0.065885990858078, -0.05004969611763954, -2.3428406715393066, -2.4365828037261963, -1.3077365159988403, -2.3578453063964844, -1.1471235752105713, -0.06224606931209564, -3.240020990371704, -0.49322646856307983, -0.6322608590126038, 0.7900742292404175, 0.17147330939769745, -0.030724700540304184, -0.10005126148462296, -0.0720188096165657, -0.397464781999588, -0.9779801368713379, -0.3367166519165039, -0.4362322688102722, -0.2222718894481659, -0.33748847246170044, -0.72064608335495, -0.7259072065353394, 0.37027183175086975, -0.03244568035006523, -0.07395049184560776, -0.07956603914499283, 1.1476876735687256, 1.1378346681594849, 1.1127572059631348, 0.5850386023521423, -0.30956530570983887, 0.5792655348777771, -0.45445966720581055, 0.21070264279842377, -0.4013591706752777, 0.9728097319602966, 0.3644922077655792, 0.640656054019928, 1.153854489326477, 1.1288751363754272, 1.1665962934494019, 0.7010852694511414, 0.8024505972862244, -1.2473340034484863, -3.377823829650879, -3.2071011066436768, -6.697045803070068, -4.7667646408081055, -2.6494240760803223, -1.2769898176193237, 1.7972527742385864, 1.234013319015503, 0.8904905915260315, 1.143242597579956, 1.1662038564682007, 1.147935152053833, 1.5859100818634033, -1.1134015321731567, -1.3559104204177856, -0.08385233581066132, -0.9849626421928406, -3.9666318893432617, -0.8323364853858948, -1.7153770923614502, -1.4316602945327759, 1.8988666534423828, 3.085127115249634, 0.8370197415351868, 1.1270864009857178, 1.4358539581298828, 0.4301937520503998, 1.3578633069992065, -0.2554212212562561, -2.264863967895508, -3.7295360565185547, -6.704693794250488, -3.4805047512054443, -1.4427801370620728, -1.9333819150924683, 0.7276932597160339, 0.9943033456802368, 0.8315238952636719, 0.9593269228935242, -0.24181628227233887, -1.7093260288238525, -0.6071778535842896, 0.505823016166687, -0.815264105796814, -1.3770778179168701, -7.847412586212158, -2.8247413635253906, -0.8556694388389587, -0.7744796276092529, -0.6701421737670898, -2.42314076423645, 0.1448783576488495, 1.1207005977630615, -1.1377215385437012, -1.3415011167526245, -0.9813191890716553, 1.62472665309906, 1.5846822261810303, -0.36450570821762085, -3.225994348526001, -0.27791696786880493, 0.1791943460702896, -0.48381420969963074, -2.1299538612365723, -1.0685755014419556, 0.22675813734531403, 0.7162820100784302, 0.9226275086402893, 3.3065521717071533, 3.5978546142578125, 4.379441738128662, 4.132076263427734, 2.8469507694244385, 1.1866592168807983, 3.164137363433838, 1.9625412225723267, 2.747163772583008, 0.5623553991317749, 1.3187698125839233, 2.3858745098114014, 1.142810583114624, 0.6068885922431946, -0.10958075523376465, 0.881936252117157, 3.004836082458496, 2.47418475151062, 2.0969910621643066, 1.438681721687317, 3.790419340133667, 2.7927846908569336, 0.768953263759613, 0.5810370445251465, -1.898208737373352, -0.48582327365875244, 1.1764585971832275, -1.1359137296676636, -2.099148988723755, 0.8184276819229126, 3.22330379486084, 0.4027075171470642, 0.755924642086029, 2.602304458618164, 2.127739429473877, -0.10588562488555908, 0.8666867613792419, -2.153090476989746, -1.7581110000610352, 0.837279200553894, 1.4216362237930298, -0.31263214349746704, -3.128944158554077, -2.080087900161743, -3.61386775970459, -3.7566425800323486, -2.0249719619750977, -0.9520307779312134, -1.4862124919891357, -1.8140082359313965, -2.328354835510254, -4.228324890136719, -2.28938889503479, 1.1463921070098877, 1.1643589735031128, 0.13702961802482605, -1.7987276315689087, -4.385141849517822, -2.4895172119140625, -1.6672035455703735, -0.6968443989753723, -1.2373839616775513, -1.0942448377609253, -0.7307454347610474, -0.46384409070014954, -0.11145476251840591, -1.2866294384002686, 1.1424083709716797, 1.1809943914413452, 0.902859628200531, -1.4630749225616455, -2.274649143218994, -0.9436984658241272, -1.0072460174560547, -2.0191025733947754, -0.30598726868629456, 0.27294427156448364, 1.0353055000305176, 0.8091785311698914, 0.164221853017807, 0.41736236214637756, 1.1684144735336304, 1.135887622833252, 1.1663933992385864, -1.6606125831604004, -2.9729626178741455, -1.5522806644439697, -2.891732931137085, -2.585879325866699, -0.4248226284980774, -1.9503897428512573, -2.496126174926758, -1.9646399021148682, 0.9943719506263733, 0.4175185561180115, 1.1212319135665894, 1.1827576160430908, 1.145190715789795, 1.3116562366485596, 0.37115561962127686, 0.4451488256454468, -0.3239816129207611, 0.36361458897590637, -0.007700368762016296, 0.17245984077453613, 0.947002112865448, 1.051608920097351, 0.8304258584976196, 1.1374759674072266, 1.1213698387145996], [-0.8923720717430115, -0.886824369430542, -0.9124278426170349, -0.9362357258796692, -0.9253870248794556, -0.9397823810577393, -0.8727295398712158, -0.9101395010948181, -0.9081935286521912, -0.9085681438446045, -0.8831881284713745, -0.941813588142395, -0.9350243806838989, -0.9400716423988342, -0.9074983596801758, -0.8922476768493652, -0.916192889213562, -0.901835024356842, -1.0219652652740479, -1.0521708726882935, -1.0674740076065063, -1.9499671459197998, -2.276949882507324, -0.493054062128067, -2.1485185623168945, -0.897674024105072, -1.473816990852356, -0.9417477250099182, -0.9403258562088013, -0.881305992603302, -1.7364572286605835, -3.390247106552124, -3.5103018283843994, -1.136468529701233, -2.0270323753356934, -0.8542574644088745, 1.4226815700531006, 2.5909078121185303, 0.9439262747764587, -0.019752511754631996, -0.22436998784542084, -0.8098689913749695, -0.9306115508079529, -2.767946720123291, -4.12399959564209, -0.29608991742134094, -0.3489430248737335, 0.706246554851532, 1.1664934158325195, -0.19502022862434387, 0.8751456141471863, 2.796208381652832, 1.7920846939086914, 1.911440134048462, 5.89987850189209, 4.1061930656433105, -0.9397786259651184, -2.840860605239868, -4.3408050537109375, 0.11950768530368805, 1.4198765754699707, 2.4797191619873047, -0.5174460411071777, -2.2253668308258057, -0.9138960838317871, 0.41081979870796204, 2.787328004837036, 5.452695369720459, 7.888675212860107, 1.0011988878250122, -0.875239908695221, -2.1443421840667725, -0.28602686524391174, 0.5800881385803223, 3.8341753482818604, 2.5037291049957275, 1.75691556930542, -2.0118775367736816, -4.442045211791992, -5.21893835067749, -2.302136182785034, -0.5124226808547974, 6.821563720703125, 3.7933428287506104, -1.3564910888671875, -0.9806938767433167, 0.8599192500114441, 0.47490933537483215, 1.8401201963424683, 4.64246129989624, 3.2717678546905518, -1.3303923606872559, -2.665113687515259, -1.627246379852295, -3.951063394546509, -7.476401329040527, -5.662554740905762, -0.9311326146125793, -0.8825381398200989, -0.8710983991622925, 0.3238331079483032, -0.8199903964996338, -0.1733376830816269, 1.1221694946289062, 0.19267907738685608, -1.6983933448791504, -2.27238392829895, -1.5258868932724, -0.18910405039787292, -1.4367761611938477, -2.189314365386963, -0.8945730328559875, -0.9138676524162292, -1.155583143234253, 0.3909912705421448, -2.1047308444976807, -4.394184112548828, -1.2497565746307373, -1.7094430923461914, -2.191512107849121, -1.1818042993545532, -1.339342713356018, 0.3866587281227112, -0.040313877165317535, 1.8226127624511719, -0.909571647644043, -0.898449182510376, -1.1349149942398071, 0.5726457834243774, 1.3597412109375, -2.3334732055664062, -4.781271457672119, -1.4087823629379272, 0.2948547899723053, 0.11368612200021744, 0.2476302832365036, 0.8676856160163879, 1.6356741189956665, 0.6204004883766174, -0.6857357621192932, -0.9292368292808533, -0.25026753544807434, 1.03910493850708, 2.0759987831115723, 1.096659779548645, 2.2134456634521484, 1.9304383993148804, 1.0111051797866821, -0.25401410460472107, -0.2759694457054138, 1.449548602104187, 2.208223342895508, -2.512591600418091, -1.2293996810913086, -0.8954412937164307, -2.2277650833129883, 1.1084156036376953, -1.4935396909713745, 0.0665152296423912, 0.8033460378646851, 2.2271640300750732, 1.2246273756027222, 0.8737633228302002, 0.3734465539455414, 1.8405174016952515, 2.5857696533203125, -0.415094256401062, -0.883201539516449, -0.9352917671203613, -0.9341219067573547, -0.4734947979450226, -0.992790937423706, -0.48707348108291626, -0.0812423825263977, 2.1646461486816406, 2.1527364253997803, 1.807532548904419, 1.7513086795806885, -0.6995835900306702, 0.7183828353881836, 4.925064786220901e-05, -0.9139256477355957, -0.9218834638595581, -0.9252913594245911, -0.774252712726593, -1.4206796884536743, -1.647497296333313, -0.3451462686061859, 0.08326084911823273, 0.11168527603149414, 0.48881351947784424, -1.3958102464675903, -0.5675013661384583, 0.8190021514892578, -0.8872502446174622, -0.8745632171630859, 0.11361327767372131, 0.09514342248439789, 0.10014113038778305, 0.10000037401914597, 0.1359533667564392, 0.0910070613026619, 0.1113547831773758, 0.10025181621313095, 0.08559468388557434, 0.09689988195896149, 0.09561456739902496, 0.09016037732362747, 0.10144005715847015, 0.1312556117773056, 0.15158770978450775, 0.13006089627742767, -0.3694208562374115, 0.10874013602733612, -0.27264729142189026, -0.4531033933162689, -1.3139864206314087, -0.9641678929328918, 1.4514046907424927, -0.5663384795188904, -0.5306048393249512, -1.2944762706756592, 0.4670580327510834, 0.13864481449127197, 0.13113375008106232, 0.07460489869117737, -1.1687514781951904, -0.1470831334590912, 0.7947331070899963, 1.3516143560409546, -1.9697321653366089, -2.1297948360443115, -3.530163526535034, -2.7876791954040527, -1.3419663906097412, 1.136584758758545, -0.2221495658159256, 0.1320379227399826, 0.12684153020381927, -1.6226532459259033, -1.8920035362243652, 1.6874455213546753, 2.14249324798584, 0.11128819733858109, -0.832068920135498, -4.809778213500977, -5.934750556945801, -6.347280979156494, -6.049418926239014, -2.898568630218506, -0.86932772397995, 0.13054753839969635, 0.15044231712818146, -2.31404972076416, 0.5369952917098999, 1.0610722303390503, 1.2533445358276367, 2.395692825317383, 0.7889864444732666, -3.639876127243042, -6.301047325134277, -8.22498607635498, -6.013132572174072, -3.9766666889190674, 0.9223440885543823, 0.13774143159389496, 0.3432932496070862, -2.495440721511841, 1.1433026790618896, -0.8519978523254395, 3.085972547531128, 3.4227776527404785, 4.481384754180908, -3.2078857421875, -7.511476516723633, -4.731838226318359, -3.592883348464966, -0.7040027379989624, 3.7422139644622803, 0.5710791349411011, 0.3369885981082916, -0.5230246782302856, 1.0829743146896362, 1.3722455501556396, 1.4674570560455322, 3.7182164192199707, 1.670674443244934, -2.2125322818756104, 2.385411024093628, 2.843735933303833, -4.339193820953369, -4.5450053215026855, -0.18503157794475555, 0.13191251456737518, 0.101668581366539, -1.2449955940246582, -0.09409181028604507, -0.4632728397846222, 0.8089099526405334, 1.9178268909454346, -0.19544650614261627, 1.188177227973938, 3.106907844543457, 3.562300682067871, 2.088979959487915, 0.02188778668642044, 0.11345924437046051, 0.09107927232980728, 0.10834594815969467, 0.6934677958488464, 1.077282428741455, -2.3157026767730713, 0.7019503712654114, 0.4473390281200409, -0.7708539962768555, 0.8415603637695312, 1.5806493759155273, 1.3936635255813599, -0.2560371458530426, 1.2361377477645874, -0.11879008263349533, 0.11000993847846985, 0.08711865544319153, -0.38257890939712524, 0.4625747799873352, 1.1849383115768433, -3.110107898712158, -1.3892028331756592, -0.0820797011256218, -0.43649694323539734, 1.137857437133789, 2.3159353733062744, 0.4512379765510559, 0.22330589592456818, 0.16882768273353577, 0.13112691044807434, 0.10277186334133148, 1.8981517553329468, 1.1247093677520752, -0.9860895276069641, 0.2517068088054657, -1.6662061214447021, -3.35858416557312, -0.2717944383621216, 0.6134077906608582, 1.8465180397033691, 2.335911750793457, 0.5429827570915222, -0.19355832040309906, 0.14730152487754822, 0.1031559482216835, -0.12108626216650009, 0.7480301260948181, 0.15512341260910034, -0.4400028884410858, -0.2161097377538681, -2.445953369140625, -2.2664144039154053, -2.085330009460449, -0.453362375497818, -1.3344581127166748, 1.285965919494629, 0.1301271617412567, 0.1275729387998581, 0.1061243861913681, 0.1459813266992569, 0.8134923577308655, -2.420689344406128, 2.603733777999878, 0.208149254322052, -0.6074411273002625, 2.147705078125, -0.5759311318397522, 0.011255697347223759, 0.17424951493740082, 0.9996969103813171, 0.14952152967453003, 0.1372166872024536, 0.11074741929769516, 0.11022939532995224, -0.010772905312478542, 0.2280513048171997, -0.39932316541671753, 0.8800706267356873, -0.9490904808044434, 2.479715585708618, 0.6555899381637573, -2.105415105819702, 1.2681726217269897, 0.09007047861814499, 0.1382712721824646, 0.1217200756072998, -0.33894839882850647, -0.353839248418808, -0.3312514126300812, -0.38792306184768677, -0.3824186623096466, -0.3405827283859253, -0.3836823105812073, -0.38783323764801025, -0.35925352573394775, -0.3463778793811798, -0.3534128963947296, -0.32971954345703125, -0.3872162103652954, -0.34154069423675537, -0.36510801315307617, -0.3407955765724182, -0.9473066329956055, -1.0087579488754272, -2.114274501800537, -2.6301872730255127, -0.9782706499099731, -1.9582622051239014, 0.9977436661720276, 0.2569989264011383, -0.33779335021972656, -1.8260722160339355, -0.03576042130589485, -0.3511638641357422, -0.3445275127887726, -0.924683153629303, -3.998041868209839, -1.0417429208755493, 0.9348470568656921, 1.2273012399673462, -1.4241551160812378, 0.9143003821372986, -0.7043182849884033, 0.5582166910171509, 5.296529293060303, 3.826169967651367, 2.130850076675415, -0.22248144447803497, -0.3465341031551361, -1.966395378112793, -3.785459041595459, -0.258932888507843, 0.5046515464782715, -0.11883831024169922, 0.6998932957649231, 1.415701150894165, 0.40119627118110657, 3.139500379562378, 6.418547630310059, 7.1346116065979, 2.136998414993286, -0.10669982433319092, -0.3459714949131012, -3.436815023422241, 2.0093533992767334, -1.8500454425811768, 0.8437108993530273, 1.1039377450942993, 0.06059209257364273, -3.1151726245880127, -3.7325246334075928, 0.4615817070007324, 3.6587822437286377, 7.795385360717773, 4.531265735626221, 0.15125823020935059, -0.29867276549339294, -2.090749740600586, 1.5238127708435059, -1.540665864944458, -1.4168028831481934, 1.8387151956558228, 2.758174419403076, -4.184475421905518, -8.303132057189941, -10.696401596069336, -7.428094387054443, -6.243359088897705, -1.0532505512237549, -0.35392889380455017, -0.34760168194770813, -0.983042299747467, 0.030520323663949966, 0.3426074981689453, 1.5839773416519165, 3.7832789421081543, 1.450494647026062, -3.6754748821258545, -5.879964828491211, -5.75489616394043, -7.910177707672119, -7.216216564178467, -0.421977162361145, -0.3989556133747101, -0.38723939657211304, -0.9047992825508118, -0.7205752730369568, -2.4210033416748047, -1.1315895318984985, -0.919069230556488, -2.0581557750701904, -1.1730378866195679, -2.361069679260254, 0.36418649554252625, -0.5476360321044922, -3.1879355907440186, -0.25061771273612976, -0.38357770442962646, -0.3435015082359314, -0.7117712497711182, 0.7039822936058044, -3.3314690589904785, -3.906243085861206, -2.8213911056518555, -3.885371685028076, -0.7777680158615112, 0.4143829047679901, 2.2781600952148438, 0.07204603403806686, 1.9980918169021606, -1.5507031679153442, -0.6415401101112366, -0.37943869829177856, -0.4377460479736328, 0.8913170695304871, -0.453753262758255, -4.0577898025512695, -2.075660467147827, 1.1189627647399902, 2.909780979156494, 2.475393772125244, 2.0444774627685547, -0.5093367695808411, 1.7508833408355713, -0.4976833164691925, -0.3650287389755249, -0.3779894709587097, 0.9180596470832825, -0.03071470372378826, -1.1303173303604126, 2.8207478523254395, 2.1635608673095703, 2.937344551086426, 0.7909837961196899, 2.245120048522949, 1.1274412870407104, 2.3793301582336426, 0.6402677893638611, -0.33472636342048645, -0.351546049118042, -0.3670556843280792, -1.3634074926376343, 0.1113644391298294, 0.0469730868935585, -0.7643394470214844, 1.5394831895828247, -0.008895523846149445, 0.7633827328681946, -0.4491513669490814, 2.9127349853515625, -0.28078973293304443, 0.12311253696680069, -0.35894909501075745, -0.35490888357162476, -0.37802958488464355, -0.35407358407974243, -0.874164342880249, -1.6697918176651, 1.1828781366348267, -1.2477302551269531, -0.02474091202020645, 1.0784536600112915, 0.11200105398893356, 2.0262515544891357, 0.7035084366798401, -0.2582479417324066, -0.3431178331375122, -0.38472259044647217, -0.361362099647522, -0.382230281829834, -0.3705297112464905, -0.3975926339626312, -0.5028757452964783, -0.16589444875717163, -0.45312368869781494, -0.3027912974357605, -0.3406286835670471, -0.3136056661605835, -0.5176573395729065, -0.36437588930130005, -0.3777320384979248, -0.353177934885025, -1.442269206047058, -1.502820611000061, -1.4970659017562866, -1.434730052947998, -1.434867262840271, -1.4431043863296509, -1.6398402452468872, -1.394307017326355, -1.4971930980682373, -1.3604556322097778, -1.4525983333587646, -1.4408621788024902, -1.4946486949920654, -1.461179494857788, -1.5045253038406372, -1.4461209774017334, -1.744472861289978, -2.0994491577148438, -0.8134952187538147, -1.0465140342712402, -0.4001420736312866, -0.8257978558540344, 0.3890196681022644, 0.9002991914749146, 0.5862294435501099, -2.865363359451294, -2.1404964923858643, -1.4975477457046509, -1.4987298250198364, -1.577728271484375, -4.387049674987793, -2.513249158859253, -0.4449014365673065, 0.4218413233757019, -1.218580961227417, 0.5923311114311218, 0.15083615481853485, 0.498483806848526, 2.7505247592926025, 1.6544498205184937, 2.899876117706299, -0.12248402833938599, -1.503723382949829, -1.8747820854187012, -3.923799514770508, -0.43060770630836487, 1.411452293395996, 2.639071226119995, 1.794550895690918, -0.5406616926193237, 0.49471256136894226, 2.3810806274414062, 1.8829927444458008, 2.350551128387451, 5.105265140533447, 1.6366158723831177, -1.4200520515441895, -2.9677579402923584, -0.6398592591285706, -1.1360026597976685, 2.1903414726257324, 2.020425796508789, -0.32456156611442566, -4.245948791503906, -2.3787405490875244, 0.5556873679161072, 4.489067077636719, 7.808953285217285, 10.527315139770508, 2.34323787689209, -1.3755288124084473, -2.5625951290130615, 1.8875614404678345, 0.05270403251051903, 2.4473917484283447, 2.0128390789031982, 2.8765909671783447, -0.6739126443862915, -2.107208728790283, -6.499237537384033, -10.738469123840332, -6.805480480194092, 0.7282937169075012, 1.5408821105957031, -1.470637321472168, -1.300750970840454, 1.0709670782089233, 0.9018095135688782, 1.5946029424667358, 2.9929938316345215, 1.1070438623428345, -1.660442590713501, -1.618718147277832, -0.22389501333236694, -0.9796780347824097, -3.5046513080596924, -5.606119632720947, -1.4561316967010498, -1.4716954231262207, -1.6855891942977905, -0.8383601307868958, -2.7273359298706055, -0.48281463980674744, -0.12898817658424377, -0.7760611772537231, -2.286940336227417, -2.6735498905181885, -1.3563240766525269, -0.06861622631549835, -1.9395365715026855, -0.37194016575813293, -1.3009189367294312, -1.4623349905014038, -1.297240138053894, 1.1890413761138916, -0.3669353425502777, -6.448069095611572, -4.034563064575195, -3.2899556159973145, -1.0307403802871704, 0.28531453013420105, 0.17225885391235352, 0.32561370730400085, 0.07948300242424011, -0.4082055985927582, -1.3509033918380737, -1.4711840152740479, -0.2738538980484009, 2.1115756034851074, 2.5649755001068115, 0.8290227055549622, -0.034362249076366425, 1.5317867994308472, 0.6525760889053345, 0.058799076825380325, -0.18187874555587769, 1.3079651594161987, 1.4538520574569702, -0.1479271501302719, -1.5227080583572388, -1.4562013149261475, -0.12383344769477844, -0.18280036747455597, 1.1147314310073853, 1.293761134147644, 1.6397291421890259, 0.7858787178993225, 1.023357629776001, -0.14161251485347748, -0.43800830841064453, 2.008610486984253, 0.957792341709137, -2.0827276706695557, -1.4868298768997192, -1.4574145078659058, -1.1923425197601318, 0.4285845160484314, -1.0382472276687622, 0.27897557616233826, 1.3611910343170166, 1.1379975080490112, 1.5911927223205566, 0.45944827795028687, 0.14533622562885284, 1.1886347532272339, 1.6407968997955322, -1.0428293943405151, -1.4934604167938232, -1.4660378694534302, -1.5047270059585571, -1.0045206546783447, 1.5691826343536377, 1.035994529724121, -1.0383788347244263, 1.5937947034835815, 1.8854315280914307, 1.3053961992263794, 1.235457420349121, -1.5847668647766113, 1.3021814823150635, -0.30592674016952515, -1.4945987462997437, -1.4430468082427979, -1.488926649093628, -1.296005368232727, -1.7729418277740479, -1.43036949634552, -1.220474123954773, -0.5163869261741638, -1.1457033157348633, -1.1627691984176636, -1.4620180130004883, -1.7681891918182373, -1.1678218841552734, -1.4397265911102295, -1.4678953886032104], [0.5381208062171936, 0.5789121985435486, 0.5925227403640747, 0.5941659808158875, 0.9966989755630493, 1.0639525651931763, 0.42321911454200745, 0.31063103675842285, 0.55100417137146, 0.7999287843704224, 0.5865782499313354, 0.5677783489227295, 0.6053240299224854, 0.5948044657707214, 0.5441899299621582, 0.5449234843254089, 0.8225113749504089, 1.127490520477295, 3.219028949737549, 4.089057922363281, 4.5760297775268555, 1.9114331007003784, 2.6771366596221924, 2.890098810195923, 3.466402053833008, 2.042407751083374, 1.795214295387268, 0.5968958735466003, 0.5516700744628906, 0.5433108806610107, 0.2126738578081131, 1.8943506479263306, 1.547345757484436, -0.46757248044013977, -1.2781805992126465, -0.9022493958473206, 1.3162306547164917, 2.7170279026031494, 3.219353437423706, 3.2346556186676025, 0.9753992557525635, 0.48140767216682434, 0.5438243746757507, -0.5064805746078491, -0.26030898094177246, 1.5581109523773193, 0.4481537342071533, -1.1780153512954712, -3.6464788913726807, -1.3381619453430176, -1.5206774473190308, -0.6062825918197632, 0.9803992509841919, -0.8791939616203308, -3.048624038696289, -0.1715812236070633, 0.5459579825401306, -0.09353521466255188, -0.8471822738647461, -0.6787687540054321, -0.7678726315498352, -2.9209327697753906, -3.251835823059082, -2.955106496810913, -2.538987159729004, -5.621558666229248, -4.67709493637085, -5.746915340423584, -3.0141749382019043, -1.1494940519332886, 0.45985347032546997, 0.8615057468414307, 0.6408821940422058, -0.27265411615371704, -0.04915006086230278, 0.8477395176887512, 0.11688563972711563, -2.7895328998565674, -3.9450719356536865, -3.6394457817077637, -0.49470949172973633, -0.06982168555259705, -1.8854689598083496, -1.1040886640548706, 0.5801036357879639, 0.40323200821876526, -1.1888149976730347, 2.5143840312957764, 0.7334986925125122, 0.2716306149959564, 0.5454242825508118, -2.2748444080352783, -1.2518765926361084, -2.0458970069885254, 1.918890118598938, 3.4441726207733154, 1.9144500494003296, -1.0385117530822754, 0.5991381406784058, 0.1850793957710266, -2.159024715423584, 2.239758014678955, 2.1030867099761963, 1.3991127014160156, -0.35973381996154785, -0.2385919988155365, 0.06513167917728424, 0.4172492027282715, 1.489065408706665, 3.2963714599609375, 0.5719467401504517, -1.422987937927246, 0.5611057877540588, -0.15151330828666687, -1.7138947248458862, 1.5616374015808105, 2.219233989715576, 3.089304208755493, -0.635482907295227, 0.9977489709854126, -0.256328821182251, 2.6704888343811035, 0.10952342301607132, 0.30296018719673157, 0.17214630544185638, -1.8075648546218872, 0.5893872380256653, -0.3935445547103882, -3.313296318054199, -0.21653011441230774, 0.20676912367343903, 2.2762649059295654, 1.9133752584457397, 1.8369451761245728, 0.9673596024513245, 1.465193510055542, 0.6115543842315674, -0.1081758588552475, -1.9467757940292358, -1.5832316875457764, 0.2879694998264313, 