{"qconv1.weight": [1.3490468263626099, 1.5396976470947266, -1.2716776132583618, -1.8495917320251465], "fc1.bias": [-0.0623883418738842, 0.19028043746948242, -0.03086796961724758, 0.009194663725793362, -0.022415906190872192, 0.07935629785060883, -0.025449100881814957, 0.0676562488079071, -0.1869577020406723, 0.03752966597676277], "fc1.weight": [[-0.0059034922160208225, -0.005257123149931431, -0.0013747242046520114, -0.05752717703580856, -0.04702597111463547, 0.040506817400455475, 0.01589042879641056, -0.054273974150419235, -0.010753566399216652, -0.012642079032957554, -0.040205683559179306, -0.031281810253858566, -0.05681800842285156, -0.038588665425777435, -0.014982583001255989, 0.018621129915118217, -0.056882817298173904, -0.07624397426843643, -0.3873148262500763, -0.468356192111969, -0.5204392671585083, -0.07538080215454102, -0.20012681186199188, -0.5497017502784729, -0.22195900976657867, -0.4353012442588806, -0.10416153818368912, -0.015344974584877491, -0.043720394372940063, -0.011514518409967422, -0.17195242643356323, -0.277061402797699, -0.6885484457015991, 0.05973483622074127, 0.35772064328193665, 0.945733904838562, 0.5607827305793762, 0.3061671853065491, -0.18048451840877533, -0.19432832300662994, -0.38638681173324585, -0.08857598900794983, -0.008213686756789684, -0.014930049888789654, -0.20448745787143707, -0.5488430261611938, -0.5673120021820068, -0.39880144596099854, 0.046103160828351974, 0.33631280064582825, 1.3109288215637207, 0.6476755142211914, 0.20323531329631805, 0.1429855227470398, -0.3156411349773407, -0.379576712846756, -0.04406086355447769, -0.10418333113193512, -0.33322468400001526, 0.008061783388257027, -0.39822518825531006, -0.22188138961791992, 0.026200952008366585, 0.062041398137807846, 0.22267021238803864, 0.8694597482681274, 0.8429996371269226, 0.2554367780685425, 0.022161761298775673, -0.4279114603996277, -0.03524581342935562, -0.04866071045398712, -0.026668550446629524, 0.011415546759963036, -0.2629256546497345, 0.013134380802512169, -0.3981846570968628, -0.7643675804138184, -0.7807773947715759, -0.7501484155654907, 0.2587200701236725, 1.1446795463562012, 0.1267235279083252, -0.249331533908844, -0.05212240293622017, -0.10000009089708328, 0.5470306277275085, 0.2491602897644043, 0.691000759601593, -0.02999044954776764, -0.6893945932388306, -1.4731651544570923, -1.5652514696121216, -1.545034408569336, -0.03125981241464615, 0.607366144657135, 0.6176173686981201, -0.10745449364185333, 0.007434540428221226, -0.378021240234375, 0.6921015381813049, 0.510731041431427, 0.2129025012254715, -0.435577392578125, -0.9011152386665344, -2.8211097717285156, -1.3378210067749023, -0.8315916061401367, -0.3338886797428131, 0.2939126789569855, 0.37735214829444885, -0.024111432954669, -0.04677382484078407, -0.4429667890071869, 0.24723298847675323, -0.1555449217557907, -0.12165884673595428, -0.41557955741882324, -1.2371060848236084, -1.6808711290359497, -0.85736083984375, 0.2023029774427414, 0.4187547564506531, 0.2227891981601715, -0.010929354466497898, -0.05886226147413254, -0.04339227452874184, -0.5474545955657959, -0.20876871049404144, 0.024481792002916336, 0.14343850314617157, -0.22514064610004425, -0.30313003063201904, -0.47597652673721313, 0.6457747220993042, 0.4593547284603119, 0.027560094371438026, 0.2013276219367981, -0.14334698021411896, -0.04538515582680702, 0.019651414826512337, -0.2235880047082901, 0.22866933047771454, -0.19362978637218475, 0.509615957736969, 0.8729135990142822, 0.5939716100692749, 0.6241317987442017, 0.29848363995552063, -0.19224926829338074, -0.37580785155296326, 0.006542686372995377, -0.14936941862106323, -0.050149329006671906, -0.018151365220546722, -0.23022468388080597, 0.16816134750843048, 0.23142574727535248, 0.3897448778152466, 1.053852915763855, 0.7929078340530396, 0.42852094769477844, 0.18068253993988037, -0.2317124605178833, -0.26561087369918823, -0.2823040187358856, -0.10943461954593658, 0.0015704771503806114, -0.010825823992490768, -0.0583319365978241, -0.08108280599117279, -0.2734255790710449, 0.05975380539894104, 0.05031178891658783, -0.03205166012048721, -0.36419665813446045, -0.4239746928215027, -0.4674115777015686, -0.3579860031604767, -0.11440526694059372, -0.046826526522636414, -0.05500280484557152, -0.023640474304556847, -0.009109324775636196, -0.05402964726090431, -0.08436139672994614, -0.3439730703830719, -0.26020070910453796, -0.3845877945423126, -0.42900604009628296, -0.3374474048614502, -0.16694267094135284, -0.1446978598833084, -0.03226098790764809, -0.03965279087424278, -0.052718669176101685, -0.05199315771460533, -0.03195628896355629, -0.024273544549942017, -0.03011215478181839, -0.024670211598277092, -0.07713688164949417, 0.0365305133163929, -0.04421522095799446, -0.028940441086888313, -0.01906741037964821, -0.027592085301876068, -0.028884464874863625, -0.010855178348720074, -0.0007241175044327974, -0.06176571547985077, -0.018400350585579872, -0.03697696700692177, -0.09517930448055267, -0.04576914757490158, -0.39221182465553284, -0.281279057264328, -0.4184279143810272, -0.23279309272766113, -0.5508288741111755, -0.360826700925827, -0.3465690314769745, -0.06328177452087402, -0.004754471126943827, -0.053208768367767334, -0.010560380294919014, -0.08291828632354736, -0.24366143345832825, -0.39944714307785034, -0.4143359661102295, 0.09345002472400665, 0.5030145645141602, 0.7019153237342834, 0.10867834091186523, -0.2705910801887512, -0.3029993176460266, -0.2166053056716919, -0.06172676756978035, -0.0681641474366188, -0.059347186237573624, -0.18481385707855225, -0.406185120344162, -0.8158693313598633, 0.023000800982117653, 0.1981116384267807, 0.5312595367431641, 0.61472088098526, 0.49819475412368774, 0.181685671210289, -0.114145927131176, -0.44232502579689026, -0.2247837483882904, -0.015819847583770752, -0.09469161182641983, -0.3325716257095337, -0.7650068998336792, -0.25581926107406616, -0.04443321004509926, 0.4583539068698883, 0.8856252431869507, 1.4231221675872803, 1.0573358535766602, 0.06429354846477509, 0.2626914381980896, -0.20878009498119354, -0.2775438129901886, -0.008402549661695957, -0.15562979876995087, -0.24730940163135529, -0.032318536192178726, 0.3227926194667816, 0.42133423686027527, 0.3261316120624542, -0.5671284794807434, -0.09552442282438278, 0.6476486325263977, 0.4763142168521881, 1.1100021600723267, -0.18394023180007935, -0.19498704373836517, -0.01278818678110838, -0.06945932656526566, 0.3449757695198059, 0.6868222951889038, 0.207269549369812, 0.08380807191133499, -0.9028884768486023, -2.420475482940674, -1.8817063570022583, -0.27886292338371277, 0.2967361509799957, 1.2582380771636963, 0.3151082694530487, -0.05156109482049942, -0.060302019119262695, -0.11509077250957489, 0.6225998401641846, 0.8931235074996948, 1.2174674272537231, 0.6514816284179688, -2.1868577003479004, -3.5171406269073486, -2.1538634300231934, -0.569343626499176, 0.39616283774375916, 1.4241760969161987, 0.2712111175060272, -0.03485194593667984, -0.021335268393158913, -0.24553295969963074, 0.7947486042976379, 0.8829452991485596, 0.9798029065132141, 0.38940781354904175, -2.731832265853882, -3.3695573806762695, -0.6791912317276001, 0.013723831623792648, 0.38817721605300903, 0.672552764415741, -0.04220963269472122, -0.07299813628196716, -0.04439583793282509, -0.3220565617084503, 0.43730857968330383, 0.6049391031265259, 1.3432203531265259, 0.9599725008010864, -0.5387904047966003, -0.8186412453651428, 0.426049143075943, 0.08153799921274185, 0.2992877662181854, 0.3300298750400543, -0.047674816101789474, -0.04506302252411842, -0.01558780763298273, -0.20279163122177124, 0.30156803131103516, 0.5598753690719604, 1.038901448249817, 1.180314540863037, 0.17511342465877533, -0.13324730098247528, 0.11481208354234695, 0.15138353407382965, 0.21741695702075958, 0.10123703628778458, -0.10707077383995056, -0.051843274384737015, -0.00846383161842823, -0.17848317325115204, 0.11906687170267105, 0.26716071367263794, 0.7828293442726135, 1.8358088731765747, 1.2129124402999878, 1.042649269104004, 0.2794337570667267, -0.23613262176513672, -0.16120336949825287, -0.1521475613117218, -0.10830380767583847, -0.005310936365276575, 0.002070279326289892, -0.06976921111345291, -0.10125575959682465, -0.2284691482782364, -0.2275632917881012, -0.461982786655426, -0.359042763710022, -0.5309210419654846, -0.5991247296333313, -0.3708861470222473, -0.2905175983905792, -0.10512272268533707, -0.008888640441000462, -0.0035929852165281773, -0.0501888245344162, -0.06566333025693893, -0.09031881392002106, -0.07916929572820663, -0.21100394427776337, -0.19390437006950378, -0.25121814012527466, -0.32078152894973755, -0.18951457738876343, -0.07319680601358414, -0.07806646078824997, -0.043645504862070084, -0.009311173111200333, -0.060413215309381485, -0.00828580092638731, -0.047219567000865936, -0.00430692732334137, 0.0013493068981915712, 0.002963423728942871, -0.04513188451528549, -0.03711482882499695, -0.05191262811422348, -0.06469786167144775, -0.04315504431724548, -0.061523400247097015, 0.0013612910406664014, -0.03219790384173393, -0.027310267090797424, -0.01612705923616886, -0.040463339537382126, -0.05210097134113312, 0.004144034348428249, -0.1471865177154541, -0.13633587956428528, -0.022488122805953026, -0.24354933202266693, -0.2517625689506531, -0.24467192590236664, -0.1358560472726822, -0.11945005506277084, -0.008381384424865246, -0.027248399332165718, -0.026838429272174835, -0.026376670226454735, -0.2001352161169052, -0.1952620893716812, -0.5018690824508667, -0.41902363300323486, 0.11821351200342178, 0.2681625187397003, 0.14307528734207153, 0.014056399464607239, -0.40154361724853516, -0.6065146923065186, -0.33109772205352783, -0.04317121207714081, -0.04615074768662453, -0.07042711228132248, -0.13535234332084656, -0.4540264904499054, -0.3299981653690338, -0.218765527009964, 0.2638849914073944, 0.1706889122724533, 0.4119282066822052, 0.20903818309307098, 0.1090591624379158, 0.3787511885166168, -0.4138626158237457, -0.16415344178676605, -0.06407510489225388, -0.17582884430885315, -0.2030438631772995, -0.46180498600006104, 0.5069558024406433, 0.17003215849399567, 0.7757657766342163, 0.8023894429206848, 0.430609792470932, 1.381364107131958, 1.0272908210754395, 0.3160000145435333, 0.4088945686817169, -0.3753490149974823, -0.04625032842159271, -0.31213799118995667, 0.1763232797384262, 0.4494115710258484, 0.17108267545700073, 1.149884581565857, 1.0229518413543701, 0.043741028755903244, 0.896625280380249, 1.2523791790008545, 1.1301506757736206, 1.0540419816970825, 1.1796882152557373, -0.22801706194877625, -0.02611650712788105, -0.15204015374183655, 1.0070152282714844, 0.16981850564479828, 0.972527801990509, 1.682248592376709, 1.0103304386138916, 0.7149327397346497, 1.338077425956726, 0.5712276101112366, 0.9786468148231506, 1.784704327583313, 1.4139021635055542, -0.09273628890514374, 0.0005234576528891921, -0.28939393162727356, 1.185341477394104, 0.9637165069580078, 1.1579838991165161, 0.9898999333381653, 1.7183597087860107, -1.1655851602554321, 0.5023013353347778, 0.03372771665453911, 0.6793619394302368, 1.0720369815826416, 1.209389090538025, -0.010781796649098396, -0.013922379352152348, -0.5837835073471069, 1.313872218132019, 0.641943633556366, 0.9011148810386658, 1.1254265308380127, 0.37178707122802734, -1.1843785047531128, 0.3282614052295685, 0.3638855516910553, 0.23341165482997894, 0.45424124598503113, 0.619249165058136, -0.10352587699890137, -0.040565960109233856, -0.6290642023086548, 0.6908446550369263, 0.5881693363189697, 1.3706145286560059, 1.0665701627731323, -0.09751330316066742, -0.20392566919326782, 0.11446654051542282, 0.8281259536743164, -0.0037753647193312645, 0.2215469628572464, 0.0758708119392395, -0.06049837917089462, 0.03480253368616104, -0.37518632411956787, 0.5939046144485474, 0.3480035662651062, 1.2533109188079834, 1.267809510231018, 0.2557450532913208, 0.16241899132728577, 0.02441689372062683, 0.22694790363311768, -0.1261584758758545, 0.22006191313266754, -0.15609623491764069, -0.04345244541764259, -0.06597700715065002, -0.2554485499858856, 0.36231568455696106, 0.23477748036384583, 0.19518712162971497, 1.0361407995224, -0.6624009013175964, -0.5222808718681335, -0.5454815030097961, -0.4661867916584015, -0.3564937114715576, -0.315337210893631, -0.11241872608661652, -0.00906870886683464, -0.023482851684093475, -0.026169370859861374, -0.11872004717588425, -0.260836660861969, 0.186883345246315, 0.1307191401720047, 0.414463073015213, -0.3311850130558014, -0.45270684361457825, -0.45690956711769104, -0.4203321039676666, -0.12408263981342316, -0.029813291504979134, -0.04265419393777847, -0.042969755828380585, -0.02440330758690834, -0.051848188042640686, -0.18700788915157318, -0.41050249338150024, -0.32953977584838867, -0.47697100043296814, -0.5622373819351196, -0.4530145525932312, -0.14193923771381378, -0.20232461392879486, -0.08586382865905762, -0.017417503520846367, -0.060630280524492264, -0.026797417551279068, -0.0041326615028083324, -0.03807375580072403, -0.06153036281466484, -0.01794259063899517, -0.04472922533750534, -0.046977296471595764, -0.05343380942940712, -0.01964755356311798, -0.0009974008426070213, -0.0018043761374428868, -0.04447145760059357, -0.04994843527674675, -0.06154898926615715, -0.04710231348872185, -0.04336212947964668, -0.008884845301508904, 0.030042164027690887, 0.10543780028820038, 0.10769055783748627, 0.16752159595489502, 0.04011125862598419, 0.05383787676692009, 0.15563948452472687, 0.003870478132739663, 0.05114523693919182, -0.02503584511578083, -0.06398800015449524, -0.05377089977264404, -0.045208968222141266, 0.03904236853122711, 0.11052308976650238, 0.2220829725265503, 0.0815173089504242, 0.039069872349500656, -0.337680846452713, 0.08656017482280731, -0.03837031498551369, 0.038923971354961395, 0.05924263969063759, 0.044656574726104736, -0.051037631928920746, -0.04007982090115547, 0.003754766657948494, 0.03235070779919624, 0.12938638031482697, 0.20169581472873688, 0.03192008286714554, -0.37089473009109497, -0.8259055614471436, -1.3635985851287842, -1.180463433265686, -0.5359019041061401, -0.21745845675468445, -0.02152172662317753, 0.04122742637991905, -0.004660466220229864, -0.0017563006840646267, 0.10495404899120331, 0.005659373942762613, 0.09223125874996185, -0.16855193674564362, -0.7607360482215881, -1.0316576957702637, -1.0871556997299194, -1.6858683824539185, -0.7980783581733704, -0.5477367639541626, -0.20999586582183838, -0.025120500475168228, -0.05928437039256096, -0.03927920013666153, 0.03699912503361702, -0.41093891859054565, 0.0024755550548434258, -0.26639968156814575, -0.46862420439720154, 0.9530314803123474, 0.7308000922203064, -1.1098673343658447, -0.7908170819282532, -0.8771814703941345, -0.25579312443733215, 0.0017908104928210378, -0.01732621341943741, -0.0006854863604530692, -0.1707426905632019, -0.7573668956756592, -0.28897374868392944, -0.8633229732513428, 1.0012297630310059, 2.7373104095458984, 2.33133602142334, 0.3659035861492157, -0.567230224609375, -1.3147202730178833, -0.4474523365497589, -0.04896897077560425, -0.00813747476786375, 0.02521049603819847, -0.27519068121910095, -1.111230731010437, -1.0788406133651733, -0.49438491463661194, 1.4620252847671509, 2.2698004245758057, 1.464566946029663, 0.22611816227436066, -0.4834440350532532, -0.6881495118141174, -0.34280624985694885, -0.05575220659375191, -0.006216865032911301, 0.08840861171483994, -0.26085135340690613, -0.9527876377105713, -0.8625296354293823, -0.345106840133667, 1.6199548244476318, 1.5724825859069824, 0.13430802524089813, -0.6880863308906555, -0.10262635350227356, -0.2800658047199249, -0.10911740362644196, -0.023124972358345985, -0.03000861592590809, 0.10570114850997925, 0.059061966836452484, -0.7407652735710144, -1.1458728313446045, -0.9287352561950684, 0.034444659948349, 0.40199053287506104, -0.09512664377689362, 0.10954580456018448, -0.11832600831985474, 0.09298675507307053, 0.013959621079266071, -0.037406980991363525, -0.03467506542801857, 0.07886935025453568, -0.11015644669532776, -0.31499093770980835, -0.920551598072052, -1.0171109437942505, -0.7005873918533325, -0.2988932430744171, 0.1632862240076065, 0.1804559826850891, -0.02462715096771717, 0.17229896783828735, -0.023390475660562515, -0.03965739160776138, -0.028495756909251213, 0.05346851423382759, -0.04061455279588699, -0.17219030857086182, -0.2853620648384094, -0.33911585807800293, -0.8323681354522705, -0.3586413264274597, 0.08658520877361298, 0.19213268160820007, 0.3010079264640808, 0.03774968534708023, -0.04134327173233032, -0.016699649393558502, -0.00232177646830678, -0.0030932831577956676, 0.006598634645342827, 0.07330308109521866, -0.12473070621490479, -0.2850014269351959, -0.42902135848999023, -0.06443020701408386, 0.09635791927576065, 0.21546004712581635, 0.10128661245107651, -0.04018811881542206, 0.001721944659948349, -0.06414398550987244, -0.012000950053334236, -0.01748502627015114, -0.021251801401376724, -0.005125898402184248, 0.087252177298069, 0.06241853907704353, 0.04651390761137009, 0.08966439217329025, 0.02414005436003208, 0.028181325644254684, -0.012272845953702927, -0.004233579151332378, -0.06046971306204796, -9.683692769613117e-05], [0.19347968697547913, 0.1346322000026703, 0.1639070361852646, 0.17021551728248596, 0.14783744513988495, 0.13985808193683624, 0.17247122526168823, 0.214812234044075, 0.17655541002750397, 0.15413320064544678, 0.1453973948955536, 0.19543160498142242, 0.12917391955852509, 0.1618543267250061, 0.1361338347196579, 0.18475329875946045, 0.15561220049858093, 0.14614008367061615, 0.055531617254018784, -0.09979196637868881, -0.06655160337686539, 0.2821912169456482, 0.10029061138629913, -0.14065790176391602, -0.019809676334261894, 0.20473264157772064, 0.12929606437683105, 0.18031659722328186, 0.14146292209625244, 0.17340850830078125, 0.06105523183941841, -0.15447215735912323, -0.5371547937393188, -0.04225204885005951, 0.365029513835907, 0.10317298024892807, 0.14889085292816162, 0.6695467233657837, 0.3697677254676819, 0.6713022589683533, 0.45018133521080017, 0.10981860756874084, 0.1521347612142563, 0.19392259418964386, -0.15902525186538696, -0.8507500290870667, -1.6694016456604004, -1.810213565826416, -2.1488332748413086, -2.4451756477355957, -1.7421510219573975, -1.0075091123580933, -0.5493631958961487, -0.23620200157165527, -0.39560145139694214, 0.1108747124671936, 0.1400657445192337, 0.1693563461303711, -0.26740947365760803, -1.0337092876434326, -1.2574480772018433, -1.2870876789093018, -1.6623125076293945, -2.039884328842163, -1.4527153968811035, -1.4673658609390259, -0.8058086633682251, -0.9018262624740601, -1.2478629350662231, 0.058250512927770615, 0.12278765439987183, 0.1576296091079712, -0.12459661066532135, -0.3938789665699005, -0.8341603875160217, -0.6941515803337097, -1.5868088006973267, -1.3978065252304077, -2.003540515899658, -1.4465596675872803, -0.8645321130752563, -0.9939932227134705, -0.8698785305023193, -0.02954748272895813, 0.14593932032585144, 0.1818401962518692, 0.08677342534065247, -0.25742846727371216, -0.6921321153640747, -1.4356045722961426, -0.39502328634262085, -1.5051518678665161, -1.342310905456543, -0.6720979809761047, -0.834830105304718, -0.2535702586174011, -0.07255854457616806, 0.12797555327415466, 0.17852336168289185, 0.23240967094898224, 0.006187038030475378, -0.29508933424949646, -1.6134337186813354, -0.8050249218940735, -0.6930431127548218, -1.077445149421692, -0.9463432431221008, -1.3930964469909668, -0.9681678414344788, -0.42235618829727173, 0.0008979617850854993, 0.09472469985485077, 0.16435755789279938, 0.19070744514465332, -0.46490785479545593, -1.2113980054855347, -0.609723687171936, -1.3825302124023438, -0.9429751634597778, -0.839216947555542, -1.0510313510894775, -1.50483238697052, -0.7488725185394287, -0.3808058798313141, -0.20469611883163452, 0.05981002002954483, 0.1267225295305252, 0.12675262987613678, -0.9364151954650879, -0.5503025650978088, -0.9805976748466492, -1.7262563705444336, -1.1332097053527832, -1.3925259113311768, -1.6281707286834717, -0.3957265019416809, -0.14663733541965485, -0.4363527297973633, -0.11550986766815186, 0.18757742643356323, 0.14782243967056274, 0.11287420243024826, 0.27931514382362366, -0.6009129881858826, -0.5686010718345642, -1.4490021467208862, -1.567746877670288, -2.021237850189209, -1.0107110738754272, 0.11659816652536392, -0.2338900864124298, -0.41620779037475586, -0.03724399954080582, 0.19349712133407593, 0.1696593463420868, 0.10379098355770111, 0.7307222485542297, 0.28455185890197754, 0.2026173323392868, -0.8259683847427368, -1.6725436449050903, -0.7284230589866638, -0.25076642632484436, 0.7754915356636047, -0.02950376830995083, -0.16538098454475403, 0.12293209135532379, 0.21274904906749725, 0.1713728904724121, 0.09228187799453735, 0.3292006850242615, 0.373295396566391, -0.03726906701922417, -0.21032249927520752, -0.1908671110868454, -0.15273426473140717, 0.007955331355333328, 0.20658168196678162, 0.12031274288892746, 0.13850779831409454, 0.13621020317077637, 0.1901867389678955, 0.14734719693660736, 0.14719313383102417, 0.10971149802207947, 0.0970488041639328, 0.11155543476343155, -0.05354313924908638, -0.13523797690868378, -0.08987944573163986, 0.09286574274301529, 0.1255185753107071, 0.19175206124782562, 0.19384127855300903, 0.14480680227279663, 0.13269959390163422, 0.18176227807998657, 0.1408725380897522, 0.13801738619804382, 0.14930172264575958, 0.18354077637195587, 0.1637115478515625, 0.18797874450683594, 0.23655818402767181, 0.1618875116109848, 0.15156008303165436, 0.18098708987236023, 0.1844642609357834, 0.16269555687904358, 0.13944625854492188, 0.13587762415409088, 0.14452269673347473, 0.16324582695960999, 0.13839982450008392, 0.09023598581552505, 0.0012686827685683966, -0.26124805212020874, -0.40244391560554504, -0.23582129180431366, -0.26574012637138367, -0.27887651324272156, 0.20589278638362885, 0.1046614721417427, 0.1379789263010025, 0.19121944904327393, 0.16991494596004486, 0.16721181571483612, -0.030988292768597603, -0.42501628398895264, -0.3435714542865753, -0.1334071010351181, -0.1963305026292801, -0.346255362033844, -0.07505229115486145, 0.3358767628669739, 0.6627610921859741, 0.27139773964881897, 0.12299283593893051, 0.1594540774822235, 0.154372438788414, -0.006020047701895237, -0.5784679055213928, -1.3529707193374634, -0.7909871339797974, -0.015520716086030006, -0.832595944404602, -1.3626751899719238, -0.542568564414978, 0.13258986175060272, 0.15482619404792786, -0.1563846319913864, 0.133497416973114, 0.16545788943767548, 0.15619702637195587, -0.07263226807117462, -0.7674445509910583, -1.4113556146621704, -0.9718876481056213, 0.28394824266433716, 0.41821664571762085, -0.6883680820465088, -0.39983510971069336, -0.4135865867137909, -0.8133077025413513, -0.9114758372306824, 0.11831195652484894, 0.19057625532150269, 0.15705694258213043, -0.11515379697084427, -0.44958361983299255, -0.6989238262176514, -0.3286598324775696, 0.6590443253517151, 1.5325310230255127, -0.13011474907398224, -0.6402552723884583, -0.8104913234710693, -0.7572951912879944, -0.5076950192451477, 0.043116338551044464, 0.14772868156433105, 0.135580375790596, 0.03353385999798775, -0.21973012387752533, -0.3548029363155365, -1.451220989227295, 0.06061642989516258, 1.9004034996032715, 0.03639860078692436, -0.9084472060203552, -0.7182155251502991, -0.19175438582897186, 0.0404219813644886, 0.12343703210353851, 0.18136365711688995, 0.1680280566215515, 0.10453402251005173, -0.265707403421402, -1.0178799629211426, -1.706506371498108, 0.9495949745178223, 2.0302531719207764, -0.8836572170257568, -1.2467560768127441, -0.7544472217559814, -0.3283333480358124, 0.05522468686103821, 0.12606093287467957, 0.18266944587230682, 0.17739860713481903, -0.107304647564888, -0.8217751979827881, -1.1580591201782227, -0.5728031992912292, 1.631966233253479, 1.2592740058898926, -1.5921953916549683, -1.3783210515975952, -0.6332717537879944, -0.41376909613609314, -0.09924790263175964, 0.0824984610080719, 0.15606099367141724, 0.14895868301391602, -0.5402039885520935, -1.3497183322906494, -0.45028045773506165, 0.3629239499568939, 1.40597665309906, 0.6528010964393616, -1.4059151411056519, -0.40460070967674255, -0.2500380575656891, -0.28212106227874756, -0.07127650082111359, 0.1640763133764267, 0.16475483775138855, 0.08689462393522263, -0.3139644265174866, -0.24879170954227448, -0.057278476655483246, 0.015074281021952629, -0.03373989462852478, -0.2269161343574524, -0.4703698754310608, -0.3165687322616577, -0.5420471429824829, -0.3151722252368927, 0.007647572085261345, 0.17109522223472595, 0.18882958590984344, 0.16451093554496765, 0.688835620880127, 0.8588086366653442, 0.6894899606704712, 0.038034405559301376, -0.37123432755470276, -0.08068525046110153, 0.5586985349655151, 0.309250146150589, -0.16197644174098969, -0.07970884442329407, 0.11556591838598251, 0.16728980839252472, 0.1765962392091751, 0.13312947750091553, 0.2685967683792114, 0.08656800538301468, -0.12381182610988617, -0.5641703009605408, -0.4641665816307068, -0.1688881665468216, 0.12314096838235855, 0.10842515528202057, 0.10726074129343033, 0.15800927579402924, 0.15123140811920166, 0.14444933831691742, 0.14462222158908844, 0.12812723219394684, 0.16439250111579895, 0.09421563148498535, 0.10123896598815918, 0.008485202677547932, -0.08357009291648865, 0.013693294487893581, 0.09986788034439087, 0.12172342091798782, 0.1710546612739563, 0.17081783711910248, 0.17887389659881592, 0.13214372098445892, 0.18223682045936584, 0.18218031525611877, 0.19760866463184357, 0.18739454448223114, 0.15904489159584045, 0.14330986142158508, 0.1391879767179489, 0.14021539688110352, 0.13567985594272614, 0.17312213778495789, 0.17547298967838287, 0.14331766963005066, 0.13624730706214905, 0.1728564351797104, 0.13486605882644653, 0.1829717606306076, 0.18328464031219482, 0.17273584008216858, 0.12489180266857147, 0.06866833567619324, 0.1497432142496109, 0.29056668281555176, 0.1765454262495041, -0.05638507753610611, 0.027646111324429512, 0.1431555151939392, 0.11473212391138077, 0.16217629611492157, 0.1812426894903183, 0.20103375613689423, 0.1286274492740631, -0.0708349421620369, -0.1364753097295761, 1.1391271352767944, 0.6210497617721558, 0.9739760160446167, 0.7903484106063843, 1.0286530256271362, 0.8552892804145813, 0.5978786945343018, 0.06838037818670273, 0.12369298934936523, 0.1756846308708191, 0.15346397459506989, -0.19538363814353943, -0.622029185295105, -0.7750336527824402, -0.024920761585235596, 0.09315241128206253, -0.46705660223960876, 0.22416475415229797, 0.2088785320520401, 0.43873026967048645, 0.10160262882709503, 0.01927565038204193, 0.13224150240421295, 0.1671101599931717, 0.11576199531555176, -0.2570008635520935, -0.9747747182846069, -1.0192503929138184, -0.033428121358156204, -0.37582048773765564, -0.1189081072807312, -0.07006186246871948, -0.629727840423584, -0.5982701778411865, -0.17730306088924408, -0.5942615866661072, 0.10439303517341614, 0.16053371131420135, 0.09715350717306137, -0.222830131649971, -0.5004019737243652, -0.834593653678894, -0.09869438409805298, -0.9339063763618469, -0.6369128823280334, -0.6044310927391052, -0.6412071585655212, -0.22602440416812897, -0.5369993448257446, -0.7767506241798401, -0.029681574553251266, 0.12845352292060852, 0.12227439135313034, -0.01956462487578392, -0.35534384846687317, -0.4555222988128662, -1.4944735765457153, -0.24805757403373718, -0.35161811113357544, -0.2991046607494354, 0.5097155570983887, -0.696650505065918, -0.2574477791786194, -0.024886297062039375, 0.1302097886800766, 0.13751475512981415, 0.22842782735824585, -0.0249225664883852, -0.31211915612220764, -1.5305880308151245, -0.5442967414855957, 0.4828357994556427, -0.5398852825164795, 0.4083606004714966, -0.8832376599311829, -0.5956827998161316, -0.3102518618106842, 0.024769503623247147, 0.10428895801305771, 0.18939223885536194, 0.16059760749340057, -0.31605666875839233, -0.899599552154541, -0.898163914680481, -0.0685809850692749, -0.08528175204992294, -0.31917163729667664, -0.4249415993690491, -1.624820590019226, -0.6994416117668152, -0.43318891525268555, -0.12900130450725555, 0.11282621324062347, 0.17158445715904236, 0.1356569230556488, -1.0924677848815918, -0.9654973745346069, -0.3286210298538208, -0.6012793779373169, -0.12833146750926971, -0.37344858050346375, -1.2400909662246704, -0.7015931606292725, -0.24907153844833374, -0.3351816236972809, -0.2167031168937683, 0.1595148891210556, 0.12558022141456604, 0.04662449285387993, -0.3517793118953705, -0.11115437746047974, -0.6227178573608398, -0.8215656280517578, 0.12247798591852188, -0.8084573149681091, -0.6631227731704712, 0.059122245758771896, -0.1323133409023285, -0.3809868395328522, 0.09006746858358383, 0.18566261231899261, 0.19556699693202972, 0.132566437125206, 1.172987937927246, 0.3025128245353699, 0.6409792900085449, 0.0010270882630720735, 0.03657935559749603, -0.042472075670957565, -0.13718847930431366, 1.0317411422729492, -0.009761223569512367, -0.25516870617866516, 0.124626524746418, 0.15397286415100098, 0.1595522165298462, 0.0470457561314106, 0.36528220772743225, 0.2063574194908142, 0.10848245769739151, -0.1484033465385437, -0.06702341139316559, 0.03212863951921463, 0.11091992259025574, 0.18508680164813995, 0.10174456238746643, 0.14743073284626007, 0.1660195291042328, 0.14669246971607208, 0.15114696323871613, 0.17819297313690186, 0.07648541033267975, 0.08660585433244705, 0.0442611463367939, -0.19075652956962585, -0.24261504411697388, -0.1916615217924118, 0.06416111439466476, 0.15550284087657928, 0.13162051141262054, 0.1916104555130005, 0.1655285507440567, 0.1781800538301468, 0.19686542451381683, 0.14046797156333923, 0.19437672197818756, 0.1842776983976364, 0.17300717532634735, 0.18162091076374054, 0.1485082507133484, 0.15936733782291412, 0.19463017582893372, 0.19732926785945892, 0.14952944219112396, 0.18037432432174683, 0.17778441309928894, 0.1755315363407135, 0.17041155695915222, 0.14162462949752808, 0.16547724604606628, 0.20099028944969177, 0.22621744871139526, 0.23255017399787903, 0.22767508029937744, 0.02980649657547474, 0.22135093808174133, 0.29819729924201965, 0.18777605891227722, 0.14833036065101624, 0.15501061081886292, 0.18432195484638214, 0.1315494030714035, 0.1978681981563568, 0.17311568558216095, 0.2960210144519806, 0.5020824670791626, 0.6216355562210083, 0.029733821749687195, -0.264723539352417, -0.17836925387382507, -0.22346672415733337, -0.19367143511772156, -0.0738307535648346, 0.04866598919034004, 0.1565869152545929, 0.15307140350341797, 0.1338091343641281, 0.24982231855392456, 0.5833480954170227, 0.9738882184028625, 1.0490398406982422, 0.5239196419715881, 0.15351063013076782, 0.10223817080259323, 0.009403470903635025, 0.017088966444134712, 0.24400442838668823, 0.2563295364379883, 0.1914568543434143, 0.18464972078800201, 0.16844554245471954, 0.31687429547309875, 0.642978847026825, 0.9585554599761963, 1.3151941299438477, 0.751247763633728, -1.0842925310134888, -0.5886530876159668, 0.30447036027908325, 0.8451410531997681, 0.7854555249214172, 0.49948298931121826, 0.1988007128238678, 0.2028898000717163, 0.15127365291118622, 0.29723677039146423, 0.4291119873523712, 0.6587718725204468, 0.585072934627533, 0.14503680169582367, -2.7448954582214355, -0.13287746906280518, 0.7876299023628235, 0.9794740676879883, 0.6622434258460999, 0.3441780209541321, 0.1764436960220337, 0.18642480671405792, 0.16057522594928741, 0.23666302859783173, 0.35093235969543457, 0.6204168200492859, 1.255587100982666, -0.15300799906253815, -3.4157931804656982, 0.23319967091083527, 0.5747699737548828, 0.5065805315971375, 0.33567702770233154, 0.2070941925048828, 0.15865249931812286, 0.19987672567367554, 0.1762453317642212, 0.24408894777297974, 0.4390333890914917, 0.8935976624488831, 1.249269962310791, -0.39730870723724365, -2.017338514328003, 0.7074562311172485, 0.9375249743461609, 0.596260130405426, 0.33969756960868835, 0.20525459945201874, 0.20526449382305145, 0.14197199046611786, 0.18455205857753754, 0.399492472410202, 0.6154564619064331, 0.603060781955719, 0.5036041736602783, -0.42430463433265686, -0.7664596438407898, 1.3887641429901123, 0.9478201270103455, 0.586033821105957, 0.38911816477775574, 0.2461574822664261, 0.2037535309791565, 0.14946570992469788, 0.1724005788564682, 0.5575510263442993, 0.607943594455719, 0.09987783432006836, 0.4534247815608978, 0.24647751450538635, 0.007357658818364143, 0.6239938735961914, 0.5522230863571167, 0.42554593086242676, 0.39054933190345764, 0.16901813447475433, 0.1569836437702179, 0.14313937723636627, 0.20387622714042664, 0.1717344969511032, 0.05713552236557007, 0.1763714849948883, 0.5241966843605042, 0.6836576461791992, 0.12585504353046417, -0.2766876518726349, 0.11234252154827118, 0.31323719024658203, 0.3122798800468445, 0.15751253068447113, 0.1837141364812851, 0.14080707728862762, 0.20898236334323883, -0.004841466434299946, -0.05851463973522186, 0.40041133761405945, 1.1305959224700928, 1.3486210107803345, 0.29462316632270813, -0.6649395823478699, 0.1264423131942749, 0.3544936776161194, 0.18748889863491058, 0.18271319568157196, 0.1370268166065216, 0.1971062570810318, 0.18865737318992615, 0.1425129771232605, 0.19152289628982544, 0.2644115388393402, 0.461431622505188, 0.7052119970321655, 0.3025682866573334, 0.16510993242263794, 0.21042466163635254, 0.1530325561761856, 0.17951539158821106, 0.1963292956352234, 0.1303432136774063, 0.16066384315490723, 0.16759076714515686, 0.15124677121639252, 0.1671026349067688, 0.20118632912635803, 0.27363157272338867, 0.2921355664730072, 0.23508384823799133, 0.17634882032871246, 0.1726243644952774, 0.14005592465400696, 0.1584545522928238, 0.13049747049808502, 0.14019817113876343], [-0.02338469959795475, -0.017090141773223877, -0.03822611644864082, -0.028943069279193878, -0.005801804829388857, 0.007009051740169525, -0.03589819744229317, -0.031178170815110207, 0.07646974176168442, -0.007263828534632921, -0.027654945850372314, -0.019658571109175682, 0.0034264232963323593, -0.016670508310198784, 0.001915753004141152, -0.024761831387877464, -0.016742218285799026, 0.16186104714870453, 0.5261008143424988, 0.356812059879303, 0.6850637197494507, 0.5405740737915039, 0.3958885371685028, -0.2402028739452362, -0.38486409187316895, -0.18968996405601501, -0.09073634445667267, -0.03222246468067169, -0.019363796338438988, 0.018467651680111885, -0.017632799223065376, 0.6896247267723083, 0.9734826683998108, 0.8820847272872925, 1.5653666257858276, 1.0554704666137695, 0.3821573853492737, -0.14533260464668274, -0.34971100091934204, -0.6188426613807678, -0.40976396203041077, -0.02062082290649414, 0.018905652686953545, -0.037826161831617355, 0.06729135662317276, 0.49255627393722534, 0.8984936475753784, 0.6564016938209534, 0.9945335388183594, 0.796301007270813, 0.20856088399887085, -0.3762487471103668, -0.5791001319885254, -0.5045664310455322, -0.8069854974746704, -0.038136884570121765, 0.02666741982102394, -0.043177280575037, 0.18943075835704803, 0.258188396692276, 0.3065950274467468, 0.019719040021300316, -0.16511760652065277, 0.11946813017129898, 0.15081366896629333, -0.28964754939079285, -0.41273391246795654, -0.45256558060646057, -0.927846372127533, -0.04956001415848732, -0.0092327194288373, -0.11058524250984192, 0.2424149364233017, -0.3621496260166168, -0.37975090742111206, -0.5967063307762146, -1.161393642425537, -0.21145060658454895, -0.6392825841903687, -0.4463682472705841, -0.4065859019756317, -0.8487225770950317, -0.4188363552093506, -0.06824540346860886, -0.011703341268002987, -0.13531410694122314, -0.572742760181427, -1.0833275318145752, -1.0101882219314575, -0.6466490626335144, -0.7716233134269714, -0.0466458685696125, -0.3864182233810425, -0.759091317653656, -0.26408651471138, -0.6662455201148987, -0.36203083395957947, 0.08370066434144974, -0.0388709157705307, 0.04465014860033989, 0.24916411936283112, 0.4283856451511383, 0.6741272807121277, 0.8033706545829773, 1.320553183555603, 0.9380220770835876, -0.17975427210330963, -0.6576533913612366, -0.11853092908859253, -0.11412175744771957, 0.6624944806098938, 0.4113102853298187, -0.044930871576070786, 0.11769811809062958, 0.7547414898872375, 0.5013566613197327, 0.8544742465019226, 0.8644648194313049, 1.070966124534607, 0.7644429802894592, -0.29650843143463135, -0.2581947147846222, 0.36049777269363403, 0.8599696755409241, 1.5240830183029175, 0.7512387037277222, 0.015122597105801105, 0.07999527454376221, 0.8935033082962036, 0.66105717420578, 0.32803842425346375, 0.24408787488937378, 0.7267442941665649, 1.2671241760253906, 1.009941816329956, 0.8388174772262573, 1.633257508277893, 1.8964816331863403, 2.0616931915283203, 0.34011712670326233, -0.01328127458691597, 0.18352922797203064, 0.5609416961669922, 0.8173558712005615, 0.35904979705810547, 0.4741552472114563, 0.06091304495930672, 0.6707278490066528, 0.8969438076019287, 1.5948212146759033, 1.86686110496521, 1.709011435508728, 1.427647590637207, 0.1380651295185089, 0.021489959210157394, 0.028704311698675156, 0.20926812291145325, 0.09834390878677368, 0.03255145251750946, -0.6160550117492676, -0.7696851491928101, -0.8681100010871887, 0.19839619100093842, 0.7412992715835571, 0.870157778263092, 1.0348855257034302, 0.5954096913337708, -0.035588305443525314, -0.004549912177026272, -0.19681820273399353, -0.5608072280883789, -0.8723686337471008, -1.1315321922302246, -1.0703903436660767, -0.7457502484321594, -0.8908449411392212, -0.319604754447937, -0.3364951014518738, -0.22932490706443787, 0.20990335941314697, 0.06044679507613182, -0.0003344791184645146, -0.02548239752650261, -0.015381595119833946, -0.0025317196268588305, -0.04594391584396362, -0.0827837809920311, -0.11472088098526001, -0.10549405962228775, -0.1066552996635437, -0.039191924035549164, -0.057816021144390106, 0.009295554831624031, -0.03733482211828232, -0.030674630776047707, -0.03456084057688713, -0.011109387502074242, -0.009942351840436459, 0.0006551609840244055, -0.03140881285071373, 0.01800648123025894, 0.024086495861411095, -0.024345461279153824, -0.02765289507806301, 0.0400012731552124, 0.006591039709746838, -0.005779729690402746, -0.010405129753053188, -0.03153407573699951, -0.009627403691411018, -0.0287421066313982, -0.01820485293865204, 0.014292465522885323, -0.02549324929714203, 0.2577958405017853, 0.8428037762641907, 0.9452705979347229, 0.9089667797088623, 0.6321669816970825, -0.009494095109403133, -0.1047651618719101, -0.07675819844007492, -0.04068935662508011, 0.02316569909453392, -0.02527018077671528, -0.012630724348127842, 0.02022150345146656, 0.39689016342163086, 1.1530901193618774, 1.2751647233963013, 1.178924560546875, 1.4242662191390991, 1.2313562631607056, 0.49688827991485596, -0.14566460251808167, -0.37976568937301636, -0.15482071042060852, -0.03234599158167839, -0.0012036520056426525, -0.014864582568407059, 0.0755099281668663, 0.4492831230163574, 0.4338579475879669, 0.6292203068733215, 0.6464021801948547, 0.8825840353965759, 0.19893048703670502, -0.4503643810749054, -0.5399460792541504, -0.49314382672309875, -0.46299999952316284, 0.0020411175210028887, -0.009737277403473854, -0.03292904794216156, 0.16561701893806458, 0.2716978192329407, 0.07260336726903915, 0.21621546149253845, 0.5196189284324646, 0.7482597231864929, 0.38436704874038696, 0.12526607513427734, -0.43967145681381226, -0.6405370235443115, -0.5838643312454224, -0.016398658975958824, -0.005866358056664467, 0.03189932927489281, 0.09526287019252777, -1.3419023752212524, -1.1092827320098877, -1.0090352296829224, -1.8284105062484741, -1.2035164833068848, 0.010651974938809872, -0.2944920063018799, -0.18589159846305847, -0.6644494533538818, -0.2380674183368683, -0.015687594190239906, -0.027629585936665535, -0.049351129680871964, -1.0737080574035645, -2.554866313934326, -2.1576099395751953, -1.6646653413772583, -2.102266311645508, -1.3426851034164429, -1.3198729753494263, -0.41689494252204895, -0.49518460035324097, -0.46389874815940857, -0.226871520280838, 0.0649958923459053, -0.013959585689008236, -0.03495575115084648, -1.335889458656311, -1.4861118793487549, -0.45174211263656616, -0.20270484685897827, 0.1594436913728714, 0.08191200345754623, -0.02362360619008541, -0.24110794067382812, -0.3958376944065094, -0.6939495205879211, 0.4756837487220764, 0.22431564331054688, -0.0162794329226017, 0.29800039529800415, 0.2713285982608795, 0.7302035093307495, 0.25436821579933167, 0.40389078855514526, 0.8388793468475342, 0.910214900970459, 0.731233537197113, 0.3157322406768799, 0.2981482446193695, 0.5424597263336182, 1.4508302211761475, 0.45372527837753296, -0.025682570412755013, 0.28880539536476135, 0.9595364928245544, 0.8435282707214355, 0.7301192879676819, 0.9997606873512268, 1.0365182161331177, 1.1559984683990479, 0.4367271065711975, 0.7024872899055481, 0.7687109708786011, 1.2118602991104126, 1.4912831783294678, 0.1893310844898224, -0.0012514288537204266, 0.12754234671592712, 0.6842444539070129, 0.8169800043106079, 0.8684612512588501, 1.1945632696151733, 0.1830684095621109, 0.3371315896511078, 0.10428961366415024, 0.6078030467033386, 0.959619402885437, 1.1348592042922974, 0.7936096787452698, 0.10338080674409866, -0.021305378526449203, 0.1640307605266571, 0.28079602122306824, 0.16087326407432556, 0.20535922050476074, 0.048778701573610306, -0.6841355562210083, -1.2295634746551514, -0.4455796778202057, 0.06524746865034103, 0.7707449793815613, 0.5176865458488464, 0.32279324531555176, 0.005721741355955601, 0.00786031037569046, -0.041901443153619766, -0.29801228642463684, -0.7390283346176147, -0.9826935529708862, -0.9706593751907349, -0.6284056305885315, -0.6224725246429443, -0.2776128947734833, -0.2584092617034912, -0.08159469068050385, 0.12529908120632172, 0.04827849566936493, 0.028199177235364914, 0.012917967513203621, 0.007462040055543184, 0.021425673738121986, -0.05677236244082451, -0.0223788321018219, -0.05540638417005539, -0.009185781702399254, -0.014749683439731598, -0.007475501857697964, -0.018021544441580772, 0.002446602564305067, 0.03403327986598015, -0.004138322547078133, 0.015092515386641026, -0.012023216113448143, 0.02922534942626953, -0.009596334770321846, -0.006937239319086075, -0.0025365049950778484, 0.019102508202195168, 0.011522527784109116, 0.005577693693339825, -0.025590376928448677, 0.03373037651181221, -0.022798698395490646, 0.009975447319447994, -0.012044696137309074, -0.013852468691766262, 0.015689466148614883, -0.01279408112168312, -0.013961326330900192, -0.01970367692410946, -0.05326707288622856, -0.11244712024927139, 0.2539152204990387, -0.3251726031303406, 0.08351492881774902, -0.1904088854789734, -0.23513726890087128, -0.1590275913476944, 0.011986029334366322, 0.024652738124132156, 0.006492971908301115, -0.007917373441159725, 0.10093291103839874, 0.2551090121269226, 0.6611185073852539, -0.2589952051639557, 0.353790819644928, -0.08201664686203003, -0.15153075754642487, -0.4692465662956238, -0.6752795577049255, -0.6909486055374146, -0.2916051745414734, -0.0009782933630049229, 0.00934313703328371, -0.07034739851951599, 0.12246031314134598, 0.4270189106464386, 0.2056400030851364, -0.40384867787361145, -0.07926396280527115, -0.018629685044288635, -0.08152852952480316, 0.10559952259063721, 0.14189809560775757, 0.023791726678609848, -0.48689374327659607, 0.001876389142125845, 0.006450831424444914, -0.14478956162929535, -0.06174403429031372, -0.21704807877540588, -0.5484462976455688, -0.7363598942756653, -0.6646116971969604, 0.3171631097793579, 0.42065784335136414, 0.5301410555839539, 0.47511884570121765, 0.41887468099594116, -0.8054227232933044, -0.055697254836559296, -0.022914035245776176, -0.025084180757403374, -0.13918232917785645, -1.3016080856323242, -1.1182364225387573, -1.1713453531265259, -1.4148495197296143, -0.2089439481496811, 0.7509110569953918, 0.8840968012809753, 0.9902608394622803, 0.5297463536262512, -0.38684043288230896, -0.03692719712853432, 0.023549562320113182, -0.09765191376209259, -1.6845790147781372, -2.4280409812927246, -2.956148624420166, -2.326561450958252, -2.1762213706970215, -0.12357933819293976, 0.6856041550636292, 1.1906890869140625, 0.9562073349952698, -0.1056843101978302, -0.302206426858902, 0.006403711624443531, -0.0084364740177989, 0.05832332745194435, -1.3869556188583374, -1.1957037448883057, -1.3046815395355225, -1.046764850616455, -0.6064444184303284, 0.73823082447052, 0.19669924676418304, 0.14646223187446594, -0.5948392152786255, -1.3796859979629517, -0.5566176772117615, 0.5051093697547913, -0.015321812592446804, 0.5390955805778503, 0.5105950236320496, 0.12195281684398651, 0.08985672891139984, 0.41702520847320557, 0.2597379982471466, 0.10951150208711624, -0.4940699338912964, -1.0193946361541748, -1.310710072517395, -0.8901686668395996, -0.3377005457878113, 0.5336843729019165, 0.021255241706967354, 0.642572820186615, 1.0698821544647217, 1.033039927482605, 0.8179579973220825, 0.7796335816383362, -0.023166682571172714, -0.3154374063014984, -0.3860580027103424, -1.2259855270385742, -0.8569021224975586, -0.253095805644989, 1.4297493696212769, 0.2791895866394043, -0.043657973408699036, 0.30952849984169006, 0.7762330174446106, 0.9138463735580444, 0.6750836968421936, 0.4505750238895416, -0.14377827942371368, -0.03547752648591995, -0.36928892135620117, -0.5196309685707092, 0.08112236857414246, 0.24821236729621887, 1.1726096868515015, 0.1550198346376419, 0.03179381415247917, 0.22892601788043976, 0.24351303279399872, 0.45115888118743896, -0.06892599165439606, -0.7017834782600403, -0.7606977820396423, -0.3750859797000885, -0.24592095613479614, -0.05903777480125427, 0.4041239023208618, 0.782985508441925, 0.5884687304496765, 0.03020457550883293, 0.00906060915440321, -0.1741255521774292, -0.5271722078323364, -0.9340430498123169, -0.9762597680091858, -1.120123267173767, -0.7100458145141602, -1.0113340616226196, -0.2846977114677429, -0.36427029967308044, -0.1996532529592514, 0.2624529004096985, 0.10532486438751221, -0.0007568920846097171, -0.005991846323013306, -0.0371144600212574, -0.008382604457437992, -0.042481184005737305, -0.08610609173774719, -0.16961944103240967, -0.10513804107904434, -0.0716070905327797, -0.07673385739326477, -0.02154533378779888, 0.007059680763632059, -0.024133574217557907, 0.016282102093100548, 0.0003917390131391585, 0.0011442286195233464, -0.010809044353663921, -0.0016944775125011802, -0.015716958791017532, 0.0070144799537956715, 0.0017128557665273547, 0.038293369114398956, 0.012924022041261196, -0.055141888558864594, 0.03823169693350792, -0.03046395257115364, -0.024559512734413147, 0.01695924811065197, 0.0030544919427484274, -0.005235480144619942, -0.01156384963542223, 0.01809130795300007, -0.00999764259904623, -0.16980348527431488, -0.06752132624387741, -0.12734109163284302, -0.21426638960838318, -0.0954878181219101, 0.10841842740774155, 0.1580425500869751, 0.06068936362862587, -0.0001556581410113722, 0.003915935754776001, -0.00022768357302993536, 0.014012696221470833, 0.030470632016658783, -0.22244249284267426, -0.43361803889274597, -0.8270618915557861, -0.9047238230705261, -0.7563073039054871, -0.42910605669021606, -0.1732652336359024, 0.1819448620080948, 0.11008913815021515, 0.05721006169915199, -0.025880582630634308, 0.0062506492249667645, 0.02932463213801384, -0.03919442743062973, -0.17035764455795288, -0.5260531902313232, -0.7683430314064026, -0.8029740452766418, -0.8311760425567627, -0.5571742057800293, -0.14709912240505219, 0.038358498364686966, -0.05944261699914932, 0.1632484495639801, 0.006335604470223188, -0.01651076227426529, -0.01186329685151577, -0.08093597739934921, 0.14840105175971985, -0.09620048850774765, -0.7777692675590515, 0.01807550899684429, 0.20607949793338776, 0.0026753703132271767, -0.21252603828907013, -0.2901844382286072, -0.00208355113863945, 0.20058655738830566, -0.006431459449231625, -0.022473307326436043, 0.034397803246974945, -0.00692166481167078, 0.7291786074638367, 0.9646966457366943, 0.931846559047699, 1.8388749361038208, 0.9473301768302917, 0.2896963953971863, -0.04238074645400047, -0.16652284562587738, 0.10769923776388168, 0.04218044504523277, 0.017246009781956673, -0.007102456409484148, 0.0481291264295578, 0.21108151972293854, 1.42875075340271, 1.3613334894180298, 1.4158097505569458, 1.5443358421325684, 1.5580981969833374, 0.9872132539749146, 0.013164359144866467, 0.1861370950937271, 0.48806098103523254, 0.20216365158557892, 0.01164578553289175, 0.018358640372753143, -0.0021824229042977095, -0.062233757227659225, 0.07097714394330978, 0.16640113294124603, -0.43261387944221497, -0.5903024077415466, 0.6072805523872375, 0.240263432264328, 0.489959716796875, 0.6989486813545227, 0.42902109026908875, 0.14218565821647644, -0.11665206402540207, 0.0016325116157531738, -0.07437241822481155, -0.677179753780365, -0.5140817165374756, -0.4483863115310669, -1.0138049125671387, -1.4388766288757324, -0.5823095440864563, 0.03366312012076378, 0.42078402638435364, 0.19835150241851807, 0.10961790382862091, -0.3368249833583832, -0.09010713547468185, -0.007630779407918453, -0.040409643203020096, -0.6818658709526062, -0.8392047882080078, -0.8464418053627014, -1.5701220035552979, -1.762362003326416, -0.7737188935279846, -0.8161147236824036, -0.5677158236503601, -0.3657855987548828, -0.8376355171203613, -0.525035560131073, -0.04776265472173691, 0.030064573511481285, -0.06896230578422546, -0.49904364347457886, -0.7694507241249084, -0.7713247537612915, -1.0403518676757812, -0.20948192477226257, 0.278757244348526, -0.2284335047006607, -0.7813369631767273, -0.719741702079773, -0.7866209745407104, -0.3035435080528259, -0.005725105758756399, 0.004427393898367882, -0.05157659202814102, -0.09079085290431976, -0.0801902711391449, -0.11933744698762894, 0.21968242526054382, 0.7940080761909485, 0.8395385146141052, 0.1649150550365448, -0.43134447932243347, -0.5951381921768188, -0.413753479719162, -0.06513923406600952, -0.007674505468457937, 0.006973915733397007, 0.06249319016933441, 0.16524341702461243, 0.2824559509754181, 0.40493810176849365, 0.2454940229654312, 0.21792937815189362, 0.18594850599765778, 0.16814978420734406, 0.07481756806373596, -0.04515300318598747, 0.017081327736377716, -0.012142252177000046, 0.003907493315637112, 0.03517680615186691, -0.0008249620441347361, 0.011258742772042751, 0.006385052110999823, -0.0053568813018500805, 0.019185081124305725, 0.04506677761673927, 0.04376835376024246, -0.025162577629089355, -0.011503908783197403, 0.016884086653590202, -0.016217993572354317, -0.016126081347465515, -0.0050612580962479115], [0.062351178377866745, 0.035265665501356125, 0.06143558770418167, 0.03837552294135094, 0.05652064085006714, 0.018780823796987534, 0.02617485634982586, 0.044139694422483444, -0.008625895716249943, 0.018684659153223038, 0.005427089519798756, 0.028897957876324654, 0.041344065219163895, 0.05127152428030968, 0.044326938688755035, 0.011990176513791084, 0.07303939014673233, 0.1476455181837082, 0.06960731744766235, 0.521819531917572, 0.7652136087417603, 0.557215690612793, 0.1348910927772522, 0.07306861132383347, -0.09301821887493134, -0.14748021960258484, 0.001475935336202383, 0.039743416011333466, -0.006227583158761263, 0.09936574101448059, 0.6077871918678284, 0.582760214805603, 0.3302467167377472, 0.2353885918855667, 0.4252453148365021, 0.17269401252269745, -0.23763130605220795, -0.6619992256164551, -0.4745400846004486, -1.0604586601257324, -0.4884655773639679, 0.014105142094194889, 0.07446575909852982, 0.3841956555843353, 1.0625674724578857, 1.0874086618423462, 1.1015108823776245, 1.0550222396850586, 0.6367586255073547, 0.3468846380710602, -0.026542721316218376, -0.7553268074989319, -0.9209989905357361, -0.985744833946228, -1.0029386281967163, 0.005532324314117432, 0.003149408847093582, 0.5505249500274658, 1.0536370277404785, 0.5930072665214539, 0.3541400730609894, -0.14963237941265106, 0.4363785684108734, 1.2595880031585693, 1.172957420349121, 0.5457850694656372, -0.36789822578430176, -0.3614520728588104, -1.1235802173614502, 0.004131466615945101, -0.013553041033446789, 0.299636572599411, 0.1531565636396408, -0.3590144217014313, 0.19157257676124573, 0.26379457116127014, 0.2202705293893814, 0.9384064078330994, 1.188616156578064, 0.6018392443656921, 0.8334425091743469, -0.15429233014583588, -0.3647308945655823, 0.05395809933543205, -0.014438883401453495, 0.04564077779650688, -0.3761415183544159, -0.7104119062423706, -0.4433329403400421, -0.16605311632156372, 0.7681781649589539, 1.4089468717575073, 0.9086360335350037, 0.6872422695159912, -0.09984719753265381, -0.9758148789405823, -0.2680623531341553, 0.01959926448762417, 0.08251454681158066, 0.21211999654769897, -0.2630075514316559, -0.6587030291557312, -0.6335045099258423, -0.6867592930793762, -0.6157958507537842, 0.30379241704940796, 0.45876017212867737, 0.8199036717414856, 0.3763991892337799, -0.10361004620790482, -0.21233078837394714, 0.01022432278841734, 0.06284977495670319, 0.6982211470603943, 0.1983048915863037, -0.27281326055526733, -0.5286109447479248, -0.7886515259742737, -0.5233116745948792, 0.5203301906585693, 0.6593104600906372, 0.9635970592498779, 0.1676570475101471, 0.3965875804424286, -0.32336002588272095, -0.013524949550628662, 0.04907780513167381, 1.3648285865783691, 0.8994758129119873, 0.256819486618042, -0.22262999415397644, -0.8000274300575256, -0.3884263336658478, -0.025980152189731598, 0.5776636600494385, 0.7890948057174683, 0.011396776884794235, 0.3072050213813782, -0.5328632593154907, -0.014571626670658588, 0.020813969895243645, 1.2592464685440063, 1.0115797519683838, 0.7592774033546448, 0.40634918212890625, -0.15868765115737915, -0.4354868233203888, 0.2064298838376999, 0.36930862069129944, 0.060414765030145645, 0.24247200787067413, -0.3219279646873474, -0.410064697265625, -0.02025202475488186, 0.01588941365480423, 0.801120936870575, 1.1013853549957275, 0.6398444175720215, 0.9351852536201477, 0.6817091107368469, 0.6277692914009094, 0.7092857956886292, 0.2985107898712158, 0.23422639071941376, 0.031245211139321327, -0.42761072516441345, -0.16418905556201935, 0.027400201186537743, -0.004781964235007763, 0.21251682937145233, 0.6765869855880737, 1.0883735418319702, 0.4140036106109619, 0.664878785610199, 0.6298953294754028, 0.4067562222480774, -0.03195682168006897, -0.008427612483501434, -0.5373554825782776, -0.16390925645828247, -0.0061631156131625175, 0.0032784449867904186, 0.0324365496635437, 0.010173075832426548, 0.050582125782966614, 0.03587993606925011, 0.03403950482606888, 0.041270431131124496, 0.008472137153148651, -0.08396325260400772, -0.08984460681676865, 0.005185082089155912, 0.009503690525889397, -0.002250195015221834, 0.06041660159826279, 0.00787249393761158, 0.06836795061826706, 0.020083047449588776, 0.06022995337843895, 0.020905595272779465, 0.05455446243286133, 0.04510439559817314, 0.009225036948919296, 0.02446170151233673, 0.04893407225608826, 0.029570598155260086, 0.04386082664132118, 0.07486830651760101, 0.05870884284377098, 0.008156874217092991, 0.008830918930470943, 0.0743660256266594, 0.07104337960481644, 0.07399255037307739, 0.10403797775506973, 0.08028355240821838, 0.6307424306869507, 0.7154057025909424, 0.2567722797393799, 0.09402157366275787, -0.006177624221891165, -0.1329173743724823, -0.013981769792735577, 0.017263371497392654, 0.037367887794971466, 0.03551725670695305, 0.2561084032058716, 0.8467735648155212, 1.0843299627304077, 0.9904838800430298, 1.1489880084991455, 0.6560777425765991, 0.640468180179596, -0.1370062232017517, -0.6053445339202881, -0.8776052594184875, -0.25277677178382874, 0.055229999125003815, 0.03845840319991112, 0.19721171259880066, 0.7605409622192383, 0.6644863486289978, 0.4967767894268036, 0.5435949563980103, 0.9231716394424438, 0.997555136680603, 0.006530992221087217, -0.26065942645072937, -0.30092552304267883, -0.8477404713630676, -0.5272831320762634, -0.008995572105050087, 0.019476991146802902, 0.283253937959671, 0.576240599155426, 0.2782887816429138, -0.4369836747646332, -0.840373158454895, -0.6914231181144714, 0.6627565026283264, 0.8206270337104797, 0.6429601907730103, 0.6315196752548218, -0.6248758435249329, -0.5804386138916016, 0.04321280121803284, 0.024136248975992203, 0.3159412145614624, 0.23581452667713165, -1.2403757572174072, -2.330030679702759, -2.687861442565918, -1.0809252262115479, 0.8239548802375793, 0.7542526125907898, 1.150022268295288, 0.9897440075874329, -0.20397020876407623, -0.16902613639831543, 0.052010342478752136, 0.05247340351343155, 0.04986336827278137, -0.40142786502838135, -1.4523975849151611, -1.4442706108093262, -0.7522569298744202, 0.25015464425086975, 0.8931474089622498, 0.8873023986816406, 0.4654414653778076, -0.5212698578834534, -0.7771076560020447, -0.10634138435125351, 0.07558376342058182, 0.08140683174133301, 0.0799216628074646, -0.08624589443206787, -0.8025192618370056, -0.673921525478363, 0.09704775363206863, 0.5829671621322632, 0.05848562344908714, 0.05677599459886551, -0.23729100823402405, 0.20978447794914246, -0.27105024456977844, -0.10739671438932419, 0.042827803641557693, 0.032491981983184814, 0.14614030718803406, 0.4584587812423706, -0.29986047744750977, -1.0650066137313843, -1.7433595657348633, -1.8852516412734985, -1.4422911405563354, -0.22606094181537628, 0.4154150187969208, 0.4402983486652374, -0.00854443572461605, -0.18288454413414001, -0.008482879027724266, 0.03157518059015274, 0.8325570821762085, 0.8017507791519165, 0.24695146083831787, -0.7607554197311401, -1.5548015832901, -2.0865707397460938, -0.9171151518821716, 0.8098086714744568, 0.4959332048892975, 0.41301995515823364, 0.2627131938934326, -0.2919727861881256, 0.012151360511779785, 0.07384825497865677, 0.9202810525894165, 0.8099713325500488, 0.964204728603363, 0.7369373440742493, -0.23000803589820862, -0.3722316324710846, -0.021029463037848473, 0.7642472386360168, 0.6657267212867737, 0.512052059173584, -0.21727429330348969, -0.22349177300930023, 0.02728343941271305, 0.012648782692849636, 0.4768044352531433, 0.7284806370735168, 0.9273428320884705, 0.4034460783004761, 0.15348491072654724, 0.19006061553955078, 0.06146666035056114, 0.07962280511856079, 0.5146288275718689, 0.0718379095196724, -0.17827977240085602, -0.07993502169847488, 0.024392981082201004, 0.057838521897792816, 0.1442534476518631, 0.40689507126808167, 0.706876814365387, 0.43968328833580017, 0.5367024540901184, 0.7100153565406799, 0.33760929107666016, 0.0664573535323143, -0.06667457520961761, -0.30383482575416565, -0.04538578540086746, 0.06284476071596146, 0.052008915692567825, 0.03616128861904144, 0.04952836036682129, 0.06579761207103729, 0.09315384179353714, -0.0019085882231593132, 0.00020936185319442302, -0.044941019266843796, -0.04367941617965698, -0.05011378973722458, 0.025717977434396744, 0.02465113066136837, 0.050488729029893875, 0.0711779072880745, 0.01102307066321373, 0.04559503495693207, 0.020208409056067467, 0.03440249711275101, 0.027749964967370033, 0.06914670020341873, 0.04759090021252632, 0.025838475674390793, 0.05530938878655434, 0.037123240530490875, 0.017922302708029747, 0.006858496926724911, 0.07325399667024612, 0.0177815780043602, 0.04447421804070473, 0.04316292330622673, 0.06933042407035828, 0.07006149739027023, 0.006072559393942356, -0.0013713121879845858, -0.010999426245689392, 0.027200991287827492, -0.01695042848587036, -0.06325012445449829, 0.00885359849780798, -0.013042446225881577, 0.012370206415653229, 0.05892360210418701, 0.04373548924922943, 0.01909811981022358, 0.020661696791648865, 0.3453387916088104, 0.5049344897270203, 0.23770511150360107, 0.45404165983200073, 0.07420304417610168, -0.09590069204568863, -0.11611227691173553, -0.5917394757270813, -0.8549065589904785, -0.6065800786018372, -0.27346566319465637, 0.0720856785774231, 0.07144137471914291, 0.3627348244190216, 0.620005190372467, -0.21855315566062927, 0.19827206432819366, 0.26332902908325195, -0.06387899070978165, -0.07649891078472137, 0.016219578683376312, 0.0857391282916069, 0.15538185834884644, -0.2633836269378662, -0.7717768549919128, 0.006604402791708708, 0.02764981985092163, 0.5950850248336792, 0.4270401895046234, -0.23214595019817352, -0.6722646951675415, -1.5132585763931274, -1.0774040222167969, 0.22734162211418152, 0.8035545945167542, 0.7079930305480957, 1.0439505577087402, 1.1644384860992432, -0.8732550144195557, -0.010981953702867031, -0.012155157513916492, 0.5964688062667847, -0.014160319231450558, -1.6823574304580688, -1.5442554950714111, -2.3610827922821045, -1.4981328248977661, 0.49119529128074646, 0.4207247495651245, 0.7675613164901733, 0.4324387311935425, 0.002046693814918399, -0.4943651556968689, 0.06253015995025635, 0.01749207265675068, 0.06483159959316254, -0.6687734127044678, -0.9923347234725952, -0.7453240156173706, -1.0235469341278076, -0.7191298604011536, 0.03196515887975693, -0.5446840524673462, -0.5494441986083984, -0.6024227142333984, -1.1455719470977783, -0.2726590037345886, 0.015867894515395164, 0.07251134514808655, 0.07193508744239807, -0.5832502841949463, -0.8211870789527893, -0.10099761933088303, 0.08867499232292175, -0.40006405115127563, -0.5338647365570068, -0.9293206334114075, 0.14982442557811737, -0.523033618927002, -0.5228530764579773, -0.39040982723236084, -0.0286836177110672, 0.08567386865615845, 0.47302132844924927, -0.15349353849887848, -0.8917102217674255, -1.0764654874801636, -1.109955072402954, -1.4715704917907715, -0.43469369411468506, -0.25668802857398987, 0.34912219643592834, 0.44839054346084595, 0.7247287034988403, -0.1499045193195343, -0.000985606573522091, 0.06955774873495102, 1.434035062789917, 0.5236819982528687, -0.9329769015312195, -2.145519495010376, -2.404271364212036, -2.336914300918579, -0.8511914610862732, 0.23568430542945862, 0.6101248860359192, 0.8196542859077454, 0.81354820728302, -0.5526779294013977, 0.026105720549821854, 0.01365173514932394, 1.4542258977890015, 0.2586504817008972, -0.27218231558799744, -0.907610297203064, -1.2531825304031372, -1.7753058671951294, -0.7440107464790344, 0.24542726576328278, 0.6444268226623535, 0.44995349645614624, 0.1985348016023636, -0.41048869490623474, -0.017577726393938065, 0.04324127361178398, 0.8836474418640137, 0.5174959301948547, 0.07682567089796066, 0.2778962552547455, -0.5632797479629517, -0.65375155210495, -0.40754246711730957, -0.1178375855088234, -0.1938321441411972, 0.09556768834590912, -0.26094508171081543, -0.18707303702831268, 0.051821425557136536, 0.055670831352472305, 0.22917881608009338, 0.7445841431617737, 1.0103497505187988, 0.17861509323120117, -0.050778940320014954, -0.3348822593688965, -0.2914956510066986, -0.17860989272594452, 0.04151858016848564, -0.6244667768478394, -0.13182894885540009, 0.006919582840055227, 0.058058157563209534, 0.004132693633437157, 0.037520311772823334, 0.06737350672483444, 0.08202667534351349, -0.027851467952132225, -0.012380409054458141, -0.04763380065560341, -0.06486808508634567, -0.09500369429588318, -0.04380548372864723, -0.00747552327811718, 0.058195922523736954, 0.07292912155389786, 0.04897372052073479, 0.05431652069091797, 0.0051877168007195, 0.0639265775680542, 0.07114201039075851, 0.04829538241028786, 0.07491045445203781, 0.04935135319828987, 0.05749412253499031, 0.05294237285852432, 0.043981119990348816, 0.07472728937864304, 0.04699365422129631, 0.055966008454561234, 0.06480196863412857, 0.0055062370374798775, 0.028599686920642853, 0.013446868397295475, -0.021168513223528862, 0.010944034904241562, -0.09387193620204926, -0.16219164431095123, -0.020639881491661072, 0.09290959686040878, 0.062250569462776184, 0.10666359215974808, 0.11563944071531296, 0.06725611537694931, 0.01020269189029932, 0.045599695295095444, 0.05211421847343445, -0.1279233992099762, -0.1858523190021515, -0.4513775706291199, -0.5177613496780396, -0.7230142951011658, -0.22007416188716888, -0.12656892836093903, 0.3203299641609192, 0.3268733024597168, 0.284300833940506, 0.19117149710655212, 0.06105247884988785, 0.046998992562294006, -0.020146487280726433, -0.3601171672344208, -0.5359032154083252, -0.5068285465240479, -1.0240697860717773, -0.9309727549552917, -1.0822917222976685, -0.554144561290741, -0.06709736585617065, -0.21512234210968018, 0.2381744235754013, 0.18914365768432617, 0.019430095329880714, 0.057211462408304214, -0.09154004603624344, -0.496935099363327, -0.3152509033679962, 0.020102964714169502, 0.4170880615711212, 0.2885710299015045, -1.3198349475860596, -0.692498505115509, -0.3011147677898407, -0.20910367369651794, 0.171678364276886, 0.2450317144393921, 0.032058652490377426, 0.06902670115232468, -0.024808363988995552, -0.034668177366256714, 0.43749621510505676, 1.1386054754257202, 1.2641971111297607, -0.1865522861480713, -2.141188383102417, -0.997442364692688, -0.38758012652397156, 0.2551771402359009, 0.5303924679756165, 0.14171437919139862, 0.024909384548664093, 0.03249097615480423, 0.06479192525148392, 0.17080171406269073, 0.701657235622406, 0.6764000058174133, -0.23851443827152252, -1.7968897819519043, -1.7186633348464966, -0.33805719017982483, 0.41916927695274353, 0.7898047566413879, 0.41666221618652344, 0.11313363909721375, 0.009571094065904617, 0.0050887977704405785, -0.017864452674984932, 0.17450129985809326, 0.5719932913780212, 0.5265123248100281, 0.1301809698343277, -1.1280170679092407, -0.32509946823120117, 0.20740018784999847, 0.19744352996349335, -0.10181530565023422, 0.1402467042207718, 0.10139869153499603, 0.07215441018342972, 0.02280939184129238, -0.11323960870504379, -0.07279036194086075, 0.4695967137813568, 1.0694504976272583, 0.8820673823356628, 0.543836236000061, 0.4872090220451355, -0.35797762870788574, -0.39541128277778625, -0.2529980540275574, -0.24099065363407135, 0.16233722865581512, 0.017086047679185867, 0.05728986859321594, -0.3164229393005371, -0.4231383502483368, -0.12705552577972412, 0.585618793964386, 1.3223906755447388, 1.410989761352539, 0.3763618767261505, -0.6958246231079102, -0.6677746772766113, -0.6582819223403931, 0.06795082241296768, 0.1394398808479309, 0.027674373239278793, 0.04223591089248657, -0.2767089307308197, -0.5420761108398438, -0.6106094121932983, -0.22608798742294312, -0.09379180520772934, 0.19565288722515106, -0.3179926574230194, -0.3789032995700836, -0.09497103840112686, 0.13832810521125793, 0.31678634881973267, 0.1131211593747139, 0.014680411666631699, 0.03702368959784508, -0.1598690003156662, -0.38302358984947205, -0.6185193657875061, -0.6814501881599426, -1.2615735530853271, -0.5203746557235718, -0.405579537153244, 0.11274456977844238, 0.3956710696220398, 0.4549503028392792, 0.16978417336940765, 0.06293788552284241, 0.06508239358663559, 0.012148156762123108, -0.006276038009673357, -0.23269329965114594, -0.5899877548217773, -0.6519553065299988, -0.5525869131088257, -0.4940294623374939, -0.06050768867135048, 0.09780624508857727, 0.3632480800151825, 0.06670291721820831, 0.013775750063359737, 0.06898026168346405, 0.06844206154346466, 0.039295438677072525, 0.03169303759932518, 0.006128157954663038, 0.049338653683662415, 0.02261010743677616, 0.05683517083525658, 0.05724400281906128, 0.07073225826025009, 0.07149314135313034, 0.018923962488770485, 0.03681495413184166, 0.0603163056075573, 0.015021533705294132, 0.013233534060418606], [-0.01400662213563919, 0.007801525294780731, -0.0006767829181626439, 0.007107681594789028, -0.05548038333654404, -0.11734363436698914, -0.16458265483379364, -0.058808449655771255, -0.0654766857624054, 0.01180879957973957, -0.023416653275489807, -0.0033561375457793474, 0.007021658588200808, -0.01185254193842411, -0.005374343134462833, -0.009120129980146885, -0.04977263882756233, -0.09628527611494064, -0.4097878932952881, -0.6900550127029419, -1.0639102458953857, -1.0348650217056274, -0.5628702640533447, -0.07495511323213577, -0.09744656831026077, -0.036733996123075485, -0.057079870253801346, 0.01700662076473236, 0.0015433303778991103, 0.03406456485390663, 0.19819390773773193, 0.38956978917121887, 0.4361844062805176, 0.46679335832595825, 0.4996275305747986, 1.0124285221099854, 1.2350242137908936, 1.3406782150268555, 1.0903981924057007, 0.9921131134033203, 0.6067302227020264, -0.047158002853393555, -0.020129946991801262, 0.04069819673895836, 0.08574593812227249, 0.3805994987487793, 0.13445298373699188, -0.17975416779518127, -1.0414671897888184, -1.8323355913162231, -1.6358656883239746, -0.13706527650356293, 0.7950530052185059, 1.1105061769485474, 0.7159090638160706, 0.11761767417192459, -0.05747063085436821, -0.18727776408195496, -0.2698935866355896, -0.27532950043678284, -0.4882057309150696, -0.6578601598739624, -1.1193370819091797, -1.9381449222564697, -1.8664448261260986, 0.07756654173135757, 0.5426605939865112, 0.14730121195316315, -0.0960191935300827, -0.3114355504512787, -0.023989278823137283, -0.12043755501508713, -0.34883826971054077, -0.05184851959347725, 0.13917487859725952, 0.3807014524936676, -0.03242168575525284, -0.6129180788993835, -0.41389426589012146, -0.16110219061374664, -0.19061297178268433, -0.3979981541633606, -0.6931043267250061, -0.1837492287158966, 0.011389677412807941, -0.007029194384813309, 0.14440856873989105, 0.8488025069236755, 0.6166674494743347, 0.4669933617115021, 0.5569604635238647, -0.521105945110321, -0.20608456432819366, 0.3514006733894348, 0.5484604239463806, 0.5525834560394287, -0.10101673007011414, 0.05978541448712349, 0.013239036314189434, -0.01161218248307705, 0.33333492279052734, 0.5633875727653503, 0.5641760230064392, 0.7146774530410767, 0.010539647191762924, -0.13939982652664185, 0.4815896153450012, 0.49716442823410034, 0.9669039249420166, 0.3736574947834015, 0.09672541171312332, 0.008512882515788078, -0.0002770962018985301, -0.15256741642951965, 0.17133650183677673, -0.04200452193617821, -0.2766931653022766, 0.527979850769043, 0.4481019079685211, 0.4540081322193146, -0.14418773353099823, -0.0853472352027893, 0.3576577603816986, 0.02342366613447666, -0.25424739718437195, -0.07021722942590714, 0.01694399304687977, -0.2227606326341629, -0.5574512481689453, -0.5080690979957581, -0.3621945381164551, -0.08820094913244247, -0.29591622948646545, -0.17277273535728455, -1.0331233739852905, -0.9431807994842529, -0.7138076424598694, -0.7053183317184448, -0.4294658899307251, 0.017962364479899406, -0.024482082575559616, -0.2913271486759186, -0.8819873332977295, -1.4428426027297974, -1.3675858974456787, -1.6058822870254517, -1.2677289247512817, -1.2143752574920654, -1.085213541984558, -1.2672622203826904, -0.9462937116622925, -0.3986426889896393, -0.09750493615865707, -0.00012647558469325304, 0.04165056720376015, -0.04769887402653694, -0.4827745854854584, -0.5671153664588928, -0.8054198026657104, -1.3109627962112427, -1.0921072959899902, -1.2215477228164673, -0.22402259707450867, -0.14909948408603668, 0.48164305090904236, 0.38358941674232483, 0.041111547499895096, -0.012795870192348957, 0.013571630232036114, -0.015961378812789917, -0.04907495528459549, -0.2881913185119629, 0.017983488738536835, -0.025881575420498848, 0.008195147849619389, -0.031384631991386414, 0.24450038373470306, 0.0005335843306966126, 0.4692690372467041, 0.18592864274978638, -0.0065282294526696205, 0.017413729801774025, 0.007045712787657976, 0.03417324647307396, -0.04086967185139656, -0.15389317274093628, -0.38676828145980835, -0.22719940543174744, -0.44462066888809204, -0.4791187345981598, -0.5810105800628662, -0.36722826957702637, -0.193379744887352, -0.012953904457390308, -0.029263317584991455, -0.02457580715417862, 0.037346091121435165, -0.019726794213056564, -0.011266237124800682, 0.03211231902241707, -0.06037895753979683, 0.014551210217177868, -0.12678629159927368, 0.023722782731056213, 0.011488920077681541, -0.03308804705739021, -0.04074307903647423, -0.0370921790599823, -0.0011451138416305184, -0.016534676775336266, -0.010932457633316517, 0.019102558493614197, -0.02591167576611042, -0.022249653935432434, -0.15324509143829346, -0.3851490318775177, -0.4645712077617645, -0.7267296314239502, -0.6350715756416321, -0.32204827666282654, -0.18417766690254211, 0.021781176328659058, -0.044568970799446106, 0.005758566316217184, -0.014687849208712578, 0.026517819613218307, 0.01239576656371355, 0.13393285870552063, 0.04312751814723015, -0.16506849229335785, -0.6526057124137878, -1.0168403387069702, -0.6283875107765198, 0.007633912842720747, 0.20067906379699707, 0.45678484439849854, 0.43721964955329895, -0.06187551096081734, 0.017252206802368164, -0.003759110812097788, 0.16930821537971497, 0.15424050390720367, -0.07820694148540497, -0.6298089623451233, -1.6277981996536255, -3.020615339279175, -2.04768705368042, -1.0091487169265747, -0.469470739364624, 0.6487044095993042, 0.3603479862213135, 0.10551070421934128, -0.022411368787288666, -0.08726027607917786, -0.10149198025465012, -0.1768881380558014, -0.2893698513507843, -0.9201530814170837, -1.1834126710891724, -1.953528642654419, -1.2320505380630493, -0.7941854596138, -0.703365683555603, 0.27022168040275574, -0.075409434735775, -0.21512290835380554, -0.03935672715306282, -0.24394051730632782, -0.19034826755523682, -0.06834859400987625, 0.16656999289989471, 0.3616219162940979, -0.2864759862422943, -1.460593819618225, 0.23569634556770325, -0.35079577565193176, -0.2945959270000458, -0.1978253871202469, -0.38353532552719116, -0.05050916597247124, -0.018922429531812668, -0.006620020139962435, 0.08766406029462814, 0.5297191739082336, 1.167745590209961, 1.7379982471466064, 0.9832361936569214, 0.0702856108546257, 1.4144339561462402, 0.2547662854194641, 0.4706043004989624, -0.11395741254091263, -0.005529311951249838, 0.03671907261013985, 0.005030932370573282, 0.019134368747472763, 0.550074577331543, 0.7560820579528809, 0.6494823098182678, 0.9329978227615356, 0.511078417301178, 0.6706987023353577, 1.7099475860595703, 0.9993779063224792, 1.1100994348526, 0.07461599260568619, 0.12784360349178314, 0.026021907106041908, -0.024168170988559723, -0.06817813217639923, 0.12399554252624512, 0.3648233115673065, 0.6672793626785278, 0.6972744464874268, 0.7726434469223022, 1.9279322624206543, 1.4869565963745117, 0.5279634594917297, 0.30232375860214233, -0.2443433552980423, -0.24777556955814362, -0.008113060146570206, -0.02055516093969345, -0.3692413866519928, -0.3223263621330261, -0.5862864255905151, -1.1859517097473145, -1.653656244277954, -0.48917490243911743, 0.6807157397270203, -0.1292290836572647, -0.8876425623893738, -0.5797225832939148, -0.5486912131309509, -0.29001757502555847, 0.012081337161362171, -0.025426214560866356, -0.17909453809261322, -0.6037527918815613, -1.361484408378601, -2.2034313678741455, -1.6503605842590332, -0.6248793005943298, -0.1605055332183838, -0.16909225285053253, -0.8552066087722778, -0.6559492349624634, -0.32852649688720703, -0.026212915778160095, -0.026522010564804077, -0.027713827788829803, -0.0295470729470253, -0.3849443793296814, -0.7904297113418579, -0.4809947907924652, -0.28782951831817627, -0.5147424936294556, -0.6507519483566284, -0.33034250140190125, -0.184437096118927, 0.22972771525382996, 0.20614850521087646, 0.015787398442626, -0.01888350397348404, -0.013971487060189247, 0.021099520847201347, -0.06478197127580643, -0.15151141583919525, 0.019775304943323135, -0.20908550918102264, -0.35653597116470337, -0.4863656461238861, -0.3923877775669098, -0.08238924294710159, 0.26026612520217896, 0.0898810550570488, 0.019339365884661674, -0.029936334118247032, -0.0035481713712215424, -0.02544640563428402, -0.023582439869642258, -0.060168325901031494, -0.23420275747776031, -0.19095955789089203, -0.31546473503112793, -0.2976754605770111, -0.3897295594215393, -0.1927037537097931, -0.08207257091999054, -0.02377481199800968, 0.009808998554944992, 0.027292225509881973, 0.010069429874420166, -0.006780806928873062, 0.024415308609604836, 0.005779684521257877, -0.02336706779897213, 0.011373301036655903, 0.024473268538713455, -0.010965502820909023, 0.03783009201288223, -0.008825763128697872, -0.012999901548027992, -0.025674348697066307, 0.0005422772374004126, -0.02184908650815487, -0.0255767572671175, -0.019317392259836197, 0.0038231052458286285, -0.07500158995389938, -0.23893152177333832, -0.6050103902816772, -0.7497093081474304, -0.6819525361061096, -0.3902747929096222, -0.17142531275749207, -0.11588587611913681, -0.13412562012672424, -0.051532432436943054, -0.028241300955414772, 0.026706868782639503, -0.017363648861646652, 0.008517390117049217, -0.16581833362579346, -0.20563967525959015, -0.2140517681837082, -0.5466039180755615, 0.35155409574508667, 0.2894497215747833, 0.8560957908630371, 0.6045442819595337, 0.5503615140914917, 0.37523308396339417, -0.005757352337241173, -3.123825808870606e-05, 0.019734395667910576, 0.22123053669929504, 0.5646098256111145, 0.6932067275047302, 1.0381290912628174, 0.8721228241920471, 0.825485348701477, 0.9075661897659302, 0.9924041628837585, 1.13623046875, 1.3445770740509033, 0.8969681859016418, 0.1728980392217636, -0.02835976704955101, -0.16335484385490417, 0.1999325156211853, 0.6096088290214539, 0.740215003490448, 1.2735960483551025, 1.0869159698486328, 1.2354815006256104, 1.0961229801177979, 0.8517410755157471, 0.8233084678649902, 0.5670799016952515, 0.5924999117851257, -0.13209177553653717, -0.052691053599119186, -0.24727468192577362, 0.14389382302761078, 0.35986825823783875, 0.8735367655754089, 1.1173502206802368, 1.3892886638641357, 1.3494638204574585, 1.3368929624557495, 0.8290353417396545, 0.20885735750198364, 0.46346431970596313, -0.5065532922744751, -0.19071142375469208, -0.009284552186727524, 0.0038819906767457724, 0.23423147201538086, 0.8553571105003357, 0.7359220385551453, 0.9015170335769653, 1.0021507740020752, 0.6876928806304932, 1.2894861698150635, 0.4268428385257721, -0.38202327489852905, 0.0229010209441185, -0.4421617388725281, -0.005064376164227724, -0.006845942232757807, -0.06172541528940201, 0.36180028319358826, 0.3992461860179901, -0.12708978354930878, -0.1756575107574463, -0.49348995089530945, -0.225763738155365, 0.6190050840377808, 0.254802405834198, 0.5918102860450745, 0.67022305727005, -0.06220436468720436, -0.060229796916246414, -0.004339918959885836, -0.257929265499115, 0.578382134437561, 0.16944575309753418, -0.2969602346420288, -0.2646505832672119, -0.5362390279769897, -0.3939872086048126, -0.061028219759464264, 0.16589172184467316, 0.11992951482534409, 0.0038807932287454605, 0.07290058583021164, -0.05208560824394226, -0.012339931912720203, -0.6348900198936462, -0.19785508513450623, -0.20454464852809906, -0.4003066122531891, -0.2876600921154022, 0.0579816959798336, 0.3132648766040802, 0.15153507888317108, -0.3552190065383911, -0.3705372214317322, -0.9687964916229248, -0.5292400121688843, -0.024284934625029564, 0.0064156074076890945, -0.3332985043525696, -0.8036131262779236, -1.1448068618774414, -0.9375408291816711, -0.48669198155403137, 0.4636934697628021, 0.5367876291275024, 0.18689842522144318, -0.0743153840303421, -0.8110130429267883, -0.6172058582305908, -0.10810710489749908, -0.020379547029733658, -0.0037964722141623497, -0.09769001603126526, -0.6260132193565369, -0.43015411496162415, -0.339705228805542, 0.16728560626506805, 0.5933801531791687, 0.6266590356826782, 0.6864693760871887, 0.22069698572158813, -0.009195634163916111, 0.34913313388824463, 0.07613691687583923, 0.01310719083994627, -0.029746972024440765, 0.013325571082532406, -0.05878467857837677, -0.2003292292356491, 0.4770113229751587, 0.5394913554191589, 0.5934441685676575, 0.8801892995834351, 0.48723459243774414, 0.29751724004745483, 0.4323476552963257, 0.24083705246448517, -0.024222780019044876, -0.015417912974953651, 0.03426951542496681, 0.0190537478774786, 0.004373942501842976, -0.15611551702022552, -0.4302283227443695, -0.3769494891166687, -0.636864423751831, -0.6307163834571838, -0.7136459350585938, -0.46521446108818054, -0.23589076101779938, -0.013335281051695347, -0.0036454591900110245, 0.02255459874868393, 0.007139243185520172, -0.021285219117999077, 0.017646456137299538, -0.006346459500491619, 0.013427278026938438, 0.02313411422073841, 0.06111735478043556, 0.0012310786405578256, 0.05019216611981392, 0.034763604402542114, 0.025495590642094612, -0.01480034925043583, 0.0023633530363440514, -0.004188731778413057, 0.03290339931845665, -0.013584151864051819, 0.020854385569691658, 0.031590551137924194, 0.1405840963125229, 0.2268364280462265, 0.35149985551834106, 0.35221347212791443, 0.16568835079669952, 0.06352292746305466, 0.007970299571752548, 0.03127194568514824, -0.002491395454853773, 0.013850712217390537, 0.0035798451863229275, -0.013842747546732426, -0.05587029084563255, -0.06167415902018547, -0.002076926873996854, 0.04906361550092697, 0.15327486395835876, -0.02381274290382862, -0.33146896958351135, -0.29937270283699036, -0.4440617859363556, -0.3429189920425415, -0.13386914134025574, 0.03985664248466492, 0.0011178274871781468, 0.007087973412126303, -0.07342411577701569, -0.08185168355703354, 0.1446181684732437, 0.2314554750919342, 1.117226243019104, 1.730732798576355, 1.1613677740097046, 0.19363543391227722, -0.24214263260364532, -0.5296323895454407, -0.176304891705513, -0.049367763102054596, -0.01591809093952179, 0.020154014229774475, 0.1421160250902176, 0.15345776081085205, 0.39210599660873413, 0.5080466866493225, 0.7353642582893372, 2.3807291984558105, 0.5969581604003906, 0.1987425535917282, 0.22478072345256805, 0.07610565423965454, 0.2518492639064789, 0.05775930732488632, 0.018277693539857864, 0.08944927901029587, 0.14226585626602173, -0.005321332719177008, -0.5366787314414978, -1.1453229188919067, 0.4326056241989136, 2.061084270477295, -0.8873748183250427, -0.004311881493777037, 0.39979520440101624, 0.33108633756637573, 0.2906288504600525, -0.009725892916321754, 0.039120402187108994, 0.03618139401078224, -0.05150498077273369, -0.9260854721069336, -1.4690765142440796, -1.5641640424728394, 0.33312520384788513, 0.6358113288879395, -1.4540904760360718, -0.4965069591999054, -0.13465112447738647, 0.12913678586483002, 0.10747270286083221, -0.02501371130347252, 0.014021046459674835, 0.032714031636714935, -0.1956215351819992, -1.0192270278930664, -1.6791505813598633, -1.2858269214630127, -0.2854937016963959, -0.3873755931854248, -1.7970426082611084, -1.1949609518051147, -0.18522050976753235, 0.03331230208277702, 0.10878677666187286, -0.010465727187693119, -0.013706550002098083, 0.06777439266443253, 0.08905210345983505, -0.6861109733581543, -1.1648790836334229, -0.8633562326431274, -0.4462113082408905, -1.0689212083816528, -1.2606136798858643, -0.3640429973602295, 0.0026940705720335245, 0.25982218980789185, 0.18542993068695068, 0.05083972588181496, 0.03144063428044319, 0.05886095389723778, 0.3246854543685913, 0.18126912415027618, 0.26082009077072144, 0.24760596454143524, 0.1838855743408203, 0.016715696081519127, 0.14647801220417023, 0.44613412022590637, 0.4088076651096344, 0.2911355495452881, 0.1614338755607605, 0.026886655017733574, 0.0010390753159299493, 0.1011272743344307, 0.3938830494880676, 0.850316047668457, 1.0838757753372192, 1.1081647872924805, 1.052672266960144, 0.6099182367324829, 0.5697829723358154, 0.21789084374904633, 0.13933828473091125, 0.05698510259389877, 0.03990606218576431, 0.029156628996133804, -0.01447779219597578, 0.04789315536618233, 0.1976815164089203, 0.34554240107536316, 0.4978737533092499, 0.807661235332489, 0.9805909395217896, 0.6922898888587952, 0.2646517753601074, -0.1750732809305191, -0.18705682456493378, -0.1319236010313034, -0.02232765592634678, -0.023463880643248558, 0.03417909890413284, 0.014052028767764568, 0.007472545839846134, 0.04102742299437523, 0.30112090706825256, 0.09284241497516632, 0.5716661214828491, 0.4334802031517029, 0.20827354490756989, 0.060722365975379944, -0.03378115966916084, -0.07418584078550339, 0.02905554696917534, 0.030153630301356316, 0.006219788454473019, 0.0007879120530560613, -0.0022394710686057806, 0.045490507036447525, 0.1598472148180008, 0.15046027302742004, 0.17112380266189575, 0.20967653393745422, 0.24016253650188446, 0.1017569825053215, 0.025129325687885284, 0.0008000344969332218, -0.01719815656542778, 0.00779624842107296], [0.09875178337097168, 0.03355599567294121, 0.05831276625394821, 0.04215121269226074, 0.071148581802845, 0.05688503384590149, 0.09102481603622437, 0.06404426693916321, 0.028173992410302162, 0.09605507552623749, 0.05517519265413284, 0.03940689563751221, 0.048046112060546875, 0.03698384389281273, 0.10360191762447357, 0.09829052537679672, 0.05847414210438728, -0.045097075402736664, -0.14608976244926453, -0.4220225214958191, -0.4959651827812195, -0.40137848258018494, -0.2841116786003113, -0.09207780659198761, -0.2978382110595703, -0.06661380082368851, -0.05042603611946106, 0.07596948742866516, 0.035387761890888214, 0.024829253554344177, -0.24381472170352936, -0.36395177245140076, -0.10081373900175095, -0.14250785112380981, -0.6621810793876648, -0.5972705483436584, -0.5039215683937073, 0.3822415769100189, 0.48170411586761475, 0.6313698887825012, 0.5584637522697449, 0.1668216586112976, 0.05545954406261444, -0.25554078817367554, -0.865246593952179, -0.9329347014427185, -0.8315122127532959, -1.0214697122573853, -0.8882827162742615, -0.7671120166778564, -0.5670466423034668, 0.2514720857143402, 0.8025867342948914, 1.1187695264816284, 1.86239755153656, 0.590234100818634, 0.08498350530862808, -0.3830634355545044, -0.683059573173523, -0.9752637147903442, -0.5532770752906799, -0.2795781195163727, -0.5338700413703918, -0.5843613743782043, -0.7573964595794678, -0.3100598454475403, 0.0067252120934426785, 1.1009775400161743, 2.6899237632751465, 0.9137500524520874, -0.0008536584791727364, -0.18112894892692566, -0.40074974298477173, -0.15270596742630005, -0.2777795195579529, -0.11868742853403091, 0.6443718671798706, -0.14283892512321472, -0.6855332851409912, -0.5534143447875977, -1.331864595413208, -0.7504355907440186, 1.3223519325256348, 0.5872638821601868, 0.02566510997712612, -0.04481690749526024, -0.265805184841156, -0.3583318591117859, -0.12869341671466827, 0.5857567191123962, 0.7462812066078186, 0.3656194508075714, -0.5744163393974304, -0.8455353379249573, -0.94589763879776, -1.1977100372314453, -0.4540940225124359, 0.12747715413570404, 0.09851181507110596, -0.11811823397874832, -0.3380517363548279, -0.2307863086462021, -0.04893781244754791, 0.307031512260437, 0.24347515404224396, -0.13087305426597595, -0.5455938577651978, -0.7018914222717285, -0.8381805419921875, -0.49300873279571533, -0.29394611716270447, 0.06630705296993256, 0.042345285415649414, -0.16280540823936462, 0.472796767950058, 0.6408089399337769, 0.23827625811100006, -0.3562348186969757, -0.16559717059135437, -0.505466878414154, -0.514922559261322, -0.47708582878112793, -0.6972672939300537, -0.4920825958251953, -0.053562309592962265, -0.0515446737408638, 0.08281312137842178, -0.14094087481498718, 0.8085664510726929, 1.192623496055603, 0.432824969291687, 0.0361381396651268, -0.11718298494815826, 0.09949395060539246, 0.22480648756027222, -0.3834495544433594, -0.24917468428611755, -0.19302360713481903, 0.037797536700963974, 0.029709573835134506, 0.0608086958527565, -0.1534833014011383, 0.48137563467025757, 1.5847121477127075, 1.1440098285675049, 0.5483698844909668, 0.2309446930885315, 0.1663515418767929, 0.186970517039299, 0.230250284075737, 0.08437695354223251, 0.5796689391136169, 0.2296723574399948, 0.02852988801896572, 0.07583925127983093, -0.043493177741765976, -0.18732474744319916, 0.18061354756355286, 0.8237992525100708, 0.6739594340324402, 0.09353132545948029, -0.10301847755908966, -0.05141327530145645, 0.08206994086503983, 0.34089428186416626, 0.3508414030075073, 0.05051274970173836, 0.04333944991230965, 0.05062146484851837, 0.0620584562420845, -0.07698842138051987, 0.015611757524311543, 0.26495683193206787, 0.5319740176200867, 0.3928335905075073, 0.37286511063575745, -0.07189685106277466, -0.17368575930595398, -0.05261931195855141, 0.07354075461626053, 0.025374891236424446, 0.04311177507042885, 0.03877979516983032, 0.07708439230918884, 0.02555304579436779, -0.08158625662326813, -0.010941383428871632, 0.049567628651857376, -0.03544213995337486, -0.002955502597615123, -0.09798358380794525, -0.08706975728273392, 0.04024253040552139, 0.07516302913427353, 0.10471046715974808, 0.0790538340806961, 0.08436170220375061, 0.06080484762787819, 0.06077791377902031, 0.04751984402537346, 0.08031581342220306, 0.03491590917110443, 0.07652182132005692, 0.0545089989900589, 0.02839295007288456, 0.08280446380376816, 0.07992476224899292, 0.05258394032716751, 0.06709610670804977, 0.10104624181985855, 0.0867842584848404, 0.039182860404253006, 0.09184538573026657, 0.05915617197751999, 0.05245216563344002, -0.1673717200756073, -0.34901323914527893, -0.2725917100906372, -0.15150223672389984, 0.019651753827929497, -0.0013851635158061981, -0.057902757078409195, -0.02219952829182148, 0.09112190455198288, 0.09380773454904556, 0.11083163321018219, -0.05479589104652405, -0.4100015461444855, -0.5017889142036438, -0.22693118453025818, -0.3112052381038666, -0.1444208174943924, 0.0782400518655777, 0.39063161611557007, 0.40307098627090454, 0.6409452557563782, 0.4752129316329956, 0.07760987430810928, 0.05849010869860649, 0.0012210604036226869, -0.39812231063842773, -0.3145551383495331, 0.3347126543521881, 0.7084097266197205, 0.45578303933143616, 0.4334627091884613, 0.8329376578330994, 1.1270020008087158, 1.2650718688964844, 1.4991904497146606, 1.312319040298462, 0.3131692707538605, 0.05195286497473717, -0.16879399120807648, -0.33675819635391235, -0.044639792293310165, 0.48137366771698, 0.8342897891998291, 0.09259055554866791, -0.8138846755027771, -0.5573445558547974, 0.28236451745033264, 0.7566115856170654, 1.5385715961456299, 2.399545431137085, 0.5347937345504761, 0.03353780135512352, -0.11473380774259567, -0.13002142310142517, 0.686956524848938, 1.166573166847229, 1.0984927415847778, 0.5463815927505493, -0.27081337571144104, -0.85084468126297, -1.2700546979904175, -1.5506702661514282, -0.8396961688995361, 0.8960968852043152, 0.35613566637039185, 0.08047107607126236, 0.0003279555821791291, 0.14192837476730347, 0.6805035471916199, 0.5732523798942566, 1.2626419067382812, 0.9653686285018921, -0.12788137793540955, -0.9775189757347107, -0.9747771620750427, -1.3481885194778442, -1.2757365703582764, -0.16692791879177094, 0.10240943729877472, 0.08095300942659378, 0.04565402865409851, -0.2553631067276001, 0.17698203027248383, 0.5704450011253357, 0.6191503405570984, -0.09811688959598541, -1.1005538702011108, -1.0810511112213135, -0.4556168019771576, -0.6560888886451721, -0.6685176491737366, -0.19445708394050598, 0.06560871750116348, 0.06726338714361191, -0.0028278811369091272, -0.37997010350227356, -0.34872710704803467, -0.7122383713722229, -1.296116828918457, -1.4743032455444336, -1.2766637802124023, -0.6240977048873901, 0.3888247609138489, 0.13524310290813446, -0.3623989224433899, -0.046578869223594666, 0.016111785545945168, 0.06380613893270493, -0.07739624381065369, 0.2840290665626526, 0.18522559106349945, -0.36835604906082153, -0.3756066858768463, -0.5423476099967957, -0.7520347833633423, -0.2261633425951004, 0.26186832785606384, 0.40091314911842346, 0.035903435200452805, 0.006753799971193075, 0.07110988348722458, 0.037039246410131454, -0.049942925572395325, 0.17408820986747742, 0.3439309000968933, 0.5832069516181946, 0.24769346415996552, 0.24219126999378204, -0.002118392614647746, 0.272793710231781, 0.5856626629829407, 0.45355868339538574, 0.5319539904594421, 0.19427691400051117, 0.04986567795276642, 0.07918056100606918, -0.05820459872484207, -0.24580176174640656, -0.03525092080235481, 0.33150503039360046, 0.2588568329811096, 0.2649475336074829, 0.6094309091567993, 0.7331141233444214, 0.6345399022102356, 0.34292760491371155, 0.2383102923631668, 0.0993344634771347, 0.040752112865448, 0.09354550391435623, 0.07033848762512207, -0.01780041493475437, 0.0472111701965332, 0.17127923667430878, 0.29804062843322754, 0.34778639674186707, 0.3648257851600647, -0.037274621427059174, -0.128299281001091, 0.016218744218349457, 0.11321475356817245, 0.09266136586666107, 0.07678494602441788, 0.06151505559682846, 0.08700821548700333, 0.08260612189769745, 0.02624194696545601, 0.0410933718085289, 0.04999465122818947, 0.02805761620402336, -0.006864872295409441, 0.028352711349725723, -0.022345885634422302, 0.0519866980612278, 0.09846387058496475, 0.08939256519079208, 0.07686999440193176, 0.06043488159775734, 0.04789486154913902, 0.10616930574178696, 0.05682302266359329, 0.09858755767345428, 0.08916912227869034, 0.10456336289644241, 0.072479747235775, 0.03914392739534378, 0.058818329125642776, 0.08315188437700272, 0.08271961659193039, 0.09669405966997147, 0.0882839486002922, 0.06678508222103119, 0.06403274834156036, 0.08597004413604736, 0.041272006928920746, 0.059983544051647186, 0.020169125869870186, -0.1273113191127777, -0.22040648758411407, -0.06744260340929031, 0.08405015617609024, -0.026793062686920166, -0.02947033755481243, 0.030090026557445526, 0.044234443455934525, 0.07348465174436569, 0.06242653727531433, -0.11144278198480606, -0.12483923882246017, -0.3212619125843048, -0.13267581164836884, -0.7681722640991211, -0.8294007182121277, -0.26876118779182434, -0.07710332423448563, 0.04731939733028412, 0.5065876245498657, 0.2713570296764374, 0.08911944925785065, 0.044307101517915726, -0.09599879384040833, -0.30914878845214844, 0.13454559445381165, -0.01152890082448721, -0.25909072160720825, -0.6427745819091797, -1.1294251680374146, -1.2039754390716553, -0.6736288070678711, -0.4440661370754242, -0.23797601461410522, 1.125825047492981, 0.37736958265304565, 0.036817148327827454, -0.35867559909820557, -0.14684948325157166, 0.08927727490663528, 0.18519608676433563, 0.4345913827419281, -0.1033116802573204, -1.4933990240097046, -2.134723424911499, -1.9565919637680054, -1.7796998023986816, -1.181152105331421, 1.1144185066223145, 0.6449386477470398, 0.04703463241457939, -0.22442857921123505, -0.026991745457053185, 0.7859286665916443, 0.8817581534385681, 0.42374080419540405, 0.04515373334288597, -1.676694631576538, -2.629469633102417, -2.915543556213379, -2.4784979820251465, -2.2099971771240234, 0.45663610100746155, 0.5502557158470154, 0.038201045244932175, -0.08942852914333344, 0.12081452459096909, 0.3352532684803009, 0.18766871094703674, 0.43391677737236023, -0.11385983228683472, -1.2043874263763428, -1.923919916152954, -1.5238043069839478, -1.5823379755020142, -2.0992181301116943, -0.9561882615089417, 0.09684893488883972, 0.06770946085453033, -0.04519224911928177, -0.2777825593948364, -0.021499430760741234, 0.02925877831876278, -0.11109662055969238, -0.5957291126251221, -0.37455883622169495, -0.7840984463691711, -0.19061607122421265, 0.029131446033716202, -0.4102024734020233, -0.25602567195892334, 0.028335602954030037, 0.08265456557273865, -0.09533292800188065, -0.4664916396141052, -0.601858913898468, -0.5434369444847107, -1.1387138366699219, -0.5702807903289795, -0.5180509090423584, -0.007284036371856928, 0.524734616279602, 0.3918099105358124, 0.24755682051181793, 0.17258413136005402, 0.0002522442664485425, 0.07912419736385345, -0.20990104973316193, 0.20932400226593018, -0.6269446015357971, -1.3246325254440308, -1.481367588043213, -1.1880244016647339, -0.3900829255580902, 0.29265734553337097, 0.5636109113693237, 0.20768007636070251, 0.5286056995391846, 0.45203182101249695, 0.003975669387727976, 0.08761525899171829, -0.18383263051509857, 0.25330498814582825, -0.10974109172821045, -0.4010014533996582, -0.8847070932388306, -0.8696491718292236, -0.4946429133415222, -0.14523811638355255, -0.12183462083339691, 0.18011409044265747, 0.8623335957527161, 0.2885226607322693, 0.09518127888441086, 0.062275487929582596, -0.10249999165534973, -0.3823525607585907, 0.12128833681344986, 0.22523418068885803, -0.530448317527771, -0.9860936403274536, -0.8429831862449646, -0.6004589796066284, -0.4958708584308624, 0.24844343960285187, 0.27832528948783875, 0.07451336085796356, 0.09106820076704025, 0.08250682801008224, 0.06562964618206024, -0.05389072746038437, 0.07372550666332245, 0.2687222957611084, 0.08335841447114944, -0.1481592059135437, -0.0877937451004982, -0.36327457427978516, -0.16102862358093262, -0.001251444686204195, 0.04621874541044235, 0.12492944300174713, 0.07500847429037094, 0.07882294803857803, 0.053320225328207016, 0.027923019602894783, -0.09427230060100555, 0.01583995297551155, 0.040817730128765106, -0.0008360625361092389, 0.01824364997446537, -0.10750063508749008, -0.14975617825984955, 0.052723031491041183, 0.06578037887811661, 0.09924515336751938, 0.05580824241042137, 0.06005901098251343, 0.04268203675746918, 0.10341832786798477, 0.066086545586586, 0.0961410328745842, 0.07725545763969421, 0.08890465646982193, 0.05624663457274437, 0.06252623349428177, 0.094111368060112, 0.09737642109394073, 0.0827343612909317, 0.0693211629986763, 0.0893498882651329, 0.08857981115579605, 0.09357476979494095, 0.08516683429479599, 0.13001808524131775, 0.07959308475255966, 0.1541863977909088, 0.22054696083068848, 0.2045569121837616, 0.12715637683868408, 0.09684477001428604, 0.19040285050868988, 0.1207977905869484, 0.13573431968688965, 0.0444936640560627, 0.06579788774251938, 0.05501198396086693, 0.14699138700962067, 0.18788695335388184, 0.3049171268939972, 0.47334492206573486, 0.7016046047210693, 0.3422020375728607, 0.2130638062953949, 0.029293430969119072, -0.09984952956438065, -0.1123935878276825, -0.04456450045108795, 0.04455123096704483, 0.09667196869850159, 0.11914723366498947, 0.3102668821811676, 0.3295068144798279, 0.33374789357185364, -0.04004140943288803, -0.06420312821865082, 0.1614861637353897, 0.42942044138908386, -0.2092132866382599, -0.1318390816450119, -0.1860666424036026, -0.21636052429676056, 0.009122969582676888, 0.06969219446182251, 0.14516130089759827, 0.3995654881000519, 0.35271093249320984, -0.14310869574546814, -0.5178346037864685, 0.02298838272690773, 0.8709152936935425, 0.47398248314857483, 0.13429927825927734, -0.3276362121105194, -0.4901103377342224, -0.7734048962593079, -0.024505311623215675, 0.10132618993520737, 0.09385335445404053, 0.2158222794532776, 0.052418630570173264, -0.5144467949867249, -0.8924694657325745, -0.4176004230976105, 0.7059449553489685, 0.8322219848632812, 0.4934769868850708, 0.3886633515357971, 0.011481205001473427, -0.15954338014125824, 0.07869569957256317, 0.09773950278759003, 0.1382964700460434, 0.2010219544172287, 0.005381777882575989, -0.35496145486831665, -1.1692463159561157, -0.9082078337669373, 0.32183417677879333, 0.7344102263450623, 0.330725759267807, 0.33910882472991943, 0.362353652715683, 0.26701200008392334, 0.06073726713657379, 0.10325995832681656, 0.12375929206609726, 0.2658507227897644, 0.49666574597358704, 0.2721410393714905, -0.30075594782829285, 0.1974961906671524, 0.9625005722045898, 0.7060558795928955, 0.16402322053909302, -0.1845334768295288, -0.03662939369678497, 0.08158902078866959, 0.10381655395030975, 0.07156063616275787, 0.11195220798254013, 0.12050048261880875, 0.4207924008369446, 0.873174250125885, 1.042223572731018, 1.0320961475372314, 0.8611990213394165, 0.3702389895915985, -0.06364597380161285, -0.19226399064064026, -0.009421573020517826, -0.08167675882577896, 0.0919504389166832, 0.09696094691753387, 0.13881589472293854, -0.15602904558181763, -0.073785200715065, 0.5258828401565552, 0.7943459153175354, 0.47259533405303955, 0.4654664993286133, 0.22582806646823883, -0.22044909000396729, -0.059414904564619064, -0.2554903030395508, -0.004212579224258661, 0.05973711237311363, 0.09098833799362183, 0.16089630126953125, -0.09792880713939667, -0.6120547652244568, -0.7911422848701477, -0.4146636724472046, -0.3279816806316376, 0.040700867772102356, 0.08233704417943954, -0.03941814973950386, -0.20854328572750092, -0.152817964553833, 0.11094805598258972, 0.06165692210197449, 0.07966674864292145, 0.10499412566423416, 0.14579564332962036, 0.08306390047073364, -0.37965911626815796, -0.47902581095695496, -0.9455879926681519, -0.45555248856544495, 0.021750232204794884, 0.08695697039365768, 0.0018595808651298285, 0.14155350625514984, 0.08331236243247986, 0.10458474606275558, 0.04337726905941963, 0.09888247400522232, 0.12458981573581696, 0.12347736209630966, 0.024852413684129715, -0.16054171323776245, -0.5601581335067749, -0.19460733234882355, 0.10180512815713882, 0.08709577471017838, 0.14512762427330017, 0.0635995864868164, 0.04912203922867775, 0.08090415596961975, 0.1040181815624237, 0.07666350156068802, 0.06394901126623154, 0.11236566305160522, 0.12027985602617264, 0.08601224422454834, 0.07975597679615021, 0.11896393448114395, 0.08510603755712509, 0.06404159963130951, 0.06496874243021011, 0.04746410250663757, 0.08904379606246948, 0.041301220655441284], [-0.035709720104932785, -0.06815142929553986, -0.050569888204336166, -0.004658455960452557, 0.05257827416062355, 0.04275139421224594, 0.12834584712982178, -0.017641566693782806, -0.0017549209296703339, -0.025026772171258926, 