{"qconv1.weight": [-1.6140925884246826, -1.5968356132507324, 1.854906678199768, -1.4568941593170166], "fc1.bias": [0.0298796147108078, -0.0322607047855854, 0.03805520758032799, 0.05260532721877098, -0.01144587155431509, 0.01172158494591713, 0.0014049989404156804, 0.036395397037267685, 0.019809972494840622, 0.003342902287840843], "fc1.weight": [[0.04540092498064041, -0.02188703790307045, 0.03535245731472969, -0.004490362945944071, 0.0419502817094326, -0.02590613067150116, -0.009371857158839703, -0.02170732244849205, 0.02331642434000969, 0.029725268483161926, -0.005417734384536743, 0.0011263246415182948, 0.023466598242521286, -0.00730850687250495, -0.0210452601313591, 0.0005395524203777313, 0.02064741961658001, 0.007750032003968954, 0.008459814824163914, -0.011474252678453922, -0.0005069122998975217, 0.02838030457496643, 0.020400147885084152, 0.04228213056921959, 0.03060237318277359, 0.025965360924601555, 0.011851005256175995, 0.01566343940794468, 0.03633642941713333, 0.020386172458529472, -0.011936387978494167, 0.013950640335679054, 0.06116943806409836, 0.011350423097610474, 0.07463733106851578, 0.043070707470178604, 0.019640838727355003, 0.06804575026035309, 0.0632052943110466, 0.021561238914728165, 0.03724663704633713, 0.038673169910907745, 0.01697123609483242, 0.005055289715528488, -0.00449590478092432, 0.02257542870938778, 0.07029946148395538, 0.09208192676305771, 0.07552624493837357, -0.003352527040988207, 0.003018377348780632, 0.013690047897398472, 0.053992461413145065, 0.10506652295589447, 0.03309888020157814, 0.01738966815173626, 0.043685998767614365, 0.018681500107049942, 0.0017369643319398165, 0.05829484015703201, 0.09395939111709595, 0.06771690398454666, 0.0538407564163208, 0.03510357439517975, 0.0307730995118618, 0.009725977666676044, 0.016737913712859154, 0.05497933179140091, -0.013463955372571945, -0.014772584661841393, 0.017675139009952545, 0.03108843043446541, 0.022046415135264397, 0.05039437115192413, 0.02752687782049179, 0.047882456332445145, 0.034246187657117844, 0.015379142016172409, 0.01949930749833584, 0.0205328781157732, -0.02105260081589222, 0.020134728401899338, 0.04747714847326279, -0.014314797706902027, 0.019278787076473236, 0.016206486150622368, 0.046461839228868484, 0.007849917747080326, -0.009176728315651417, 0.05762098357081413, 0.06955871731042862, 0.06181061267852783, 0.05730057507753372, 0.012923279777169228, -0.0865442305803299, 0.014208446256816387, 0.005098124034702778, 0.026558585464954376, 0.007970538921654224, -0.007751657161861658, 0.059085942804813385, -0.009044058620929718, 0.004244979936629534, 0.015321435406804085, 0.03761240094900131, 0.09272653609514236, 0.07072573155164719, -0.0037759661208838224, -0.03464582562446594, 0.025101732462644577, -0.01435275562107563, 0.0177625622600317, 0.012763720005750656, 0.016557255759835243, 0.04607076570391655, 0.014871160499751568, 0.01597263477742672, -0.04417707026004791, 0.060317765921354294, 0.006325243040919304, 0.030433859676122665, 0.05772673338651657, 0.07422257214784622, 0.03871268406510353, -0.0010965501423925161, 0.0013704835437238216, 0.01743336021900177, 0.0580153614282608, 0.08118907362222672, 0.011705880053341389, -0.024958772584795952, -0.00736414035782218, 0.028233755379915237, 0.041038837283849716, 0.030443482100963593, 0.0815504938364029, 0.11353890597820282, 0.08150599151849747, 0.03805496171116829, 0.009439981542527676, -0.02494620345532894, -0.0016087702242657542, 0.08310388773679733, 0.07086794823408127, -0.029453009366989136, -0.02180108055472374, 0.00415031099691987, -0.02416708692908287, 0.09535089880228043, 0.1308371126651764, 0.06440476328134537, 0.05914659798145294, 0.011359785683453083, 0.03377760946750641, 0.032214004546403885, -0.007268319837749004, 0.061159878969192505, 0.11989226937294006, 0.10009850561618805, 0.011584741994738579, -0.07837779074907303, 0.0016312719089910388, 0.08869291096925735, 0.037690214812755585, 0.017080526798963547, 0.02013658732175827, 0.03814532235264778, 0.001986738061532378, -0.010062329471111298, 0.019398998469114304, 0.042881984263658524, 0.02327289804816246, 0.007778083439916372, -0.0379178412258625, -0.0021990532986819744, -0.021292388439178467, 0.017322080209851265, 0.0171757061034441, 0.04646352678537369, -0.022874489426612854, -0.024123789742588997, -0.02498406171798706, 0.03488270193338394, 0.005920229014009237, 0.01834360882639885, 0.02591969631612301, 0.0024329356383532286, 0.0066506643779575825, 0.005339528899639845, 0.015396380797028542, -0.018149884417653084, 0.0441230833530426, -0.018312430009245872, 0.01636253297328949, 0.03831245005130768, -0.008161799050867558, 0.02303728461265564, -0.007776445709168911, 0.03152329847216606, 0.007976969704031944, 0.001872838707640767, 0.037474654614925385, -0.007152052596211433, 0.007910950109362602, -0.018236899748444557, -0.0008129408815875649, -0.022662455216050148, 0.03587701916694641, 0.04632604867219925, 0.010915972292423248, 0.014135396108031273, 0.02757190354168415, -0.012743462808430195, 0.018579604104161263, 0.04441818967461586, 0.05574014410376549, 0.07524552196264267, 0.07765251398086548, 0.09669489413499832, 0.10530319809913635, 0.10282867401838303, 0.058547426015138626, 0.03648265451192856, 0.029483510181307793, 0.034288905560970306, 0.008661172352731228, 0.03678182512521744, 0.04960951209068298, 0.12313147634267807, 0.09157824516296387, 0.03693748638033867, -0.0922694131731987, -0.1394130140542984, -0.1114516630768776, -0.010422354564070702, -0.013089418411254883, -0.005733731668442488, 0.046502817422151566, -0.010688059031963348, 0.040909379720687866, 0.07703035324811935, 0.12125081568956375, 0.16007579863071442, 0.0610102154314518, -0.12942193448543549, -0.32677504420280457, -0.46335771679878235, -0.4244106411933899, -0.18867084383964539, -0.02697732113301754, 0.0017315627774223685, 0.04127812385559082, 0.012566260062158108, 0.03842844441533089, 0.06336262822151184, 0.11746161431074142, 0.044808126986026764, -0.10491717606782913, -0.3341539204120636, -0.32873138785362244, -0.3109033405780792, -0.43447721004486084, -0.2833976447582245, -0.11261972039937973, -0.009095456451177597, 0.023369209840893745, -0.0016999156214296818, 0.02904251404106617, 0.066501185297966, -0.004154372029006481, -0.2104099690914154, -0.38305607438087463, -0.25538527965545654, 0.10245339572429657, 0.23654133081436157, -0.148874431848526, -0.3715108335018158, -0.23311962187290192, -0.0007832345436327159, -0.012168578803539276, 0.004248470067977905, -0.00516847288236022, -0.0363173633813858, -0.23019319772720337, -0.3684663474559784, -0.3570137619972229, 0.1966453641653061, 0.5893704295158386, 0.6411142945289612, 0.20034880936145782, -0.3597302734851837, -0.31350037455558777, -0.04461519792675972, 0.0024129957892000675, 0.01654212176799774, 0.02797522209584713, -0.12832805514335632, -0.37135550379753113, -0.576088011264801, -0.048204205930233, 0.5513322949409485, 0.7481427192687988, 0.7057790756225586, 0.11781556159257889, -0.36078232526779175, -0.3025684058666229, -0.024440106004476547, 0.0017795044695958495, -0.013767429627478123, 0.030057890340685844, -0.1971615105867386, -0.4283676743507385, -0.543872058391571, 0.143880233168602, 0.5809425711631775, 0.6954473257064819, 0.4434793293476105, -0.1683191955089569, -0.32100367546081543, -0.15991546213626862, -0.027310967445373535, -0.021798962727189064, 0.014319803565740585, 0.03236328437924385, -0.1648184210062027, -0.43337586522102356, -0.4699673354625702, 0.10533697158098221, 0.3728894591331482, 0.3295581340789795, -0.03207477182149887, -0.24350577592849731, -0.10620321333408356, -0.04404374212026596, 0.013737248256802559, 0.0010325718903914094, 0.009378183633089066, 0.07617904990911484, -0.04869471862912178, -0.25294357538223267, -0.47926995158195496, -0.35789263248443604, -0.08855674415826797, -0.14415568113327026, -0.2271437793970108, -0.17746463418006897, -0.037298962473869324, 0.004275802988559008, 0.04051348567008972, -0.00922499317675829, -0.006587799172848463, 0.0187955554574728, 0.029243336990475655, -0.10196833312511444, -0.2642054259777069, -0.39758428931236267, -0.4043526351451874, -0.40856656432151794, -0.1770826131105423, -0.05298590287566185, 0.012997275218367577, 0.010689375922083855, 0.035881489515304565, 0.0070568230003118515, -0.014226051047444344, -0.001676809974014759, -0.0006368158501572907, 0.053308527916669846, 0.09903856366872787, 0.10111077129840851, 0.08232145756483078, 0.12293722480535507, 0.051234107464551926, 0.024848628789186478, 0.016527298837900162, 0.03547725826501846, 0.010906505398452282, -0.010114992968738079, 0.02100447565317154, 0.0042513515800237656, 0.04258011281490326, 0.03836013004183769, 0.03471776843070984, 0.07967914640903473, 0.08578895032405853, 0.06861769407987595, 0.0656384751200676, 0.0016347881173714995, 0.03520521521568298, 0.038865260779857635, 0.027558619156479836, 0.0320538729429245, 0.016834739595651627, -0.019438795745372772, 0.02567274309694767, -0.014098328538239002, 0.04225726053118706, -0.005751178599894047, 0.02689106948673725, 0.002304324647411704, 0.04027574509382248, 0.01437729224562645, 0.005380105227231979, 0.02518310584127903, 0.02302929386496544, -0.023935381323099136, -0.020877715200185776, 0.03478938713669777, -0.006081474479287863, -0.017967626452445984, -0.03431176766753197, -0.08201291412115097, -0.07544130831956863, -0.1478748321533203, -0.13717040419578552, -0.17332445085048676, -0.06140586733818054, -0.03157985210418701, 0.004130799788981676, -0.006628409959375858, 0.030004629865288734, 0.00883222371339798, 0.006402877159416676, -0.020489290356636047, -0.13050197064876556, -0.08493699133396149, 0.05081545189023018, 0.16838575899600983, 0.12560610473155975, 0.03927597030997276, -0.06342703104019165, -0.01320318877696991, 0.024887828156352043, -0.013290062546730042, 0.025481801480054855, -0.023201873525977135, -0.07617510855197906, -0.13427816331386566, -0.10260946303606033, 0.0823342353105545, 0.11493723839521408, 0.05965401232242584, 0.07920583337545395, 0.2812623381614685, 0.20204991102218628, 0.11566808819770813, 0.014677758328616619, 0.01858237199485302, 0.02475905232131481, -0.01697070151567459, -0.1125996857881546, -0.024176092818379402, 0.08080780506134033, 0.19393956661224365, 0.1975499987602234, 0.033370014280080795, 0.08349071443080902, 0.38465532660484314, 0.43485474586486816, 0.23089328408241272, 0.06441112607717514, -0.010894379578530788, 0.021307067945599556, -0.02163432165980339, 0.04726475849747658, 0.19578322768211365, 0.35120975971221924, 0.3838195502758026, 0.09793637692928314, -0.0005225356435403228, 0.054341837763786316, 0.32132235169410706, 0.6195128560066223, 0.40172624588012695, 0.22057966887950897, 0.03482921048998833, 0.019393635913729668, -0.030292818322777748, 0.23777566850185394, 0.26369747519493103, 0.5254018902778625, 0.2510451376438141, 0.030454205349087715, -0.2454085648059845, -0.4048854112625122, 0.17164748907089233, 0.5853734612464905, 0.5491220951080322, 0.295203298330307, 0.008767963387072086, -0.004580261185765266, -0.02064826898276806, 0.46077898144721985, 0.46271970868110657, 0.5766891241073608, 0.302228718996048, -0.3036023676395416, -0.6936065554618835, -0.47037264704704285, 0.07021939754486084, 0.5211305022239685, 0.47007468342781067, 0.36146804690361023, 0.017466586083173752, 0.00015300956147257239, -0.047441475093364716, 0.489455908536911, 0.47381532192230225, 0.496733695268631, 0.35611316561698914, -0.5386812686920166, -0.6662927865982056, -0.1578492522239685, 0.1160982996225357, 0.4071979522705078, 0.24139094352722168, 0.20647692680358887, -0.024168945848941803, -0.008958053775131702, -0.09164976328611374, 0.3322480022907257, 0.41891080141067505, 0.4821408987045288, 0.14629320800304413, -0.461834579706192, -0.23419317603111267, -0.06766259670257568, 0.28697681427001953, 0.23758713901042938, 0.19373758137226105, 0.08991239219903946, 0.04102698341012001, -0.0022468636743724346, -0.09215641766786575, 0.24243149161338806, 0.3098667562007904, 0.3928867280483246, 0.1871405690908432, -0.12068157643079758, -0.07908974587917328, 0.13884802162647247, 0.1614593118429184, 0.10894549638032913, 0.04095878079533577, -0.004323552828282118, 0.04247644916176796, 0.039170555770397186, -0.027903832495212555, 0.049730852246284485, 0.1670660376548767, 0.31630077958106995, 0.11130319535732269, -0.18590612709522247, 0.0165388323366642, 0.06137130409479141, 0.09863563627004623, 0.0030387574806809425, -0.03709148243069649, 0.026193570345640182, 0.011717946268618107, 0.012034975923597813, -0.014941727742552757, -0.005988213699311018, -0.09283290803432465, -0.05404515936970711, -0.055919986218214035, -0.053341858088970184, -0.14018061757087708, -0.11220769584178925, -0.04615683853626251, 0.001106193638406694, 0.030813459306955338, 0.023590877652168274, 0.03269079700112343, 0.015778416767716408, -0.0040721832774579525, 0.010892636142671108, -0.014325598254799843, -0.11570607870817184, -0.1373448222875595, -0.12804406881332397, -0.1292179375886917, -0.11624535918235779, -0.023894600570201874, -0.03658387437462807, -0.012901228852570057, 0.009271061979234219, 0.0042443773709237576, 0.0268930085003376, 0.02533809468150139, 0.01487880852073431, -0.02152392454445362, 0.029482316225767136, 0.03131791204214096, -0.00728705944493413, 0.010404445230960846, 0.007730487268418074, -0.012758136726915836, -0.010685068555176258, -0.01775388978421688, 0.01217114832252264, -0.0014536383096128702, 0.037934910506010056, 0.03599749505519867, 0.03992487117648125, 0.04679311811923981, 0.03486380726099014, 0.07568906247615814, 0.05604858696460724, 0.08655623346567154, 0.13574428856372833, 0.09154131263494492, 0.07002018392086029, 0.0034675339702516794, -0.0027770481538027525, -0.021128052845597267, 0.002808518009260297, 0.016239628195762634, 0.00047315971460193396, 0.05360064283013344, 0.06724920868873596, 0.05292927846312523, 0.012715170159935951, -0.07668286561965942, -0.11453269422054291, -0.04738796129822731, 0.03533843159675598, 0.04529441148042679, 0.04787377640604973, -0.005166367627680302, 0.009023703634738922, 0.022835640236735344, 0.02889592945575714, 0.126185342669487, 0.11008428782224655, 0.007524801883846521, -0.2044396698474884, -0.3267763555049896, -0.5026903748512268, -0.4549714922904968, -0.21539950370788574, -0.04930874705314636, 0.004118830896914005, -0.0038677682168781757, 0.028745047748088837, 0.03127678856253624, 0.10005347430706024, 0.051880449056625366, -0.030076434835791588, -0.1869383007287979, -0.2833617031574249, -0.2653654217720032, -0.2849339544773102, -0.43187764286994934, -0.42861559987068176, -0.18437238037586212, 0.014970237389206886, -0.008157271891832352, 0.019627511501312256, -0.0017569995252415538, 0.041674211621284485, -0.08319619297981262, -0.20112237334251404, -0.3408847451210022, -0.11977622658014297, 0.23804602026939392, 0.29764801263809204, -0.10622496902942657, -0.522897481918335, -0.31462815403938293, -0.03337450325489044, 0.019843287765979767, 0.04189537093043327, -0.0030073486268520355, -0.023178907111287117, -0.23414698243141174, -0.35978013277053833, -0.2554977238178253, 0.304689884185791, 0.6518290042877197, 0.6858118772506714, 0.22775529325008392, -0.4828087389469147, -0.35794275999069214, -0.12986896932125092, 0.01582510583102703, -0.0031143976375460625, 0.01279481966048479, -0.09283024817705154, -0.3768353760242462, -0.4676472246646881, -0.03669363260269165, 0.5800210237503052, 0.7862001657485962, 0.6479517817497253, 0.14467574656009674, -0.38607344031333923, -0.2832898497581482, -0.11027412861585617, 0.01243019849061966, 0.0004602574626915157, 0.04203416779637337, -0.09773799777030945, -0.4283052682876587, -0.4567105174064636, 0.13075289130210876, 0.6186642646789551, 0.5954399704933167, 0.2833729088306427, -0.15056444704532623, -0.25935065746307373, -0.1643138825893402, -0.02184651792049408, 0.03674465790390968, 0.016858555376529694, 0.021990783512592316, -0.044643692672252655, -0.36478084325790405, -0.46572765707969666, 0.009805315174162388, 0.3431515097618103, 0.22740694880485535, -0.05800136923789978, -0.08770788460969925, -0.09477972239255905, -0.02992221526801586, -0.009560098871588707, 0.009688000194728374, 0.02691202238202095, 0.039587851613759995, -0.04565999656915665, -0.2089536041021347, -0.3917767107486725, -0.2699965238571167, -0.09048797935247421, -0.12775766849517822, -0.08410719037055969, -0.027925482019782066, 0.014424169436097145, 0.010079644620418549, 0.0356159545481205, 0.02369580790400505, 0.009670622646808624, 0.04512277990579605, 0.058133333921432495, -0.032817013561725616, -0.2849128842353821, -0.39644721150398254, -0.36413586139678955, -0.23264536261558533, -0.06276410073041916, 0.0003071325772907585, 0.029914231970906258, 0.05646917596459389, 0.031396325677633286, 0.004498372320085764, 0.01876154914498329, 0.00330234388820827, -0.010305223986506462, 0.037197597324848175, 0.05463843420147896, 0.0179902296513319, 0.03706724941730499, 0.014880187809467316, 0.08902028203010559, 0.06116599962115288, 0.024511847645044327, -0.010403919965028763, -0.008505360223352909, -0.011695349588990211, 0.023988787084817886, 0.005213387776166201, 0.04568071290850639, 0.0009165286901406944, 0.02590429224073887, 0.051986973732709885, 0.06318669766187668, 0.04861880838871002, 0.028555750846862793, 0.03541035205125809, 0.03665100038051605, 0.01769651100039482, 0.011970971710979939, 0.04328686371445656], [-0.005390529055148363, -0.005256542470306158, -0.020744215697050095, -0.017948804423213005, -0.016824442893266678, -0.005277256481349468, -0.057389408349990845, -0.06030264496803284, -0.057143308222293854, -0.02880358137190342, -0.017365984618663788, -0.017980942502617836, -0.009165821596980095, -0.01677381619811058, -0.03331528976559639, -0.027737516909837723, -0.02642269991338253, -0.05414470285177231, 0.006630637217313051, -0.001250548055395484, -0.01572544127702713, -0.026732072234153748, -0.01871350035071373, 0.0007909342530183494, -0.03907371312379837, -0.033211156725883484, -0.04939531534910202, -0.025747288018465042, -0.017726348713040352, -0.016440175473690033, -0.01637875661253929, -0.00476340064778924, 0.0018722316017374396, 0.004765551537275314, -0.025535348802804947, 0.0064039998687803745, 0.05596354603767395, -0.04633207619190216, -0.04964635893702507, -0.04173470288515091, -0.039131104946136475, 0.003913625609129667, -0.015733545646071434, -0.03250359371304512, -0.0014609532663598657, 0.016907231882214546, -0.003203997854143381, 0.014028052799403667, 0.01799188181757927, 0.012553653679788113, 0.05701776221394539, 0.008812785148620605, -0.024166254326701164, -0.04355166479945183, 0.0030410457402467728, -0.019536316394805908, -0.013949055224657059, -0.06682787835597992, -0.028377851471304893, 0.00844110082834959, 0.020823316648602486, -0.012835494242608547, -0.03817467764019966, -0.04670077562332153, -0.019774749875068665, 0.008738759905099869, -0.01988440752029419, -0.019052626565098763, -0.0036281761713325977, -0.047102659940719604, -0.0033137972932308912, -0.05301244556903839, -0.0031223883852362633, -0.07159824669361115, -0.0569794587790966, -0.00572149408981204, -0.11403696984052658, -0.056618813425302505, 0.02706722728908062, -0.033652886748313904, -0.018910033628344536, -0.0036787455901503563, -0.023883270099759102, -0.032519351691007614, -0.0544033907353878, -0.01375998742878437, -0.0491362027823925, -0.0840502679347992, -0.05935162678360939, 0.04477255791425705, -0.10146169364452362, -0.054537635296583176, -0.02833854965865612, -0.04832290858030319, -0.06052909791469574, -0.010921702720224857, -0.015619641169905663, -0.0031603623647242785, -0.02757887914776802, -0.028242655098438263, -0.07471112161874771, -0.03495348244905472, -0.013798241503536701, 0.030574476346373558, -0.002388112945482135, -0.03787369653582573, -0.04626467823982239, 0.006545734126120806, -0.00820702500641346, -0.015558907762169838, -0.05547525733709335, -0.005869455635547638, 0.001931832986883819, -0.00768291624262929, -0.05839112773537636, -0.03585438430309296, -0.013945420272648335, 0.0643170177936554, -0.058427296578884125, -0.01732793264091015, -0.03089715540409088, 0.0008905937429517508, -0.02686963602900505, 0.00342320348136127, -0.0045621697790920734, 0.0005546080647036433, -0.03620581328868866, -0.06111268699169159, -0.021214041858911514, -0.02182193286716938, 0.014598377048969269, 0.07478375732898712, -0.04166892170906067, -0.03868737816810608, 0.00020413912716321647, -0.01003857422620058, -0.04160875827074051, 0.005759189371019602, -0.005648681428283453, -0.04022601991891861, -0.04116117209196091, -0.024538153782486916, -0.06375151127576828, -0.00266311620362103, -0.02520986832678318, 0.03863925114274025, -0.001432736637070775, -0.023720618337392807, -0.06650906056165695, -0.0005408661090768874, -0.04504891484975815, -0.013785263523459435, -0.04702848196029663, -0.05209910869598389, -0.0485999621450901, 0.0021747879218310118, -0.07618916034698486, -0.09868096560239792, -0.027337845414876938, 0.02258126065135002, 0.0701855719089508, -0.0025719068944454193, -0.03946476802229881, -0.03720314800739288, -0.009114895947277546, 0.009193711914122105, -0.038591206073760986, -0.015101437456905842, -0.06615559756755829, -0.04271986708045006, -0.0305569376796484, -0.0642763003706932, -0.021780772134661674, 0.013170505873858929, 0.007423222064971924, -0.034622278064489365, -0.03699244558811188, -0.013894855044782162, -0.04623971879482269, -0.053720906376838684, -0.04299720749258995, -0.050187818706035614, -0.061794061213731766, -0.029657380655407906, -0.004783767741173506, -0.013919024728238583, -0.06848587840795517, -0.07302810251712799, -0.07775848358869553, -0.03665648773312569, -0.005589988548308611, -0.020463474094867706, -0.03947988525032997, -0.05640656501054764, -0.02951134741306305, 7.645400182809681e-05, -0.04305722564458847, -0.02176513336598873, -0.004695117473602295, -0.05164466053247452, -0.018506839871406555, -0.0017937085358425975, -0.048159703612327576, -0.049319811165332794, -0.046068426221609116, -0.0323876328766346, -0.0025509363040328026, -0.05285332351922989, 0.005909075494855642, -0.03541093319654465, -0.044301047921180725, -0.002161766402423382, 0.0024009267799556255, -0.007128120865672827, -0.015790680423378944, -0.014804717153310776, 0.026735195890069008, 0.05290720984339714, 0.06875067949295044, 0.10159096121788025, 0.004678831901401281, -0.030740492045879364, -0.033688023686409, -0.05336732417345047, -0.046400055289268494, 0.006849097553640604, -0.0053464192897081375, 0.03157592937350273, 0.10735785961151123, 0.16110588610172272, 0.06069000065326691, 0.03645959869027138, 0.19355754554271698, 0.04267725348472595, -0.08764425665140152, -0.06266036629676819, -0.0492849163711071, -0.03185484558343887, -0.008644485846161842, -0.0017822148511186242, 0.0332142673432827, 0.10658687353134155, 0.28183257579803467, 0.37425023317337036, 0.23016393184661865, 0.27146026492118835, 0.37606391310691833, 0.11461173743009567, 0.005237430799752474, -0.020404374226927757, 0.0013863532803952694, -0.04749845340847969, 0.003950069658458233, 0.008909606374800205, 0.01464401837438345, 0.18419180810451508, 0.3574865758419037, 0.4424728751182556, 0.17321951687335968, -0.06073920428752899, 0.11289826780557632, 0.13785403966903687, 0.19194109737873077, 0.07009974867105484, 0.041664738208055496, -0.05565287172794342, -0.01350807398557663, -0.024724533781409264, 0.01529492437839508, 0.12820182740688324, 0.24007247388362885, 0.3933156728744507, 0.018102388828992844, -0.6751353144645691, -0.16965501010417938, 0.30716824531555176, 0.2941986918449402, 0.09300868958234787, -0.0026412494480609894, -0.03777884691953659, -0.019515693187713623, -0.042149852961301804, -0.03282546252012253, 0.08524702489376068, 0.2554449141025543, 0.46178606152534485, -0.13328084349632263, -0.8797707557678223, 0.22348107397556305, 0.4809668958187103, 0.26544275879859924, 0.09638532996177673, -0.007379992865025997, -0.05834098532795906, -0.004123553168028593, -0.04929906502366066, 0.028823941946029663, 0.09577976167201996, 0.2666563391685486, 0.4680265784263611, -0.5019912719726562, -0.8184003829956055, 0.5790302753448486, 0.4467689096927643, 0.21727824211120605, 0.09792040288448334, -0.03726769611239433, 0.008812887594103813, -0.028235508129000664, -0.04696798324584961, 0.05560430511832237, 0.147617369890213, 0.352620929479599, 0.3089264929294586, -0.792177140712738, -0.5089691281318665, 0.5530483722686768, 0.4232028126716614, 0.22930912673473358, 0.0629742294549942, 0.03753501921892166, -0.057954784482717514, -0.05501551181077957, -0.04624383524060249, 0.06913053244352341, 0.19938792288303375, 0.34081393480300903, 0.0073248399421572685, -0.6903221607208252, -0.07952267676591873, 0.5524352192878723, 0.41957324743270874, 0.2613338828086853, 0.08362401276826859, 0.015153351239860058, -0.018257835879921913, -0.03746708109974861, -0.028587324544787407, 0.08501528203487396, 0.1890946924686432, 0.17278486490249634, -0.06296354532241821, -0.04215821251273155, 0.270487904548645, 0.5007796287536621, 0.31972941756248474, 0.1919560432434082, 0.05236908420920372, -0.039155278354883194, -0.010031918995082378, 0.0012978975428268313, -0.03028007224202156, 0.013845987617969513, 0.00462544709444046, -0.13016997277736664, 0.009579635225236416, 0.14586807787418365, 0.06288806349039078, 0.044874031096696854, 0.06489317119121552, 0.04248694330453873, -0.017385657876729965, -0.013637151569128036, -0.04574631154537201, -0.003599989227950573, -0.024454066529870033, 0.007330820430070162, 0.00982513464987278, 0.006798455957323313, 0.17173346877098083, 0.1428191065788269, 0.049567095935344696, -0.031226810067892075, 7.306326006073505e-05, -0.0395159088075161, -0.05535174906253815, -0.0624377578496933, -0.0017814597813412547, 0.0012709280708804727, -0.03239251300692558, -0.05938076972961426, 0.0018267756095156074, 0.034066151827573776, -0.006551110185682774, 0.02145393006503582, 0.035777054727077484, -0.01038352120667696, -0.028286144137382507, -0.039580337703228, -0.03465468809008598, -0.04543520137667656, -0.03305704519152641, -0.01090920902788639, -0.025855716317892075, -0.019092656672000885, -0.05225509777665138, -0.03746393322944641, -0.04292597621679306, -0.041465505957603455, -0.04323628544807434, -0.007831343449652195, 0.0053365398198366165, -0.037829212844371796, -0.02573656290769577, -0.044943369925022125, -0.061533570289611816, -0.021289680153131485, -0.046049077063798904, -0.05697428435087204, -0.052137717604637146, -0.013584882952272892, -0.0553601011633873, -0.0738653838634491, -0.12574617564678192, -0.1509799063205719, -0.19597379863262177, -0.11993876099586487, -0.08419130742549896, -0.03923121467232704, -0.043595656752586365, -0.019290026277303696, -0.009829348884522915, -0.050302959978580475, -0.12204708904027939, -0.19308894872665405, -0.12933073937892914, 0.17748303711414337, 0.19977602362632751, 0.09511007368564606, 0.2211228311061859, 0.19050286710262299, 0.08148258179426193, -0.02656460925936699, -0.03687749058008194, -0.037551961839199066, -0.06983695179224014, -0.08072957396507263, -0.2839620113372803, -0.45419490337371826, -0.35339319705963135, -0.029835006222128868, 0.0679960697889328, 0.14546769857406616, -0.055097728967666626, 0.04946954920887947, -0.095021091401577, -0.06729784607887268, -0.0069003235548734665, -0.041565585881471634, -0.07704362273216248, -0.1936739683151245, -0.44257572293281555, -0.6275131702423096, -0.5844206809997559, -0.2040134221315384, 0.22436755895614624, 0.0494924932718277, -0.3651464283466339, -0.3420858383178711, -0.29998111724853516, -0.09837692975997925, -0.042284853756427765, -0.023794345557689667, -0.08687814325094223, -0.1635565459728241, -0.3599909543991089, -0.5383745431900024, -0.6602793335914612, 0.006164466496556997, 0.3008551001548767, -0.17032670974731445, -0.3875149190425873, -0.5335776805877686, -0.33162805438041687, -0.12422775477170944, -0.014072813093662262, -0.011310534551739693, -0.057972777634859085, -0.12492088973522186, -0.27736759185791016, -0.5099865198135376, -0.8014246821403503, 0.5120748281478882, -0.09865716099739075, 0.08630060404539108, -0.5662944912910461, -0.46519944071769714, -0.24455811083316803, -0.08062382787466049, -0.03841840848326683, -0.04848267138004303, -0.04314424842596054, -0.16344361007213593, -0.2937909662723541, -0.5916517972946167, -0.6866649985313416, 0.7229334712028503, -0.2316783368587494, -0.06716195493936539, -0.7405040860176086, -0.4349418580532074, -0.26278409361839294, -0.09261908382177353, -0.027990514412522316, -0.024110404774546623, -0.00902573298662901, -0.16711853444576263, -0.35288751125335693, -0.5835952758789062, -0.142437145113945, 0.3839870095252991, 0.33142903447151184, -0.5352160334587097, -0.772448718547821, -0.5285241007804871, -0.26297685503959656, -0.1538698971271515, -0.05395238474011421, -0.06077871099114418, -0.021348025649785995, -0.21856921911239624, -0.42236703634262085, -0.4161706268787384, -0.1853056102991104, 0.26301464438438416, -0.054758183658123016, -0.5252169966697693, -0.796491265296936, -0.5190408825874329, -0.29499688744544983, -0.16223539412021637, -0.007503166329115629, -0.005168757401406765, -0.07184530794620514, -0.22973088920116425, -0.28201165795326233, -0.25672662258148193, -0.3086046874523163, 0.23080894351005554, -0.28038686513900757, -0.43012967705726624, -0.5849228501319885, -0.39088067412376404, -0.238240584731102, -0.06623490899801254, 0.0005020477110520005, -0.006177657283842564, -0.026612944900989532, -0.05483473464846611, -0.0722239762544632, -0.02552671730518341, -0.038522470742464066, 0.08603832125663757, -0.06470555067062378, -0.052795324474573135, -0.25734513998031616, -0.17882536351680756, -0.09512093663215637, -0.043968163430690765, -0.05978073552250862, -0.05062009394168854, -0.004967624321579933, -0.0073775616474449635, -0.06082763522863388, -0.09929246455430984, -0.26995477080345154, -0.2943592965602875, -0.10836630314588547, -0.05905711650848389, -0.11133328080177307, -0.048181477934122086, -0.0013137600617483258, 0.003416379913687706, -0.05483531579375267, -0.003427645191550255, -0.0457603819668293, -0.013716887682676315, -0.062439512461423874, -0.1705598533153534, -0.21561114490032196, -0.19891798496246338, -0.15562723577022552, -0.10186745226383209, -0.05182585120201111, 0.003312098328024149, -0.0050419168546795845, -0.054009564220905304, -0.058060064911842346, -0.05985528603196144, -0.012064862065017223, -0.011613872833549976, -0.0052799745462834835, -0.016713406890630722, -0.06025504320859909, -0.0028794188983738422, -0.05684701353311539, -0.033963948488235474, -0.0029642246663570404, -0.00717855803668499, -0.027723975479602814, -0.01246111560612917, -0.05505232885479927, -0.0007203196873888373, -0.016225172206759453, -0.02958034537732601, -0.04703398048877716, 0.009173400700092316, 0.020377038046717644, 0.052546098828315735, 0.047998808324337006, 0.07033044844865799, 0.04090074077248573, 0.018496397882699966, -0.010188407264649868, -0.03424946591258049, -0.005909321829676628, -0.031141256913542747, -0.0008915862417779863, -0.03153467923402786, 0.021470198407769203, 0.12442899495363235, 0.10334143042564392, 0.001278598210774362, -0.048635538667440414, 0.0011942326091229916, -0.1080206111073494, -0.16708579659461975, -0.08951012045145035, -0.02827739529311657, 0.003698791842907667, -0.016182314604520798, -0.03079519048333168, -0.008400747552514076, 0.11116805672645569, 0.2958122789859772, 0.415336936712265, 0.376908540725708, 0.20033055543899536, 0.05939153954386711, 0.009761093184351921, -0.016349202021956444, -0.004498469643294811, -0.03812558203935623, -0.03756122291088104, -0.0440969318151474, -0.014560533687472343, 0.0073341261595487595, 0.19977425038814545, 0.3222953975200653, 0.4917284846305847, 0.4031326174736023, -0.23441870510578156, -0.10997707396745682, 0.21246904134750366, 0.2619020342826843, 0.07560675591230392, 0.009684232994914055, -0.046818818897008896, -0.05594663694500923, 0.014832167886197567, 0.007923020049929619, 0.13866406679153442, 0.29886573553085327, 0.4518367648124695, 0.18737611174583435, -0.8378090858459473, -0.21510031819343567, 0.36587417125701904, 0.2798318862915039, 0.11948192119598389, -0.020737100392580032, -0.03406556695699692, 0.004337285179644823, 0.007955332286655903, 0.023699186742305756, 0.07486137002706528, 0.25621268153190613, 0.487118661403656, -0.08027108013629913, -0.9226104617118835, 0.12194165587425232, 0.4155402183532715, 0.18187350034713745, 0.07352404296398163, 0.0002091757341986522, -0.046983249485492706, -0.052245307713747025, -0.016369599848985672, 0.0010494538582861423, 0.09071166813373566, 0.27909335494041443, 0.3821158707141876, -0.2521696388721466, -0.7034263610839844, 0.38267263770103455, 0.47639796137809753, 0.23879849910736084, 0.04552774876356125, 0.010612277314066887, -0.05039369687438011, -0.011127768084406853, -0.003921677358448505, 0.03359736502170563, 0.1609729528427124, 0.3265590965747833, 0.21317707002162933, -0.41215547919273376, -0.4486021101474762, 0.47358977794647217, 0.4911758303642273, 0.2731899321079254, 0.08833768218755722, -0.0062673198990523815, -0.027339475229382515, -0.03820856288075447, -0.011739666573703289, 0.036713045090436935, 0.17844092845916748, 0.23834973573684692, 0.03566431254148483, -0.24325472116470337, -0.18272805213928223, 0.4365193843841553, 0.4358794689178467, 0.19347354769706726, 0.07959547638893127, 0.036732032895088196, 0.009057068265974522, -0.01267797127366066, 0.00419204868376255, 0.02218787744641304, 0.06506215035915375, 0.11990627646446228, 0.12705475091934204, 0.10705000162124634, 0.13126187026500702, 0.31959980726242065, 0.30309978127479553, 0.12350206822156906, 0.04910023510456085, 0.02107998915016651, 0.00740336999297142, -0.023881221190094948, -0.001932554179802537, 0.023072058334946632, 0.0018429039046168327, 0.061653878539800644, 0.19726234674453735, 0.29491421580314636, 0.10020000487565994, -0.019777093082666397, 0.06946946680545807, 0.025685112923383713, -0.04158566892147064, -0.03115985170006752, -0.05353158339858055, -0.06287770718336105, -0.04984057694673538, -0.0024571071844547987, -0.014224226586520672, 0.07169100642204285, 0.19837966561317444, 0.1721280813217163, 0.10663030296564102, 0.04974355176091194, 0.01245646458119154, 0.0059773968532681465, 0.005528649315237999, 0.007213620003312826, -0.01084668468683958, 0.002325481502339244, -0.049131590873003006, -0.022758232429623604, -0.0031761499121785164, 0.010983159765601158, 0.042834170162677765, 0.036189429461956024, 0.04238618537783623, -0.016295304521918297, -0.05244800075888634, -0.059295497834682465, -0.05709972232580185, -0.04259011894464493, -0.005878580268472433], [0.06528183817863464, 0.020378418266773224, 0.07046392560005188, 0.03560026362538338, 0.07171279191970825, 0.051183488219976425, 0.07448650151491165, 0.009770961478352547, 0.010522381402552128, 0.0640665739774704, 0.026359664276242256, 0.04033235087990761, 0.04984324425458908, 0.038287945091724396, 0.05693318694829941, 0.036835748702287674, 0.010364114306867123, 0.0604199543595314, 0.03408269211649895, 0.01738055795431137, -0.036113888025283813, -0.0025598162319511175, 0.010290488600730896, 0.05862369388341904, 0.04121816158294678, 0.0780949592590332, 0.04958261549472809, 0.035311389714479446, 0.06796713918447495, 0.03804825246334076, 0.04821790009737015, -0.019124025478959084, -0.06033669412136078, -0.10911377519369125, -0.07289872318506241, -0.09216712415218353, -0.021581590175628662, 0.06405364722013474, 0.10244493186473846, 0.06476728618144989, 0.024723265320062637, 0.04848260432481766, 0.06093905121088028, 0.07239595800638199, 0.010544483549892902, 0.020799944177269936, -0.01407571416348219, -0.023622548207640648, -0.08330030739307404, -0.050943609327077866, 0.00040696398355066776, 0.0114566870033741, 0.07830153405666351, 0.027963535860180855, 0.022258488461375237, 0.0704181045293808, 0.00315837562084198, 0.028087379410862923, 0.01407549623399973, 0.0015236628241837025, 0.04601815342903137, 0.03627975285053253, 0.10456334799528122, 0.047072622925043106, -0.010837770067155361, -0.017442215234041214, 0.013010629452764988, 0.0811118334531784, 0.08833916485309601, 0.04666813462972641, 0.05121396481990814, 0.045517344027757645, 0.03811468556523323, 0.09322119504213333, 0.09838186204433441, 0.1906779408454895, 0.15836787223815918, 0.0895923376083374, -0.011493861675262451, -0.023046545684337616, 0.0648975670337677, 0.0571189783513546, 0.06391683220863342, 0.026237430050969124, 0.008573380298912525, 0.008390313945710659, 0.09436345845460892, 0.14563120901584625, 0.18286624550819397, 0.13883650302886963, 0.11588014662265778, 0.10335202515125275, 0.036798689514398575, 0.010979211889207363, 0.09147044271230698, 0.05187119543552399, 0.03061581589281559, 0.019508110359311104, 0.07017488032579422, 0.03760802745819092, 0.040594734251499176, 0.05319448187947273, 0.04888611286878586, 0.008165114559233189, 0.014309980906546116, -0.010017598047852516, 0.07131852209568024, 0.05532555654644966, 0.10152341425418854, 0.0528404600918293, 0.04688766598701477, 0.028451504185795784, 0.017634540796279907, 0.027025938034057617, -0.006511075422167778, -0.036614470183849335, -0.02037256397306919, -0.051295988261699677, -0.04418070986866951, -0.012597539462149143, 0.049268852919340134, 0.02754877880215645, 0.029364362359046936, -0.009345929138362408, 0.01704220660030842, 0.04975321516394615, 0.0670732632279396, 0.014568854123353958, -0.06021523103117943, -0.02189364843070507, -0.06718101352453232, -0.023073837161064148, 0.01192433387041092, -0.013446229510009289, -0.0708773210644722, -0.05990719050168991, -0.1422099620103836, -0.10232282429933548, -0.02649618126451969, 0.042185746133327484, 0.009864378720521927, 0.04117460548877716, -0.05420713499188423, -0.07096098363399506, -0.0565103217959404, 0.010808859951794147, 0.0273258276283741, 0.06470339000225067, 0.03637600317597389, -0.09361079335212708, -0.10993095487356186, -0.10403221845626831, -0.027870725840330124, 0.041025370359420776, 0.04476846382021904, 0.03497830778360367, 0.049321334809064865, 0.0040205903351306915, 0.010182948783040047, 0.05397580564022064, 0.07587894052267075, 0.08321156352758408, 0.0584837906062603, -0.03168151155114174, -0.02603156305849552, 0.0012274994514882565, 0.015142230316996574, 0.06985863298177719, 0.018476326018571854, 0.04999388009309769, 0.012974387034773827, 0.03902818262577057, 0.11644955724477768, 0.10338971018791199, 0.0821269154548645, 0.05087082087993622, 0.0840369388461113, 0.08372464776039124, 0.016155438497662544, 0.002434194553643465, 0.042266666889190674, 0.010759524069726467, 0.010144437663257122, 0.05189882218837738, 0.0698467344045639, 0.059341657906770706, 0.06759998947381973, 0.013465890660881996, 0.0692029520869255, 0.017201101407408714, 0.00949463527649641, 0.06183497980237007, 0.00965922325849533, 0.026837261393666267, 0.045888952910900116, 0.03544510900974274, 0.036510344594717026, 0.014009270817041397, 0.05042499676346779, 0.04356006905436516, 0.028427837416529655, 0.021572744473814964, 0.04976771026849747, 0.051896270364522934, -0.0012986977817490697, 0.018815211951732635, 0.0428793802857399, 0.0489216186106205, 0.034410785883665085, 0.03374069556593895, 0.06702772527933121, 0.059957973659038544, 0.012172545306384563, 0.009403671137988567, -0.0068935672752559185, -0.07442635297775269, -0.188736692070961, -0.20718802511692047, -0.11794410645961761, -0.023792074993252754, 0.02290969341993332, 0.07309146970510483, 0.016246961429715157, 0.028031278401613235, 0.06312146782875061, 0.01934414729475975, 0.05736749619245529, -0.013269788585603237, -0.22886532545089722, -0.42826005816459656, -0.5113956332206726, -0.5632816553115845, -0.3872382938861847, -0.11642894893884659, 0.037605538964271545, 0.0946192666888237, 0.06166641041636467, 0.05333712324500084, -0.002720175078138709, 0.03876698017120361, 0.00594251649454236, -0.13170009851455688, -0.280734121799469, -0.34697142243385315, -0.31617337465286255, -0.26353225111961365, -0.187791645526886, 0.007571148686110973, 0.08781249821186066, 0.11005968600511551, 0.07856566458940506, 0.020495083183050156, 0.007195573300123215, 0.02887997031211853, 0.0027805776335299015, -0.049409136176109314, 0.04813416674733162, 0.07737528532743454, 0.21305416524410248, 0.1713220775127411, -0.08307746052742004, -0.055314578115940094, 0.08519300818443298, 0.06965183466672897, 0.0832003727555275, 0.03609246388077736, 0.024879727512598038, 0.01037594210356474, 0.06495488435029984, 0.203160360455513, 0.30728796124458313, 0.41051310300827026, 0.5450650453567505, 0.3578152656555176, -0.002003297908231616, -0.026491185650229454, 0.10656428337097168, 0.1481907069683075, 0.09304404258728027, 0.03700391948223114, 0.041507694870233536, 0.014001949690282345, 0.07810219377279282, 0.2860477566719055, 0.43112361431121826, 0.5663484334945679, 0.5967575311660767, 0.39261916279792786, 0.06655992567539215, -0.04626242443919182, 0.14064717292785645, 0.19026261568069458, 0.03887767344713211, 0.02689777873456478, 0.01829804666340351, 0.06591127067804337, 0.14273685216903687, 0.20821072161197662, 0.16939058899879456, -0.03823944181203842, -0.06513603031635284, -0.03054799884557724, -0.1794486939907074, -0.02032029815018177, 0.23320743441581726, 0.20764347910881042, -0.0092984763905406, 0.05062615126371384, 0.04759937897324562, 0.04065850004553795, -0.015021760948002338, -0.12278223782777786, -0.28224536776542664, -0.43942970037460327, -0.46894553303718567, -0.5935381650924683, -0.5015130043029785, -0.107972651720047, -0.003975613042712212, -0.046867672353982925, -0.11044684797525406, -0.000377308955648914, 0.06173384189605713, 0.01039852574467659, -0.1991206407546997, -0.42232659459114075, -0.4905107915401459, -0.4802672266960144, -0.4870171546936035, -0.5475225448608398, -0.34418606758117676, -0.2048315554857254, -0.3322713077068329, -0.34706899523735046, -0.20212173461914062, -0.014891351573169231, 0.033370763063430786, -0.017833653837442398, -0.20784761011600494, -0.447906494140625, -0.5346177816390991, -0.36881721019744873, -0.1178150400519371, 0.09225134551525116, -0.008454513736069202, -0.2772671580314636, -0.4664306044578552, -0.3200501501560211, -0.1271507441997528, 0.005961034446954727, 0.06229856237769127, 0.016068371012806892, -0.06882385909557343, -0.04670263081789017, 0.06336286664009094, 0.3276733458042145, 0.5148358345031738, 0.50811368227005, 0.2392522096633911, -0.05562339723110199, -0.1358034312725067, -0.06560105085372925, 0.008227935992181301, 0.02370794489979744, 0.06594441086053848, 0.05433281138539314, 0.02990327961742878, 0.10291282087564468, 0.1797967106103897, 0.20330777764320374, 0.18791848421096802, 0.2101876139640808, 0.1138579323887825, 0.06798046082258224, 0.010498887859284878, -0.004859570879489183, 0.01609908416867256, 0.04688228294253349, 0.035946328192949295, 0.06404315680265427, 0.028432488441467285, 0.017866987735033035, 0.015418979339301586, 0.06996484100818634, 0.08006004989147186, 0.07491465657949448, 0.03811683878302574, 0.019526241347193718, 0.039650093764066696, 0.011819557286798954, 0.004360555671155453, 0.01420152559876442, 0.018616976216435432, -0.0024433776270598173, 0.022136222571134567, 0.0247533917427063, 0.05668453499674797, 0.04199530929327011, 0.04170354828238487, 0.006722404155880213, 0.005884409416466951, 0.046481654047966, 0.027664508670568466, 0.02952728047966957, -0.00040359547710977495, 0.06477346271276474, 0.05504174903035164, 0.055967845022678375, 0.06763441115617752, 0.042210131883621216, 0.02308565378189087, -0.01098084170371294, 0.002370408270508051, -0.0648307055234909, -0.03716859593987465, -0.05853318050503731, -0.08099842071533203, 0.0160446148365736, 0.02689996547996998, 0.012843885459005833, 0.040231458842754364, 0.01980363391339779, 0.07762579619884491, 0.23232081532478333, 0.3204740881919861, 0.4152487516403198, 0.367819607257843, 0.313759982585907, 0.22612431645393372, 0.038594067096710205, -0.11760897189378738, -0.06510305404663086, -0.01582958921790123, 0.025614988058805466, 0.03641217574477196, 0.020488061010837555, 0.09540458768606186, 0.3254890739917755, 0.28854456543922424, 0.19998039305210114, 0.11976616084575653, 0.10240484029054642, 0.22228702902793884, 0.23878398537635803, 0.07128890603780746, 0.014006766490638256, -0.020659305155277252, 0.037917885929346085, 0.0631926953792572, -0.030043527483940125, 0.10796627402305603, 0.06925084441900253, 0.02627570740878582, -0.07785356789827347, -0.21664482355117798, -0.02362057752907276, 0.2666390538215637, 0.46795910596847534, 0.1244199201464653, 0.11755236238241196, -0.047367796301841736, 0.021495021879673004, 0.029407376423478127, 0.029120158404111862, -0.02619362808763981, -0.26650023460388184, -0.40233829617500305, -0.6306096315383911, -0.5829405784606934, -0.23190025985240936, 0.3423709571361542, 0.44431230425834656, 0.20708870887756348, -0.07752392441034317, -0.09562456607818604, -0.005196352954953909, 0.060013871639966965, 0.037026260048151016, -0.2152172327041626, -0.5386577248573303, -0.7911885380744934, -0.8058887720108032, -0.7192889451980591, 0.0658298060297966, 0.35831642150878906, 0.44489169120788574, 0.10434644669294357, -0.21528233587741852, -0.1220676451921463, 0.03535577282309532, 0.06550256907939911, 0.007747909054160118, -0.21377453207969666, -0.3474348187446594, -0.49334001541137695, -0.3586356043815613, -0.24916325509548187, 0.2940342426300049, 0.17724239826202393, 0.17152181267738342, -0.20002329349517822, -0.3684155344963074, -0.21066397428512573, 0.05628017708659172, 0.03566640615463257, 0.1053958535194397, 0.17826597392559052, 0.16868317127227783, 0.10009503364562988, 0.04098975658416748, 0.15488284826278687, -0.08023622632026672, -0.14074020087718964, -0.16072070598602295, -0.3201085329055786, -0.15898792445659637, 0.01969570852816105, 0.06485042721033096, 0.04616691172122955, 0.17251574993133545, 0.49211743474006653, 0.4616110324859619, 0.2804259955883026, 0.09790655225515366, 0.013204365037381649, -0.1156119704246521, -0.09500627219676971, -0.19685405492782593, 0.03523753583431244, 0.30743128061294556, 0.48342999815940857, 0.12326688319444656, 0.044265374541282654, 0.22564424574375153, 0.4289914071559906, 0.42664942145347595, 0.19711853563785553, -0.12267663329839706, -0.0779632031917572, -0.04884079098701477, -0.16911906003952026, 0.035387735813856125, 0.36205631494522095, 0.603265643119812, 0.49584460258483887, 0.08433283865451813, 0.041420113295316696, 0.05287212133407593, 0.22588136792182922, 0.2411266416311264, 0.08531970530748367, -0.19737914204597473, -0.31324252486228943, -0.34975460171699524, -0.2103162407875061, 0.16227883100509644, 0.4602493643760681, 0.38236990571022034, 0.22314020991325378, 0.05318240076303482, 0.0055447774939239025, 0.04283519834280014, -0.048350535333156586, -0.18675820529460907, -0.36766332387924194, -0.5205903053283691, -0.4731382727622986, -0.379415363073349, -0.2529183030128479, -0.08338893204927444, 0.021065501496195793, 0.03294075280427933, 0.04445149749517441, 0.027851929888129234, 0.06371321529150009, 0.058985281735658646, 0.014797923155128956, -0.013094338588416576, -0.02789345383644104, -0.06595979630947113, -0.05715012177824974, -0.03557787835597992, -0.04678640514612198, 0.03697257861495018, 0.043069422245025635, 0.06163591891527176, 0.05069461464881897, 0.06696825474500656, 0.028076229616999626, 0.0016172036994248629, 0.014118415303528309, 0.05190115422010422, 0.0027722518425434828, 0.03715251013636589, 0.0425180122256279, 0.023499203845858574, 0.058681610971689224, 0.01893007755279541, 0.05492433160543442, 0.04237411543726921, 0.035723231732845306, 0.006350638810545206, 0.01276624295860529, 0.02063293382525444, 4.879082553088665e-05, 0.010056547820568085, -0.003440708853304386, -0.030038556084036827, -0.06509335339069366, -0.08859327435493469, -0.03564058989286423, 0.05009209364652634, 0.05814877152442932, 0.02748599834740162, 0.06164374575018883, 0.009163452312350273, 0.008745980449020863, 0.014698094688355923, 0.026009486988186836, -0.047393303364515305, -0.2577124238014221, -0.4399771988391876, -0.5200315117835999, -0.5176479816436768, -0.34855136275291443, -0.08165650814771652, 0.04924905300140381, 0.07216203957796097, 0.055436763912439346, 0.06117373704910278, 0.022551747038960457, 0.0645652562379837, 0.0399787537753582, -0.09859470278024673, -0.24614866077899933, -0.3821558952331543, -0.3563169538974762, -0.3226335942745209, -0.22928693890571594, -0.06356988102197647, -0.0036481432616710663, 0.053122419863939285, 0.05545136332511902, 0.03269965574145317, 0.06874466687440872, 0.0270072128623724, -0.015151716768741608, -0.0021016469690948725, 0.0852741003036499, 0.10233801603317261, 0.23241926729679108, 0.28137946128845215, 0.03670762851834297, -0.08883902430534363, -0.028997594490647316, 0.040330920368433, 0.09595812112092972, 0.05043847858905792, 0.033497292548418045, 0.04888518527150154, 0.02513454109430313, 0.18534892797470093, 0.35753074288368225, 0.45371192693710327, 0.5516158938407898, 0.44699132442474365, 0.015641823410987854, -0.19118496775627136, 0.0023086138535290956, 0.13197731971740723, 0.06999096274375916, 0.006898824125528336, 0.04360472783446312, 0.01611519418656826, 0.0846121683716774, 0.29854512214660645, 0.500896692276001, 0.5858298540115356, 0.5182430744171143, 0.479831337928772, 0.05073060467839241, -0.13036523759365082, 0.1677495241165161, 0.20364736020565033, 0.0578196682035923, 0.011641732417047024, 0.03853316977620125, 0.027701910585165024, 0.04067686200141907, 0.13237795233726501, 0.11605529487133026, -0.03629366308450699, -0.013068891130387783, 0.10312392562627792, -0.14307788014411926, 0.03284262493252754, 0.23086874186992645, 0.20788846909999847, 0.06500725448131561, 0.013392433524131775, 0.008690007962286472, -0.013565982691943645, -0.15178057551383972, -0.24410994350910187, -0.35044124722480774, -0.5082631707191467, -0.5081546902656555, -0.42486968636512756, -0.29533320665359497, -0.00011746228847187012, 0.11706821620464325, -0.01668732427060604, -0.06882604211568832, -0.009852508082985878, 0.05028187856078148, -0.02892044186592102, -0.20096249878406525, -0.4520760774612427, -0.4791065752506256, -0.5628302693367004, -0.5814268589019775, -0.38397929072380066, -0.27197492122650146, -0.2479698657989502, -0.31431034207344055, -0.35188353061676025, -0.21060985326766968, -0.010262148454785347, 0.05413491651415825, 0.018114985898137093, -0.18624825775623322, -0.435830682516098, -0.5137873291969299, -0.3552658259868622, -0.0818554013967514, 0.1605725735425949, -0.050173334777355194, -0.38091835379600525, -0.4881385862827301, -0.3753305971622467, -0.1012154370546341, 0.03139236569404602, 0.026865597814321518, 0.031214047223329544, -0.049601588398218155, -0.10747641324996948, -0.10119545459747314, 0.19195471704006195, 0.447157621383667, 0.3617855906486511, 0.14305952191352844, -0.17848120629787445, -0.22720161080360413, -0.13470962643623352, 0.023400912061333656, 0.026441702619194984, 0.03945254534482956, 0.011833363212645054, 0.02720041759312153, 0.09961537271738052, 0.2003951221704483, 0.2611357271671295, 0.31158575415611267, 0.2046068012714386, 0.16923367977142334, 0.04419221729040146, -0.0020861891098320484, 0.0560944639146328, 0.004972814582288265, 0.03125730901956558, 0.028647372499108315, 0.035616278648376465, 0.03835481405258179, 0.053501732647418976, 0.0639476478099823, 0.06625760346651077, 0.06523992866277695, 0.02083161659538746, 0.024012243375182152, 0.06540331244468689, 0.009542171843349934, 0.010447163134813309, 0.013177524320781231, 0.06357835233211517], [-0.0024747909046709538, 0.04726402834057808, 0.0017517352243885398, 0.048393044620752335, 0.06058674678206444, 0.04182742163538933, 0.024064840748906136, 0.03370411694049835, 0.011168034747242928, -0.0020418879576027393, 0.04480448737740517, 0.021934261545538902, 0.026754772290587425, 0.007718841545283794, 0.02947286330163479, 0.02029511332511902, 0.03986857086420059, 0.04896790161728859, 0.05893497169017792, 0.0026238125283271074, 0.02151316963136196, 0.006443230900913477, -0.009215498343110085, -0.008325454778969288, 0.011488477699458599, 0.016447778791189194, 0.02200259268283844, 0.02067503146827221, 0.04087037593126297, 0.014016260392963886, -0.0030225988011807203, 0.015498114749789238, 0.02635773830115795, 0.03866797685623169, 0.01929643005132675, 0.00938764214515686, 0.00979622546583414, 0.011433552019298077, 0.0362410806119442, 0.049521733075380325, -0.0001650303602218628, 0.040613409131765366, 0.0204584002494812, 0.008728575892746449, -0.0037147935945540667, 0.04617480933666229, 0.03775238245725632, -0.03834975138306618, -0.06522006541490555, -0.032820262014865875, 0.057829540222883224, 0.026632603257894516, 0.0196221973747015, 0.003763990243896842, 0.05347098410129547, 0.005219659302383661, 0.05230849236249924, 0.03209004923701286, 0.011565635912120342, 0.04483532905578613, 0.03685665503144264, 0.014799016527831554, -0.001223510131239891, -0.019507180899381638, 0.013372521847486496, 0.06215662509202957, 0.01705269142985344, 0.023045916110277176, 0.020394060760736465, 0.05498664081096649, 0.025425711646676064, 0.03042040765285492, 0.049724213778972626, 0.06904766708612442, 0.07412973791360855, 0.06766834855079651, 0.026334546506404877, 0.05409189686179161, 0.07892600446939468, 0.10615089535713196, 0.049745168536901474, 0.0072263916954398155, 0.062012992799282074, 0.01171093713492155, 0.05820184573531151, 0.036875493824481964, 0.018982190638780594, 0.06584209203720093, 0.07820723950862885, 0.019832385703921318, -0.032621465623378754, -0.014903852716088295, 0.07822471857070923, 0.07281675189733505, 0.049620240926742554, 0.06747310608625412, 0.0531255379319191, 0.0287818294018507, -0.008088368922472, 0.05913054943084717, 0.047451358288526535, 0.08463314920663834, 0.07185669243335724, 0.06587466597557068, -0.02051035314798355, 0.008772043511271477, 0.05649525672197342, 0.049774136394262314, 0.041600581258535385, 0.01248207874596119, 0.028402777388691902, 0.004990529268980026, 0.010832322761416435, 0.009476938284933567, -0.01623453199863434, 0.05048245191574097, 0.15356308221817017, 0.14309003949165344, 0.10554150491952896, 0.030864514410495758, 0.026630129665136337, -0.03869261220097542, 0.008865988813340664, -0.0038926524575799704, 0.02200709655880928, 0.007032791152596474, 0.0006309714517556131, -0.029205651953816414, -0.007372248452156782, 0.03581242635846138, 0.10301042348146439, 0.1146249771118164, 0.04923694208264351, 0.04018907994031906, 0.027851451188325882, 0.012177260592579842, 0.005372333340346813, 0.0179646797478199, 0.054118767380714417, 0.031031789258122444, 0.001994962338358164, 0.042341768741607666, -0.011643094941973686, -0.004941836465150118, -0.030406028032302856, -0.02941775880753994, 0.012071486562490463, 0.02962718904018402, 0.03955141827464104, 0.09724251925945282, 0.0553625226020813, 0.06926040351390839, 0.04476067051291466, 0.06038111448287964, 0.006297305226325989, 0.04938554763793945, -0.02969183214008808, 0.0025138240307569504, -0.0724479928612709, -0.05071673169732094, -0.06978165358304977, 0.029716230928897858, 0.09672645479440689, 0.0974998027086258, 0.09782447665929794, 0.054226383566856384, 0.023164302110671997, 0.040469858795404434, -0.0019004514906555414, 0.036383699625730515, 0.03374844416975975, 0.006626134738326073, -0.037542469799518585, -0.00664394348859787, -0.041022758930921555, 0.024189503863453865, 0.0349067784845829, 0.06320646405220032, 0.016216546297073364, -0.004746187943965197, 0.020317988470196724, 0.03799157962203026, -0.0020113326609134674, 0.00917741283774376, 0.042726173996925354, 0.0078502232208848, -0.007266250438988209, 0.03538847342133522, -0.00950687937438488, 0.03219509869813919, 0.05654849857091904, 0.05185508355498314, 0.013519381172955036, 0.026638902723789215, 0.009809575043618679, -0.006152582820504904, 0.05853787437081337, 0.042888808995485306, 0.03742407262325287, 0.02283606491982937, 0.029620183631777763, 0.030684059485793114, 0.04832655191421509, 0.00514772767201066, 0.0462651401758194, 0.02517099678516388, 0.03568148985505104, 0.026687035337090492, 0.04574516788125038, -0.009664898738265038, -0.009703397750854492, 0.05805101990699768, 0.014428434893488884, 0.03049670159816742, 0.031605105847120285, 0.016454506665468216, 0.04515617713332176, 0.031499940901994705, 0.0610337033867836, 0.054244209080934525, 0.05971129238605499, 0.05685419216752052, 0.0055503821931779385, 0.007686610799282789, -0.0052886465564370155, -0.0056989300064742565, 0.009183968417346478, -0.0441037192940712, -0.21529363095760345, -0.43448010087013245, -0.5370612144470215, -0.40219783782958984, -0.25014275312423706, -0.019636448472738266, 0.025719428434967995, 0.028222668915987015, 0.01840599812567234, -0.003595877904444933, 0.0022449425887316465, 0.03660299628973007, -0.0787677988409996, -0.19198860228061676, -0.3885449469089508, -0.48473629355430603, -0.39713558554649353, -0.3624095022678375, -0.2205069661140442, -0.0904281884431839, -0.03200759366154671, 0.02502940408885479, 0.012121369130909443, -0.004538888111710548, 0.01910298503935337, -0.014037823304533958, -0.011441083624958992, -0.026282981038093567, 0.10324828326702118, 0.31186655163764954, 0.44830551743507385, 0.24026010930538177, -0.09403132647275925, -0.09364122897386551, -0.0032281491439789534, 0.14105181396007538, 0.06109293922781944, 0.048760998994112015, 0.033722423017024994, 0.04320646449923515, 0.07390140742063522, 0.24923357367515564, 0.4739639461040497, 0.5540606379508972, 0.2559432089328766, -0.33462852239608765, -0.4839654564857483, -0.12789860367774963, 0.1761838048696518, 0.18750731647014618, 0.07903826236724854, -0.0006082422332838178, 0.018658451735973358, 0.0001920940267154947, 0.06650056689977646, 0.2715029716491699, 0.2998099625110626, -0.12415613234043121, -0.6966883540153503, -0.7261497974395752, -0.5351818799972534, -0.07989692687988281, 0.21941763162612915, 0.20753347873687744, 0.0533754825592041, 0.038588959723711014, 0.04692918434739113, 0.03627270832657814, 0.11709490418434143, 0.19409658014774323, 0.18571287393569946, -0.26078030467033386, -0.14906702935695648, 0.20486174523830414, -0.17303936183452606, -0.2434214949607849, 0.007751254364848137, 0.12698480486869812, 0.07866298407316208, -0.007870852015912533, 0.038858700543642044, 0.009211462922394276, 0.030228061601519585, 0.22151179611682892, 0.4548276662826538, 0.5005723237991333, 0.7867436408996582, 0.6894957423210144, -0.0943933054804802, -0.36037346720695496, -0.1206895187497139, 0.04607921093702316, 0.08648984879255295, 0.0006090891547501087, 0.011127562262117863, -0.07862205058336258, -0.10573657602071762, 0.049030691385269165, 0.40702009201049805, 0.6994722485542297, 0.7837491631507874, 0.5480234026908875, -0.11116991937160492, -0.33099204301834106, -0.1178760752081871, 0.05811021104454994, 0.08017103374004364, 0.01319554541260004, 0.043988458812236786, -0.09635338932275772, -0.23255719244480133, -0.2823851704597473, -0.16041383147239685, 0.128733292222023, 0.24685271084308624, -0.0430009551346302, -0.47780686616897583, -0.41173309087753296, -0.11297576874494553, 0.013431674800813198, 0.08802001923322678, -0.004683767445385456, 0.005787190515547991, -0.05527310445904732, -0.16286514699459076, -0.3742235004901886, -0.5026758909225464, -0.4934752285480499, -0.5105405449867249, -0.3898189961910248, -0.27462172508239746, -0.17526483535766602, 0.020476996898651123, 0.07411880046129227, 0.006705421023070812, 0.008505627512931824, 0.012617217376828194, 0.023915864527225494, -0.025717712938785553, -0.04680928960442543, -0.07947858422994614, -0.08659828454256058, -0.05515248328447342, 0.04269762709736824, 0.0984855443239212, 0.0737161859869957, 0.019645655527710915, 0.007913286797702312, 0.04206792265176773, -0.00755495997145772, 0.01008116826415062, 0.02335783839225769, 0.009411669336259365, 0.040520522743463516, 0.04394921660423279, 0.0348520502448082, 0.07390658557415009, 0.05457323044538498, 0.07995768636465073, 0.04633576050400734, 0.03310792148113251, 0.020992405712604523, 0.0499650314450264, 0.047839242964982986, -0.00569407781586051, 0.030766915529966354, 0.023864947259426117, 0.0354437492787838, 0.057970330119132996, 0.020096421241760254, 0.007373134605586529, 0.058785729110240936, 0.028235657140612602, 0.05609298497438431, 0.021642055362462997, 3.4675416827667505e-05, 0.01763722114264965, 0.02697879821062088, 0.04691144451498985, 0.027456549927592278, 0.04422340914607048, 0.01783650554716587, 0.005069971550256014, 0.01313230860978365, -0.038267724215984344, -0.0945330485701561, -0.06871587038040161, -0.0682714581489563, -0.026000769808888435, 0.004386126063764095, 0.0005074385553598404, 0.04062705859541893, 0.03021877259016037, 0.03191276267170906, 0.04571745917201042, 0.16689376533031464, 0.2290700078010559, 0.2958948314189911, 0.05379113927483559, -0.08979332447052002, -0.19125723838806152, -0.20073172450065613, -0.10701131075620651, -0.054287638515233994, 0.009970747865736485, 0.009253853000700474, 0.04388560354709625, 0.09851585328578949, 0.25139889121055603, 0.32153835892677307, 0.4242081940174103, 0.28754326701164246, 0.014616597443819046, -0.082826167345047, 0.07058928161859512, 0.024798089638352394, 0.16358120739459991, -0.013597787357866764, -0.03918022662401199, -0.006795012392103672, 0.049883440136909485, 0.10402128100395203, 0.17377479374408722, 0.048199187964200974, -0.061243172734975815, -0.26208117604255676, -0.30021873116493225, 0.08757562190294266, 0.28446900844573975, 0.14749999344348907, 0.048116594552993774, 0.01621745526790619, -0.04692680016160011, -0.004303187131881714, 0.015622447244822979, -0.007806563284248114, -0.06181326135993004, -0.2967863082885742, -0.5531821250915527, -0.580363929271698, -0.25931864976882935, 0.19899499416351318, 0.29306355118751526, -0.06253228336572647, -0.157094806432724, -0.32651928067207336, -0.08961701393127441, 0.041077692061662674, 0.04356462508440018, 0.03038322925567627, -0.12854674458503723, -0.3422645330429077, -0.28843197226524353, 0.0616588220000267, -0.033970706164836884, 0.07463658601045609, -0.127110093832016, -0.06214405968785286, -0.3724656105041504, -0.33942508697509766, -0.12731361389160156, 0.03323540836572647, 0.043465908616781235, 0.036244723945856094, -0.15671633183956146, -0.2886691391468048, -0.07561946660280228, 0.12932109832763672, -0.29237034916877747, -0.08308321982622147, -0.04937109351158142, 0.297677218914032, -0.029510460793972015, -0.15535521507263184, -0.14135338366031647, 0.028846852481365204, 0.019940076395869255, 0.07023929059505463, -0.14747394621372223, -0.37079834938049316, -0.4973496198654175, -0.6196911334991455, -0.6380231380462646, -0.39014315605163574, 0.19262181222438812, 0.5591872334480286, 0.3220050036907196, 0.10266530513763428, -0.0969812422990799, 0.038287680596113205, 0.02290450781583786, 0.29450756311416626, 0.20524826645851135, -0.22176502645015717, -0.7647168040275574, -1.018792986869812, -0.9340198040008545, -0.3471364974975586, 0.09744271636009216, 0.5670031309127808, 0.34393510222435, 0.19365213811397552, -0.10933564603328705, 0.04378790035843849, 0.027747103944420815, 0.37604257464408875, 0.4634369909763336, 0.2079332321882248, -0.2345990389585495, -0.5298205018043518, -0.467770516872406, -0.15322671830654144, 0.2336372435092926, 0.3879096508026123, 0.28235432505607605, 0.11163157969713211, -0.07526963949203491, 0.011445943266153336, 0.06059643626213074, 0.24931006133556366, 0.43658554553985596, 0.475421667098999, 0.2117934226989746, -0.18899944424629211, -0.26811498403549194, 0.006488171871751547, 0.1772894263267517, 0.193573459982872, 0.08892504870891571, -0.06065426766872406, -0.04007234051823616, 0.045612629503011703, 0.04779309406876564, 0.055631596595048904, 0.18903037905693054, 0.33985525369644165, 0.32819506525993347, 0.22600530087947845, 0.07741916924715042, 0.00033292462467215955, -0.05035940930247307, 0.003988395445048809, -0.06252532452344894, 0.03630199655890465, 0.056644830852746964, 0.015948783606290817, 0.05154627934098244, 0.05331247299909592, -0.005600025877356529, 0.015700872987508774, -0.05974629893898964, -0.0854492038488388, -0.16177605092525482, -0.15316928923130035, -0.07854361832141876, -0.028197772800922394, -0.014985159039497375, 0.04378931224346161, -0.008557138964533806, -0.004499422386288643, 0.010722646489739418, 0.020190466195344925, 0.04942324012517929, -0.0017384877428412437, -0.008630024269223213, 0.05339263379573822, 0.06257520616054535, 0.013940826989710331, 0.0022339995484799147, 0.016541002318263054, 0.0007093563326634467, 0.008464019745588303, 0.044074296951293945, -0.0020610408391803503, 0.019442275166511536, 0.019007032737135887, 0.02942783199250698, 0.05156899616122246, 0.007979227229952812, 0.02543635666370392, 0.05505438521504402, 0.06261587888002396, 0.07103462517261505, 0.0930483415722847, 0.022375231608748436, 0.04953457787632942, -0.005271336529403925, 0.005831721238791943, 0.0023233587853610516, 0.016877194866538048, -0.00413051201030612, -0.0441417433321476, -0.162465438246727, -0.2413415014743805, -0.19182024896144867, -0.09986770153045654, -0.003213697811588645, 0.07725890725851059, 0.06423124670982361, 0.027549587190151215, 0.022387104108929634, 0.03534237667918205, 0.051117680966854095, 0.004274387378245592, -0.07879259437322617, -0.17757128179073334, -0.3878853917121887, -0.5296844244003296, -0.5254648923873901, -0.4456454813480377, -0.2890487015247345, -0.15588508546352386, -0.10058344900608063, 0.07055078446865082, 0.035256657749414444, 0.051430512219667435, 0.00735726160928607, -0.005174184683710337, -0.05922814831137657, -0.01495037879794836, 0.08889547735452652, 0.1911860555410385, 0.2663910388946533, 0.034015752375125885, -0.21686959266662598, -0.12511712312698364, 0.016534142196178436, 0.10488680750131607, 0.03739069402217865, -0.008507008664309978, 0.03510989248752594, 0.04013868421316147, 0.07460581511259079, 0.2280813604593277, 0.41925039887428284, 0.41594260931015015, 0.02015693672001362, -0.38451439142227173, -0.3883426785469055, 0.01658053509891033, 0.28254854679107666, 0.18939095735549927, 0.07493969798088074, -0.008712423034012318, 0.010084285400807858, 0.009418458677828312, 0.05306408926844597, 0.22983425855636597, 0.20500753819942474, -0.2715865969657898, -0.8024197816848755, -0.7136110067367554, -0.3867584466934204, -0.0010656899539753795, 0.2825104594230652, 0.18658199906349182, 0.03275853767991066, 0.05019126087427139, -0.003019344061613083, 0.035270024091005325, 0.09324692189693451, 0.22206856310367584, 0.16797593235969543, -0.24537353217601776, -0.36523348093032837, -0.04681159183382988, -0.20696963369846344, -0.2860010862350464, -0.045141179114580154, 0.13902665674686432, 0.04458338022232056, 0.04137670621275902, 0.007153659593313932, -0.03483470529317856, 0.006377657875418663, 0.24528612196445465, 0.46399787068367004, 0.5117513537406921, 0.543703556060791, 0.5007595419883728, -0.04495931789278984, -0.42746075987815857, -0.17723743617534637, 0.010348650626838207, 0.05256650969386101, 0.012666106224060059, 0.020282866433262825, -0.028580009937286377, -0.16907450556755066, 0.055723585188388824, 0.4477182626724243, 0.6637960076332092, 0.6431766748428345, 0.43351322412490845, -0.14023324847221375, -0.37839868664741516, -0.1751023232936859, 0.005064467899501324, 0.0657716616988182, 0.04992838576436043, 0.05661140754818916, -0.10174471884965897, -0.2845194935798645, -0.33026695251464844, -0.10047747939825058, 0.21908068656921387, 0.17782776057720184, -0.06501046568155289, -0.2628316283226013, -0.21066555380821228, -0.07846169173717499, 0.07886994630098343, 0.07210204750299454, 0.02548983320593834, -0.0032620392739772797, -0.011184579692780972, -0.2099350243806839, -0.382016122341156, -0.49683645367622375, -0.5543460249900818, -0.46844834089279175, -0.3185453414916992, -0.127841979265213, -0.02562415972352028, 0.03983710706233978, 0.06789295375347137, 0.051686663180589676, 0.05274646729230881, 0.005600389093160629, 0.04891711473464966, -0.03331611305475235, -0.15077145397663116, -0.24879179894924164, -0.2530599534511566, -0.1455676406621933, -0.02723398059606552, 0.045396387577056885, 0.04930278658866882, 0.04134949669241905, 0.017384696751832962, 0.006277929525822401, 0.060383036732673645, 0.044546522200107574, 0.047119490802288055, -0.0024453012738376856, -0.00028551279683597386, 0.07040197402238846, 0.049463752657175064, 0.041350316256284714, 0.061794936656951904, 0.06741660833358765, 0.053405776619911194, 0.012007004581391811, 0.031535811722278595, 0.059192437678575516, 0.012678483501076698], [-0.017565155401825905, -0.015631580725312233, 0.0005281651974655688, -0.012134871445596218, 0.03399964049458504, 0.02626124769449234, -0.022553130984306335, 0.03189845383167267, 0.011852389201521873, -0.023756619542837143, 0.03878523036837578, 0.03125162795186043, -0.011857005767524242, 0.016422897577285767, 0.0246301107108593, 0.014192519709467888, 0.01673700287938118, -0.021052436903119087, -0.0021270071156322956, 0.017850829288363457, 0.06627397984266281, 0.03755756840109825, 0.007751798257231712, -0.001228556502610445, 0.050545211881399155, 0.02039463445544243, 0.020202621817588806, -0.004107582848519087, -0.02995765581727028, 0.02877682074904442, 0.004791191779077053, 0.005925049539655447, 0.02373494952917099, 0.034806352108716965, 0.07879963517189026, 0.12147058546543121, 0.09595035016536713, 0.010752570815384388, -0.06148521602153778, -0.04096699133515358, 0.01570701040327549, -0.013376927003264427, 0.023194218054413795, 0.02600756473839283, 0.02221722900867462, 0.030034437775611877, 0.03442027047276497, 0.0581921748816967, 0.0788876861333847, 0.16340143978595734, 0.11948337405920029, -0.018758924677968025, -0.05537812411785126, -0.07337269932031631, -0.048706717789173126, -0.014854765497148037, -0.013694800436496735, 0.03883196413516998, 0.04848475381731987, 0.04686354100704193, -0.00037970783887431026, 0.010447494685649872, 0.0732736736536026, 0.13647450506687164, 0.04762055352330208, -0.048809900879859924, -0.0634317621588707, -0.0018172211712226272, -0.0318920835852623, -0.014524273574352264, -0.0008770838030613959, -0.006819803733378649, 0.01081515196710825, -0.018509749323129654, -0.11224910616874695, -0.06506426632404327, 0.013586953282356262, 0.14531339704990387, -0.009815055876970291, -0.09702341258525848, 0.01365838386118412, 0.05108603835105896, 0.03729688376188278, 0.005573797971010208, 0.03763097897171974, -0.011282781139016151, 0.006817222107201815, -0.14173142611980438, -0.1797308325767517, -0.08765377849340439, 0.03129076212644577, 0.013680276460945606, -0.00476484838873148, -0.06851306557655334, -0.00973941758275032, -0.010779410600662231, 0.006889354903250933, 0.0026916794013231993, 0.03374486416578293, 0.027494894340634346, -0.08086284250020981, -0.1635587364435196, -0.11603227257728577, -0.14802975952625275, -0.056824807077646255, -0.0832630917429924, -0.003117205575108528, -0.07946957647800446, -0.037292495369911194, -0.040673065930604935, -0.010232040658593178, -0.022132372483611107, -0.030082134529948235, 0.011237317696213722, -0.013143585994839668, -0.12448224425315857, -0.06665263324975967, -0.12294361740350723, -0.1024588868021965, -0.04232196882367134, -0.01053279172629118, -0.0370890237390995, 0.025487812235951424, 0.024761980399489403, 0.03111839108169079, 0.005337439943104982, -0.019598472863435745, 0.017688967287540436, 0.02409851923584938, 0.07275817543268204, 0.11483673751354218, 0.08058153837919235, 0.008490742184221745, -0.02350008860230446, -0.002718323841691017, 0.10052603483200073, 0.09793207794427872, 0.0321999154984951, 0.04567866027355194, 0.037923119962215424, 0.02515348605811596, 0.040935467928647995, 0.038093194365501404, 0.08123743534088135, 0.1996031254529953, 0.1742587685585022, 0.12653158605098724, 0.0746612474322319, 0.04270697012543678, 0.0654439702630043, 0.05316198617219925, 0.026643704622983932, 0.0192392710596323, -0.007152405101805925, 0.02107548899948597, 0.003404879244044423, 0.044273436069488525, 0.06882484257221222, 0.09465363621711731, 0.11240028589963913, 0.10662449896335602, 0.03620465099811554, 0.03338322043418884, 0.01956346444785595, -0.014755260199308395, 0.024832066148519516, 0.009292561560869217, 0.010237474925816059, 0.005739135202020407, 0.000968524138443172, -0.010676665231585503, 0.04746779054403305, 0.034565702080726624, -0.016757730394601822, -0.018380029127001762, 0.015286399982869625, -0.052405718713998795, -0.018319550901651382, -0.03386795520782471, 0.029750481247901917, -0.01295461505651474, 0.01395293790847063, -0.02351447194814682, -0.020592357963323593, -0.0030522015877068043, -0.009507104754447937, -0.007319157477468252, -0.01597331278026104, -0.006448333151638508, -0.0009469530778005719, 0.0035800302866846323, 0.036715906113386154, -0.017622843384742737, 0.03422456607222557, 0.03994528949260712, 0.03570447117090225, -0.012718518264591694, 0.029931865632534027, -0.038754843175411224, -0.02607533521950245, 0.0019503948278725147, -0.013814779929816723, -0.004346415866166353, -0.01959698460996151, 0.008431508205831051, -0.025233153253793716, -0.026013044640421867, -0.02647603303194046, 0.01862373761832714, -0.008883153088390827, -0.006322706118226051, 0.0052278609946370125, 0.016214370727539062, 0.015072107315063477, 0.01737641915678978, 0.03809498995542526, 0.04229828715324402, 0.08329086750745773, 0.076221764087677, 0.04411274567246437, 0.03930206224322319, 0.01574728824198246, -0.004331774078309536, 0.014711910858750343, 0.007275505922734737, -0.005333571694791317, -0.03744190186262131, -0.000728958984836936, 0.049133654683828354, 0.03246886283159256, 0.19385045766830444, 0.26436522603034973, 0.23227113485336304, 0.07756674289703369, -0.04152313619852066, -0.08927841484546661, 0.0002145279140677303, -0.038152579218149185, 0.009717159904539585, 0.02487834542989731, 0.004234244115650654, 0.04808507859706879, 0.057489700615406036, 0.10236815363168716, 0.3513365089893341, 0.522308349609375, 0.3641844689846039, 0.07394614815711975, -0.04412609338760376, -0.0873899981379509, -0.037395376712083817, -0.011582846753299236, 0.014083713293075562, 0.03827425092458725, -0.010861068032681942, 0.029685597866773605, 0.03957481309771538, 0.1008792370557785, 0.2169359177350998, 0.4237736761569977, 0.17110762000083923, -0.043201904743909836, -0.060327768325805664, -0.013729377649724483, -0.0406101755797863, -0.03548627346754074, -0.001453898847103119, 0.008800594136118889, -0.004228860605508089, -0.024838725104928017, -0.150969997048378, -0.14449897408485413, 0.13020984828472137, 0.29722079634666443, -0.08348265290260315, -0.10549794137477875, -0.01046488992869854, 0.03484177961945534, -0.014367287047207355, -0.009703942574560642, -0.004225156735628843, -0.006357128731906414, -0.018932854756712914, -0.20187394320964813, -0.4593592882156372, -0.3033318519592285, 0.11068925261497498, 0.15158435702323914, -0.236597940325737, -0.18727603554725647, -0.006755523849278688, 0.03885722532868385, -0.006204033270478249, -0.03519750386476517, -0.018537530675530434, 0.009162873029708862, -0.09401700645685196, -0.3740679621696472, -0.5851184129714966, -0.49028322100639343, -0.32135406136512756, -0.20894065499305725, -0.5467843413352966, -0.3769099712371826, -0.0919976681470871, 0.015900978818535805, -0.03580266982316971, -0.00938604399561882, -0.005471919197589159, 0.008759512566030025, -0.0716668888926506, -0.2403828352689743, -0.27102264761924744, -0.24291089177131653, -0.14194051921367645, -0.36791008710861206, -0.5328255295753479, -0.15485118329524994, 0.06153662130236626, 0.01768048293888569, 0.014644547365605831, -0.00664920499548316, 0.028081871569156647, 0.02217852510511875, 0.03244445472955704, 0.07961030304431915, 0.2377006709575653, 0.3176972270011902, 0.23519635200500488, -0.1443611979484558, -0.04958541318774223, 0.19960744678974152, 0.1599835902452469, 0.10442284494638443, -0.003800316946581006, -0.006504805292934179, -0.009567972272634506, 0.03188059851527214, 0.06321679055690765, 0.1982284039258957, 0.3437591791152954, 0.4171712398529053, 0.2804080545902252, 0.06455269455909729, 0.09216988831758499, 0.15925684571266174, 0.0596342496573925, 0.05424127355217934, -0.025352245196700096, -0.009260853752493858, -0.02376679889857769, -0.027485603466629982, 0.009343676269054413, 0.08755186200141907, 0.2513291537761688, 0.24066230654716492, 0.15382827818393707, 0.03789156302809715, -0.020927120000123978, -0.02081971801817417, 0.005645008757710457, -0.0004440484626684338, -0.01566081866621971, -0.019454659894108772, -0.03405791148543358, -0.0341048464179039, -0.01936628483235836, -0.00317709450609982, 0.020101044327020645, 0.0526396781206131, -0.007687872741371393, -0.011590087786316872, -0.09455044567584991, -0.07779287546873093, -0.0508282408118248, -0.017488297075033188, 0.020366786047816277, 0.011620034463703632, 0.02404704876244068, -0.022716911509633064, 0.00999000295996666, 0.02291691303253174, 0.014636592008173466, 0.010573538020253181, 0.053815145045518875, 0.027364175766706467, 0.023671481758356094, -0.018684690818190575, -0.010609421879053116, -0.01486264169216156, 0.030662260949611664, 0.002268339740112424, -0.005820111837238073, -0.014452810399234295, -0.009454948827624321, 0.013071944937109947, 0.00299384375102818, -0.03321630507707596, -0.016755536198616028, -0.01701267436146736, -0.0024786561261862516, -0.004436972551047802, 0.01754041202366352, -0.005226631183177233, 0.029725758358836174, -0.019779054448008537, 0.027568941935896873, -0.015725981444120407, -0.0385483056306839, -0.035068728029727936, -0.051525894552469254, -0.07314056158065796, -0.07149738073348999, -0.0691312849521637, -0.06368434429168701, -0.06383491307497025, -0.034699443727731705, -0.020370708778500557, -0.041296590119600296, -0.009041810408234596, 0.01347286906093359, -0.015998119488358498, -0.013288981281220913, -0.04716000333428383, -0.09738577157258987, -0.15090294182300568, -0.27189353108406067, -0.32375583052635193, -0.22000478208065033, -0.07197307050228119, 0.10435131937265396, 0.1033797487616539, 0.011992118321359158, 0.003946152050048113, 0.016025902703404427, 0.004223125521093607, 0.0014555789530277252, 0.042335886508226395, 0.06451331079006195, 0.08872776478528976, -0.06856328248977661, -0.2107296586036682, 0.028224550187587738, 0.2986452281475067, 0.37591615319252014, 0.2811586558818817, 0.14675964415073395, -0.008663083426654339, -0.038656845688819885, -0.049534667283296585, -0.06986980140209198, 0.012183578684926033, 0.151099294424057, 0.2786642611026764, 0.06397135555744171, -0.16572532057762146, 0.11557649821043015, 0.3171137869358063, 0.23464266955852509, 0.11005005240440369, 0.017666883766651154, 0.01769130490720272, -0.014248288236558437, -0.01073918305337429, 0.007094040513038635, 0.1396314650774002, 0.38198620080947876, 0.4377254247665405, 0.11957363784313202, -0.18952462077140808, 0.31490036845207214, 0.33793649077415466, 0.06365058571100235, -0.1109054684638977, -0.09425335377454758, -0.028394510969519615, -0.040703628212213516, -0.005470177624374628, 0.09370651841163635, 0.33914339542388916, 0.5357762575149536, 0.42053043842315674, -0.1293536126613617, -0.08011519908905029, 0.3436835706233978, 0.31599053740501404, -0.004521763883531094, -0.09881240129470825, -0.062230609357357025, 0.01334229577332735, 0.027705173939466476, -0.007710900157690048, 0.20302677154541016, 0.4914363920688629, 0.33007532358169556, 0.1671508103609085, -0.2178894728422165, 0.052264947444200516, -0.08483266085386276, 0.20536939799785614, 0.07699904590845108, -0.06683783233165741, -0.07805542647838593, 0.011328417807817459, -0.016515742987394333, 0.011139384470880032, 0.2232014685869217, 0.2727312743663788, 0.07579753547906876, -0.127452552318573, -0.14143933355808258, -0.17192921042442322, -0.055699437856674194, 0.0934944823384285, -0.08239477872848511, -0.09522631764411926, -0.04450265318155289, -0.026779254898428917, -0.02797161601483822, -0.08001232147216797, -0.09997435659170151, -0.18056537210941315, -0.31567704677581787, -0.32323142886161804, -0.08954674750566483, 0.20074142515659332, 0.1793212890625, -0.12632980942726135, -0.23252932727336884, -0.22574134171009064, -0.10617861151695251, -0.00461414223536849, 0.024901093915104866, -0.06306184083223343, -0.23796603083610535, -0.4079678952693939, -0.5095993280410767, -0.40216395258903503, -0.07036829739809036, 0.17658767104148865, 0.06771645694971085, -0.12847644090652466, -0.1329001486301422, -0.1258312612771988, -0.04505142942070961, 0.02555139549076557, -0.0065695419907569885, -0.049366310238838196, -0.1446785181760788, -0.30961862206459045, -0.31279683113098145, -0.20384684205055237, -0.020518390461802483, 0.1526421159505844, 0.15735183656215668, 0.13020089268684387, 0.06845778971910477, 0.014458886347711086, -0.028418775647878647, 0.022519152611494064, -0.04004250094294548, -0.027203941717743874, -0.015613310970366001, -0.12320145964622498, -0.07924351096153259, 0.023735005408525467, 0.15691496431827545, 0.16899041831493378, 0.2672979533672333, 0.24343258142471313, 0.1629493534564972, 0.018994390964508057, 0.014198306016623974, 0.019347045570611954, 0.01090900506824255, 0.010491638444364071, 0.014449448324739933, -0.05219685658812523, -0.06939652562141418, -0.06971453875303268, -0.14177216589450836, -0.141719251871109, -0.1008429154753685, -0.07125051319599152, -0.008841561153531075, 0.026905933395028114, -0.030135901644825935, 0.01965671218931675, 0.020420363172888756, -0.028561333194375038, -0.01217291783541441, -0.015501993708312511, 0.029307492077350616, -0.005515155382454395, 0.02718905732035637, 0.027058139443397522, -0.02899027429521084, -0.02336105890572071, -0.0341363288462162, 0.007421546615660191, -0.0034665619023144245, -0.007226325571537018, -0.007499724626541138, 0.0051323892548680305, 0.013482297770678997, -0.03078479692339897, -0.01585986837744713, 0.02061002515256405, 0.08311224728822708, 0.05629875510931015, 0.05144793912768364, 0.05080680921673775, 0.003060583956539631, 0.020771227777004242, -0.001954849576577544, -0.021097656339406967, -0.011125029996037483, 0.006729940418154001, 0.023535240441560745, 0.007422982715070248, 0.03618946671485901, 0.035991743206977844, 0.14685218036174774, 0.22326011955738068, 0.11624785512685776, -0.01761958934366703, -0.12719933688640594, -0.05264091491699219, -0.039157599210739136, 0.008224204182624817, -0.001816402655094862, 0.003968740347772837, 0.041614074259996414, 0.028650809079408646, 0.055276431143283844, 0.08211038261651993, 0.24149782955646515, 0.48232975602149963, 0.3316600024700165, -0.023424003273248672, -0.129800483584404, -0.11602349579334259, -0.010504171252250671, -0.011317855678498745, 0.006354703567922115, 0.036048151552677155, 0.04211123660206795, 0.00864777248352766, -0.003346020122990012, -0.04867458716034889, 0.1644774079322815, 0.46882280707359314, 0.24869689345359802, -0.1293599009513855, -0.07907723635435104, -0.008443081751465797, -0.022070804610848427, 0.024831673130393028, 0.000611126481089741, -0.01760472171008587, -0.011205879040062428, -0.03356631472706795, -0.25855183601379395, -0.24322211742401123, 0.14781175553798676, 0.38192859292030334, -0.01599147729575634, -0.24981050193309784, 0.01998286321759224, 0.027811484411358833, 0.01957261748611927, 0.006640431936830282, 0.017343856394290924, 0.003422077279537916, -0.06055469810962677, -0.2814564108848572, -0.49305930733680725, -0.25276777148246765, 0.2377949208021164, 0.26843708753585815, -0.32840588688850403, -0.2934444546699524, 0.009458729065954685, 0.06438501924276352, 0.023348327726125717, 0.018567431718111038, -0.004889761097729206, 0.0036465285811573267, -0.06613695621490479, -0.364418625831604, -0.6195624470710754, -0.4417905807495117, -0.20853391289710999, -0.21922118961811066, -0.5228833556175232, -0.3337146043777466, -0.06279797852039337, 0.028655946254730225, 0.0006562420167028904, -0.0363893024623394, 0.0016445387154817581, -0.013802304863929749, -0.025662928819656372, -0.23231156170368195, -0.34496089816093445, -0.3755396008491516, -0.27572494745254517, -0.36687490344047546, -0.3730390667915344, -0.14497029781341553, 0.06058209016919136, 0.05367927998304367, 0.005578004289418459, 0.028793467208743095, 0.012905684299767017, -0.017215389758348465, 0.020023267716169357, 0.06767008453607559, 0.20116090774536133, 0.2108403593301773, 0.10840330272912979, -0.008039994165301323, -0.008274226449429989, 0.1137847900390625, 0.11818472295999527, 0.054192446172237396, -0.011960224248468876, -0.005886376369744539, 0.031793367117643356, -0.01059043500572443, 0.08922845125198364, 0.21901261806488037, 0.3783629238605499, 0.36948204040527344, 0.309376984834671, 0.19345450401306152, 0.0627828985452652, 0.06260819733142853, 0.04748067632317543, 0.018955200910568237, 0.033810779452323914, 0.006886196788400412, -0.012033944018185139, 0.0218315701931715, 0.048259686678647995, 0.143596351146698, 0.24799104034900665, 0.27302834391593933, 0.20167751610279083, 0.16446653008460999, -0.024962816387414932, -0.10473743826150894, -0.06923110783100128, -0.007938080467283726, 0.004408311098814011, -0.026693494990468025, -0.006882904097437859, -0.016190649941563606, 0.02157641388475895, 0.016376996412873268, 0.060056172311306, 0.025050848722457886, 0.020844625309109688, 0.024060741066932678, -0.03164995461702347, -0.04547794908285141, -0.053286079317331314, 0.0020586331374943256, -0.03802576661109924, -0.010549572296440601, 0.006694423966109753, -0.004469200037419796, -0.018359998241066933, 0.03654465079307556, 0.05219949036836624, 0.025085637345910072, 0.030716894194483757, 0.04951873794198036, 0.037792615592479706, 0.040158458054065704, -0.027836300432682037, 0.004326103255152702, 0.020052243024110794, -0.0014742666389793158], [-0.05924281105399132, -0.03222305700182915, -0.0015484682517126203, -0.05926508083939552, -0.04112183675169945, -0.02519512176513672, -0.03910383582115173, 0.002520327689126134, -0.007815285585820675, -0.05189859867095947, -0.01946541666984558, 0.0002625026972964406, -0.03304671868681908, -0.032827768474817276, -0.023161103948950768, -0.039664797484874725, -0.052544720470905304, -0.0533011369407177, -0.03418853133916855, -0.05460412800312042, -0.006594269536435604, -0.012255456298589706, -0.02114342898130417, -0.0484529472887516, -0.029643356800079346, -0.006618172861635685, -0.010953974910080433, -0.014497037045657635, -0.02472113072872162, -0.041009571403265, -0.012669166550040245, -0.009423571638762951, -0.03405841067433357, 0.0037948836106806993, -0.04179971292614937, -0.04297138378024101, -0.03737136349081993, -0.04382714256644249, 0.00368076516315341, -0.03647913411259651, -0.027443714439868927, -0.012560553848743439, -0.011538902297616005, -0.028387626633048058, -0.03026448003947735, -0.0023879653308540583, -0.009735696017742157, -0.0480773001909256, -0.056410931050777435, 0.012962262146174908, -0.0018665899988263845, -0.041216738522052765, -0.024230049923062325, -0.009468412958085537, -0.0517619252204895, -0.057742007076740265, -0.05324607715010643, -0.046842001378536224, -0.007660462521016598, -0.026287825778126717, -0.05216194689273834, -0.05343326926231384, 0.00045246322406455874, -0.04678550362586975, -0.02579917386174202, -0.049033042043447495, -0.057227928191423416, 0.011274325661361217, -0.03203190118074417, -0.01572529226541519, -0.052094634622335434, -0.015254529193043709, -0.05246751755475998, -0.042676832526922226, -0.034116942435503006, -0.03368460386991501, -0.05651647597551346, -0.014981151558458805, -0.04375592991709709, -0.005866489838808775, -0.017249593511223793, -0.0026387260295450687, -0.019616736099123955, 0.0027269397396594286, 0.009772452525794506, -0.007247465196996927, -0.009262205101549625, -7.622613338753581e-05, -0.040083155035972595, -0.017117584124207497, 0.011411511339247227, -0.014221789315342903, -0.008254640735685825, 0.013000205159187317, -0.023339753970503807, 0.007392565254122019, -0.022173820063471794, -0.052044160664081573, -0.048551175743341446, -0.049127042293548584, -0.03732497990131378, -0.018915433436632156, -0.054653361439704895, 0.0022128145210444927, -0.01960982196033001, -0.03202471509575844, -0.041774578392505646, -0.028178991749882698, -0.05394260585308075, -0.05467389523983002, -0.004209857899695635, -0.02152782492339611, 0.001811561523936689, -0.001333467778749764, -0.037574972957372665, -0.035671837627887726, -0.013898758217692375, -0.02775438316166401, -0.02728073112666607, 0.0037578048650175333, -0.001384622766636312, -0.012046607211232185, -0.021341538056731224, -0.004878307692706585, -0.05359229817986488, -0.004783875774592161, -0.058942269533872604, -0.012947739101946354, -0.026098571717739105, -0.02340293861925602, 0.0059364247135818005, -0.011560915969312191, -0.014450360089540482, -0.023463714867830276, 0.007424263283610344, -0.05022210255265236, -0.059490181505680084, -0.014061874710023403, -0.00791340135037899, -0.04056227579712868, -0.014979391358792782, 0.0003543220227584243, 0.005856882780790329, -0.010377063415944576, -0.009409964084625244, -0.004322872031480074, -0.021900758147239685, -0.04145890474319458, -0.032868921756744385, -0.04288095608353615, -0.037122953683137894, -0.04142947494983673, -0.04649579897522926, -0.003458130406215787, -0.058038774877786636, -0.021343257278203964, 0.0008951612981036305, -0.026181155815720558, -0.04508931189775467, -0.00936303660273552, -0.05711003392934799, -0.005860060919076204, -0.006569806020706892, -0.01750079169869423, -0.010801945813000202, -0.0013336932752281427, 0.003590627573430538, -0.016443010419607162, -0.02535165473818779, 0.00783727876842022, -0.042625702917575836, -0.0075388820841908455, 0.012782931327819824, -0.03830818831920624, -0.054685428738594055, -0.03576718270778656, -0.018495038151741028, -0.03971900790929794, -0.012979148887097836, -0.036584168672561646, -0.05514858663082123, -0.046003080904483795, -0.03278351202607155, -0.0031137345358729362, -0.044140733778476715, -0.03777419775724411, -0.04349762201309204, -0.05749383941292763, -0.05212358012795448, -0.010507841594517231, -0.02857402339577675, -0.01180354505777359, -0.05490884557366371, -0.05092014744877815, -0.04294545575976372, -0.01877894252538681, -0.040885522961616516, -0.04330452159047127, -0.05217950418591499, -0.03885360062122345, -0.03224511444568634, 8.95754128578119e-05, 0.008148129098117352, -0.016527650877833366, -0.043984830379486084, -0.018684010952711105, -0.034792643040418625, -0.030695267021656036, -0.037048760801553726, -0.013033847324550152, -0.015911614522337914, -0.007995383813977242, 0.0010166589636355639, 0.012004109099507332, -0.003251763293519616, -0.014264787547290325, -0.044622473418712616, -0.030584413558244705, 0.012563228607177734, 0.006255796179175377, -0.05716543272137642, -0.04977983981370926, -0.0032562129199504852, -0.048622217029333115, -0.05447711423039436, -0.032884322106838226, -0.03838304057717323, 0.005111909005790949, -0.019367530941963196, -0.021557534113526344, -0.03891761973500252, -0.01027639303356409, -0.03216592222452164, -0.020202547311782837, -0.004103024490177631, -0.04720475524663925, -0.04586686193943024, -0.03250955417752266, -0.02472451515495777, -0.023662706837058067, -0.0087287537753582, -0.057248592376708984, -0.020656131207942963, -0.04521467909216881, -0.05273992940783501, -0.005565181840211153, -0.03748833388090134, -0.021819869056344032, 0.0038590168114751577, -0.02614002488553524, -0.020372867584228516, -0.00011296133743599057, -0.03827032819390297, -0.020438414067029953, -0.02172149159014225, -0.02438404969871044, -0.04904458299279213, -0.05588044598698616, -0.051113955676555634, -0.03176030516624451, -0.04596048220992088, -0.007848712615668774, -0.012588588520884514, 0.014601563103497028, -0.0421517938375473, 0.01124303787946701, -0.0357828326523304, 0.012720629572868347, -0.00938898604363203, -0.014324339106678963, -0.05702552571892738, -0.022499743849039078, 0.003343012649565935, -0.015085089951753616, -0.048032499849796295, 0.013189638964831829, 0.018890265375375748, -0.03256012499332428, 0.00882704183459282, -0.0041628689505159855, 0.006036018952727318, -0.04840487614274025, -0.015927506610751152, -0.003560266923159361, -0.04018103703856468, -0.06188902258872986, 0.003768294584006071, -0.03628561645746231, -0.022818241268396378, -0.01685914397239685, -0.05172199755907059, -0.021604662761092186, -0.024124106392264366, -0.026329973712563515, 0.004424003884196281, -0.001248969230800867, -0.01855425536632538, 0.01300723571330309, 0.003513792296871543, -0.0068463850766420364, -0.014254146255552769, -0.0397547222673893, -0.0002998601703438908, -0.0552440769970417, -0.008405293338000774, -0.03920353204011917, 0.008396150544285774, -0.034376855939626694, 0.001760797924362123, -0.03031943179666996, -0.05292661488056183, -0.029537053778767586, -0.009069029241800308, -0.04866906255483627, 0.016273703426122665, -0.007539921440184116, -0.003056959016248584, 0.0017059537349268794, -0.012074406258761883, -0.0026566057931631804, -0.008140979334712029, -0.048428013920784, -0.029340310022234917, -0.05403820052742958, -0.017107058316469193, -0.04571828991174698, -0.008962350897490978, -0.030222805216908455, 0.0006553932907991111, -0.022420773282647133, -0.04965181648731232, -0.02775835432112217, -0.010804840363562107, -0.02237010933458805, 0.013124954886734486, -0.016538171097636223, -0.029123123735189438, -0.012183571234345436, -0.002789741614833474, -0.020008886232972145, -0.05201992020010948, -0.006585798691958189, -0.00475943461060524, -0.0013574493350461125, -0.027640456333756447, -0.025345098227262497, 0.007804755587130785, -0.025018086656928062, -0.0515311099588871, -0.004131459631025791, 0.0027413011994212866, 0.00019351637456566095, -0.03738029673695564, -0.040460288524627686, -0.018750114366412163, 0.006246576085686684, -0.012253589928150177, -0.026515943929553032, -0.038811322301626205, -0.058381337672472, -0.006098340731114149, -0.039054494351148605, -0.02063092775642872, -0.017236148938536644, -0.046576328575611115, -0.039113983511924744, -0.044322606176137924, -0.018598753958940506, -0.006747260689735413, -0.007823756895959377, -0.039118293672800064, -0.02317422442138195, -0.004242806229740381, 0.0050099859945476055, -0.0371556356549263, 0.005984788294881582, -0.051785748451948166, -0.05648210644721985, -0.04651421681046486, 0.0009788424940779805, 0.005462161265313625, -0.01909893937408924, -0.03658580034971237, 0.00872727856040001, -0.030394531786441803, -0.03316038101911545, -0.04541958123445511, -0.004170370753854513, -0.0005456637591123581, -0.006016898434609175, -0.04583628475666046, -0.03840160742402077, -0.045776378363370895, -0.017468947917222977, -0.03789348155260086, 0.0062355720438063145, 0.0023665514308959246, -0.03182445093989372, -0.03225739672780037, 0.0020408800337463617, -0.04849499836564064, -0.0516638346016407, 0.010645060800015926, -0.002332032425329089, -0.005040766671299934, -0.023765038698911667, -0.014487150125205517, 0.0022756997495889664, -0.027998220175504684, -0.0037639173679053783, -0.017354857176542282, -0.028763355687260628, -0.014886520802974701, -0.05789852514863014, -0.05734938383102417, 0.01251785084605217, 0.001316729700192809, -0.04172612354159355, -0.0367572195827961, -0.009418713860213757, 0.009351362474262714, -0.044215790927410126, -0.05400429666042328, -0.038712069392204285, -0.02302693948149681, -0.014963502064347267, -0.0532258041203022, -0.05190596729516983, -0.03139830380678177, -0.04893910139799118, -0.025693895295262337, 0.014817084185779095, -0.03720005229115486, -0.027268946170806885, -0.0046115112490952015, -0.03787676617503166, -0.048384346067905426, -0.026024330407381058, 0.0009466014453209937, -0.0035191597416996956, -0.007907941937446594, -0.05780170112848282, -0.0027262221556156874, -0.021841350942850113, -0.053839243948459625, -0.04106602817773819, 0.020314928144216537, 0.001597758149728179, -0.046717312186956406, -0.05089281499385834, -0.0562376044690609, -0.030073944479227066, 0.014189798384904861, -0.018248293548822403, -0.03125940263271332, -0.025706443935632706, -0.04042559117078781, -0.03588467091321945, -0.004154331982135773, 0.00930963084101677, 0.001319725881330669, -0.012128040194511414, 0.0025500066112726927, -0.03190474584698677, -0.008412296883761883, -0.05192417651414871, 0.009900185279548168, 0.005313004367053509, 0.0016263603465631604, -0.014012288302183151, -0.037565767765045166, -0.00956948846578598, -0.009299173019826412, -0.04852098599076271, 0.0014346987009048462, -0.012261488474905491, 0.013544048182666302, -0.04043518006801605, -0.05398371443152428, -0.049756575375795364, -0.03810815513134003, -0.015633832663297653, 0.002918255515396595, -0.010543483309447765, -0.011354268528521061, 0.011077454313635826, -0.03207720071077347, -0.010540510527789593, -0.027005596086382866, -0.03384013846516609, 0.008788982406258583, -0.011158143170177937, -0.02460447885096073, -0.019904669374227524, -0.04634157195687294, -0.0019721442367881536, -0.0565279945731163, -0.05650359392166138, -0.027640504762530327, -0.04999779537320137, 0.003588846419006586, -0.005110837519168854, 0.0029169698245823383, -0.0010126084089279175, -0.029314855113625526, -0.03240295127034187, -0.04234444350004196, -0.004862056579440832, 0.009824455715715885, 0.0007365239434875548, -0.0033374642953276634, 0.008119897916913033, -0.020874949172139168, 0.008013189770281315, -0.021417032927274704, -0.028867404907941818, -0.01808083802461624, 0.006921201013028622, -0.03014906495809555, 0.0024348332080990076, -0.027300067245960236, 0.014978112652897835, 0.007711601443588734, -0.016442501917481422, -0.05496995896100998, -0.023875953629612923, -0.04346272349357605, 0.011183531023561954, 0.00866254698485136, -0.0231938399374485, -0.05233776569366455, 0.011798407882452011, 0.007225713226944208, -0.00781969167292118, -0.007241362705826759, -0.028338991105556488, 0.00309873023070395, -0.03344065696001053, -0.028645697981119156, -0.05122290551662445, -0.0475013442337513, -0.02775643952190876, -0.04781493544578552, -0.0069969589821994305, -0.02797931432723999, -0.018790211528539658, -0.03416869416832924, 6.656350888079032e-05, 0.0020781387574970722, -0.037937771528959274, -0.04290098324418068, 0.009665215387940407, -0.039434704929590225, 0.008996594697237015, 0.01720089465379715, -0.023784494027495384, -0.010641754604876041, -0.041944459080696106, 0.003592774039134383, -0.004351117182523012, -0.036986056715250015, 0.0007839078898541629, -0.002297512488439679, -0.01360436249524355, -0.004187692888081074, -0.0220359917730093, -0.03569495677947998, -0.04453214630484581, -0.0034606216941028833, -0.01617518439888954, 0.013124878518283367, -0.016579918563365936, -0.022854935377836227, -0.05030246451497078, -0.002942602150142193, -0.05321123078465462, 0.006218315567821264, 0.006402229890227318, -0.014477692544460297, 0.0032129932660609484, -0.043504685163497925, -0.003142222063615918, -0.00618076603859663, -0.007980722934007645, -0.03127025440335274, -0.04343000054359436, -0.01731802150607109, 0.013877528719604015, -0.027365099638700485, 0.012401305139064789, -0.027430180460214615, -0.03885604441165924, -0.03437665104866028, -0.012545927427709103, 0.009562135674059391, -0.0361725315451622, 0.009700112976133823, 0.013187762349843979, 0.002572622848674655, 0.0010810275562107563, -0.04741276428103447, -0.024175744503736496, 0.005624145269393921, 0.002941755810752511, -0.03618817403912544, -0.0126039432361722, -0.03968578949570656, -0.034713976085186005, -0.00851854495704174, -0.03607771918177605, 0.006601130589842796, -0.0019692389760166407, -0.010619323700666428, -0.019224543124437332, -0.021834522485733032, -0.032663919031620026, 0.000718052324373275, -0.020502492785453796, 0.010972925461828709, -0.02176472172141075, 0.012813377194106579, -0.02680179290473461, -0.009488447569310665, 0.00015338510274887085, -0.030435778200626373, -0.04358383268117905, -0.0006580297485925257, -0.04777742922306061, -0.015824662521481514, 0.008630068972706795, -0.012566556222736835, -0.034502431750297546, 0.013222073204815388, 0.013100073672831059, -0.03846701607108116, -0.03519205376505852, -0.017630059272050858, 0.00828358344733715, -0.019703509286046028, -0.05475619062781334, 0.003050203202292323, -0.03331378102302551, -0.014114543795585632, -0.026595663279294968, 0.006109552923589945, -0.03348525986075401, -0.045147605240345, -0.03966948017477989, 0.00312195997685194, -0.0223535243421793, -0.00522457342594862, -0.024121414870023727, -0.027466053143143654, 0.001153885037638247, 0.004227798897773027, 0.002567322226241231, 