{"fc1.bias": [-0.00949627161026001, -0.02186295948922634, 0.029473427683115005, 0.01674295961856842, 0.005495600402355194, -0.005020946264266968, 0.013103686273097992, 0.032412122935056686, 0.03128492459654808, 0.034147780388593674], "fc1.weight": [[-0.022236280143260956, 0.008062269538640976, -0.027246907353401184, -0.028672492131590843, -0.01477201096713543, -0.034998223185539246, -0.0019191205501556396, -0.004510922357439995, 0.014845717698335648, -0.013994630426168442, -0.00391889363527298, 0.024727407842874527, -0.032502103596925735, -0.027896324172616005, -0.023590795695781708, -0.013203352689743042, -0.03500136733055115, 0.029579248279333115, -0.03382181376218796, -0.03182315081357956, -0.010601120069622993, -0.01820368506014347, 0.016808822751045227, -0.02375883422791958, -0.006751272827386856, 0.019089508801698685, 0.02376173809170723, 0.012790370732545853, 0.004375766962766647, 0.002711974084377289, -0.0016748979687690735, -0.012948321178555489, -0.018176978453993797, -0.02035951241850853, -0.01668856479227543, -0.023485511541366577, 0.03079882636666298, 0.03287098929286003, 0.010836489498615265, -0.023232337087392807, -0.009031062945723534, -0.03025061823427677, -0.026035234332084656, -0.034462619572877884, 0.03500637039542198, 0.005212996155023575, -0.01902146451175213, -0.006500137969851494, -0.013132743537425995, -0.029265008866786957, 0.0018916204571723938, 0.006475113332271576, -0.01904098503291607, -0.018894728273153305, 0.025928668677806854, -0.03503694385290146, 0.00752277672290802, 0.010651465505361557, -0.014976030215620995, -0.008222106844186783, 0.018457185477018356, -0.011452756822109222, -0.034666091203689575, -0.0018302612006664276, -0.03162011504173279, -0.023288633674383163, 0.03244055435061455, 0.0350869856774807, 0.030461128801107407, 0.00685901939868927, 0.010334312915802002, -0.017160911113023758, 0.030400488525629044, -0.03338724374771118, -0.008539281785488129, -0.03177676722407341, -0.001970916986465454, -0.012593457475304604, 0.019476894289255142, 0.004672039300203323, -0.008047232404351234, 0.008685655891895294, -0.022759268060326576, -0.022614896297454834, 0.014582391828298569, 0.0029223598539829254, 0.018958285450935364, -0.025399133563041687, -0.035603780299425125, 0.010817665606737137, -0.0009098723530769348, -0.028785694390535355, -0.017911208793520927, 0.009907964617013931, -0.006173236295580864, 0.0009101629257202148, 0.02950146421790123, 0.013605762273073196, 0.031027700752019882, -0.023400750011205673, 0.018580272793769836, -0.014814270660281181, -0.009424205869436264, 0.018113993108272552, 0.017201803624629974, 0.02209947630763054, 0.01773487776517868, -0.003131043165922165, 0.02215517684817314, -0.010529676452279091, -0.028443537652492523, -0.001611020416021347, -0.020128872245550156, 0.03145107254385948, -0.03241784870624542, -0.03286100551486015, 0.03246444836258888, 0.035285960882902145, -0.03229204937815666, -0.009153388440608978, -0.014186212792992592, -0.013158407062292099, 0.020243659615516663, -0.0056889913976192474, 0.002384934574365616, 0.03419337794184685, -0.03153526410460472, -3.2436102628707886e-05, 0.027522575110197067, 0.032696936279535294, -0.03441595286130905, 0.0012783519923686981, 0.015608265995979309, 0.02696571871638298, 0.00042474642395973206, 0.01048121228814125, 0.01912664994597435, -0.0015904270112514496, 0.029379907995462418, -0.011896299198269844, 0.02449570596218109, -0.005277987569570541, 0.03121139481663704, 0.004218261688947678, 0.03352412208914757, -0.019678903743624687, 0.024849887937307358, 0.0018259286880493164, -0.03221765160560608, -0.03236813843250275, -0.024232635274529457, 0.004365451633930206, -0.028191473335027695, 0.02658912166953087, 0.00791238248348236, 0.008420463651418686, -0.007191658020019531, -0.030473612248897552, -0.020967284217476845, 0.024175599217414856, 0.02605612203478813, -0.03194835036993027, -0.01939820870757103, 0.01349278911948204, -0.002112101763486862, -0.0033756792545318604, 0.033097486943006516, 0.03154422715306282, 0.03373389318585396, 0.012155607342720032, 0.003186643123626709, -0.019915053620934486, -0.03091626986861229, 0.0037390775978565216, 0.028152693063020706, 0.004802793264389038, 0.028402645140886307, -0.026816245168447495, -0.029408983886241913, -0.030166711658239365, 0.0024191997945308685, 0.008959606289863586, 0.006820254027843475, 0.02955162152647972, 0.0031438246369361877, 0.00507466122508049, -0.01133437268435955, -0.03137623891234398, 0.03428638353943825, 0.035203706473112106, 0.025590863078832626, -0.008976085111498833, -0.0037141479551792145, 0.01716114953160286, -0.011677509173750877, -0.025194207206368446, -0.010193781927227974, 0.007620140910148621, 0.016611900180578232, -0.009601529687643051, 0.030060317367315292, 0.03256428614258766, -0.012288698926568031, -0.020449325442314148, -0.012988917529582977, -0.02426176145672798, -0.03335113823413849, -0.028938746079802513, 0.03216475620865822, 0.007496729493141174, 0.016035407781600952, -0.008799854665994644, -0.017179081216454506, -0.023423969745635986, -0.01906910166144371, 0.0026698894798755646, 0.009850174188613892, 0.029350820928812027, 0.02122923731803894, -0.03435032069683075, -0.027173638343811035, 0.028629321604967117, -0.016624191775918007, -0.024380438029766083, 0.014113470911979675, 0.01834753155708313, 0.018006902188062668, 0.018419567495584488, -0.02475949004292488, -0.0009297206997871399, 0.029944125562906265, 0.004361104220151901, -0.01517295092344284, -0.0033567026257514954, 0.0233219712972641, -0.035479508340358734, 0.0003571920096874237, 0.0003528110682964325, 0.03292439505457878, -0.021902374923229218, -0.02887413464486599, 0.023895345628261566, -0.01591351628303528, 0.005426023155450821, 0.026975806802511215, -0.03406062722206116, 0.013450678437948227, -0.007433705031871796, 0.025930993258953094, -0.029797883704304695, -0.028494317084550858, -0.027982505038380623, 0.03337441012263298, 0.03192634508013725, 0.002749372273683548, -0.00436738133430481, 0.010884217917919159, 0.01175011694431305, -0.01866276003420353, 0.006481558084487915, -0.031264178454875946, -0.005976315587759018, -0.033155448734760284, -0.0272589810192585, 0.03042842075228691, -0.01885114423930645, 0.032156940549612045, -0.02458609640598297, -0.011919166892766953, -0.00872236117720604, 0.026817675679922104, -0.01291157491505146, 0.00023858621716499329, 0.023845475167036057, 0.025197874754667282, 0.021148376166820526, -0.001168999820947647, 0.0317378006875515, 0.016643576323986053, -0.02155686914920807, 3.0972063541412354e-05, -0.02913077175617218, -0.01176411472260952, 0.008674301207065582, -0.033363088965415955, 0.035066958516836166, 0.0045703016221523285, -0.014342844486236572, -0.005642596632242203, 0.013742055743932724, -0.028023013845086098, 0.019414827227592468, 0.03498532995581627, 0.006213553249835968, 0.011476404964923859, -0.03184824436903, -0.02168693020939827, 0.004203040152788162, 0.00846773013472557, -0.016171269118785858, -0.012311309576034546, -0.017935719341039658, 0.03336239978671074, -0.031722038984298706, -0.03500257804989815, 0.028548259288072586, -0.009261110797524452, -0.007124446332454681, 0.028901826590299606, 0.0025359317660331726, -0.006903989240527153, 0.0192888081073761, 0.03544355556368828, -0.021525554358959198, -0.002296317368745804, -0.013539161533117294, -0.005124807357788086, 0.00377722829580307, -0.012516515329480171, 0.02019307017326355, 0.03412371501326561, -0.005571004003286362, -0.0010595694184303284, -0.03293938562273979, -0.02717115730047226, 0.022936198860406876, 0.014337684959173203, -0.02220558375120163, -0.034588780254125595, 0.021519754081964493, 0.0011264905333518982, 0.013646628707647324, -0.02414252981543541, 0.008826181292533875, 0.014595508575439453, -0.019431574270129204, 0.034640584141016006, -0.030395202338695526, -0.0252075158059597, -0.026265030726790428, 0.03077041730284691, -0.0025754235684871674, -0.002287011593580246, 0.009220335632562637, -0.03272848203778267, -0.025330297648906708, -0.013519300147891045, 0.028694752603769302, 0.029216129332780838, 0.007255967706441879, 0.002270776778459549, 0.02589661255478859, -0.01991034857928753, 0.021195244044065475, -0.0023487284779548645, 0.027815673500299454, -0.0004025772213935852, 0.02957245334982872, -0.002948727458715439, 0.025423292070627213, -0.031018991023302078, 0.03412627801299095, -0.024364719167351723, -0.028116807341575623, 0.006595887243747711, 0.03073630854487419, -0.030824080109596252, 0.013476908206939697, -0.017993655055761337, 0.025291427969932556, -0.02700813114643097, 0.010682810097932816, 0.02389863133430481, 0.018988177180290222, -0.00048523396253585815, 0.017914429306983948, -0.018137289211153984, -0.009590370580554008, -0.03119499981403351, 0.03424717113375664, 0.03240830823779106, 0.03303990140557289, 0.012421570718288422, -0.012236850336194038, -0.018217194825410843, 0.01742878556251526, 0.025441262871026993, 0.010190684348344803, 0.02078891173005104, -0.015202969312667847, -0.014721866697072983, 0.02826083078980446, -0.016341082751750946, -0.03380473703145981, 0.005792282521724701, -0.02387235499918461, -0.004269909113645554, -0.02763219177722931, -0.016950586810708046, 0.0063850730657577515, -0.023427069187164307, -0.022384963929653168, -0.01834860071539879, 0.01255868747830391, 0.02338867262005806, 0.01094362884759903, 0.024146154522895813, -0.014309952035546303, -0.03219497948884964, 0.005643464624881744, 0.004994280636310577, -0.02139057219028473, 0.03430933132767677, -0.002787504345178604, 0.02389272302389145, 0.006266925483942032, -0.0027023255825042725, 0.025529056787490845, 0.029124680906534195, 0.02429671585559845, -0.007130483165383339, 0.019391056150197983, -0.010863777250051498, 0.0044607482850551605, -0.03276674076914787, -0.006248887628316879, 0.006435725837945938, -0.02258802391588688, 0.01704123616218567, 0.03371714428067207, -0.022726409137248993, -0.016320843249559402, -0.004285823553800583, -0.020374413579702377, -0.014706544578075409, -0.023795828223228455, -0.009757651016116142, 0.030338820070028305, 0.03448832407593727, 0.01625814288854599, 0.019269462674856186, 0.006285686045885086, -0.011035250499844551, 0.015225954353809357, -0.02585534192621708, 0.02286117523908615, 0.028669442981481552, -0.0010864660143852234, -0.01851009577512741, -0.010624414309859276, -0.005616439506411552, -0.020300764590501785, -0.004568550735712051, -0.019504092633724213, 0.017405737191438675, -0.023012489080429077, 0.027178984135389328, -0.007864760234951973, -0.016766676679253578, -0.00257047638297081, -0.02835964411497116, 0.014269016683101654, -0.032232411205768585, 0.018944818526506424, -0.015140615403652191, 0.022657718509435654, -0.016361471265554428, 0.010133102536201477, 0.026996556669473648, -0.018064554780721664, 0.01638568937778473, -0.031163949519395828, 0.013760246336460114, 0.013987191021442413, 0.03139914199709892, -0.00591113418340683, 0.008676324039697647, -0.032574497163295746, 0.00933045893907547, 0.017836574465036392, -0.01694895140826702, 0.030191678553819656, 0.003677230328321457, -0.03245524317026138, -0.018825748935341835, -0.02000836841762066, 0.025861144065856934, 0.012958548963069916, 0.0023619160056114197, 0.028643261641263962, -0.01112748496234417, -0.01703503355383873, 0.028200875967741013, -0.011662142351269722, -0.01284998282790184, 0.004154033958911896, -0.03402061015367508, -0.012383593246340752, -0.014928877353668213, -0.03503837436437607, 0.01926727592945099, 0.0200406014919281, -0.013547327369451523, -0.021361906081438065, -0.02584971860051155, 0.007622957229614258, -0.010790383443236351, -0.013529127463698387, 0.025133322924375534, 0.00524694100022316, -0.014563076198101044, 0.027244891971349716, 0.012493614107370377, 0.0011996813118457794, 0.004857007414102554, -0.03300560265779495, 0.0053541697561740875, -0.003284897655248642, 0.034060489386320114, -0.011324921622872353, 0.016574110835790634, -0.029520049691200256, 0.011446859687566757, -0.022932862862944603, -0.004856172949075699, 0.02773294970393181, -0.023710260167717934, -0.0037854984402656555, 0.021014701575040817, 0.004420001059770584, 0.026347998529672623, 0.0310649536550045, 0.028937052935361862, -0.015341103076934814, 0.02653777226805687, -0.03465921804308891, -0.03256034106016159, 0.014988355338573456, 0.024401754140853882, -0.031135067343711853, -0.007133858278393745, -0.011956896632909775, -0.012207001447677612, -0.02225359156727791, -0.006356490775942802, -0.03152943402528763, -0.005025595426559448, 0.014334786683321, -0.002862062305212021, 0.018758997321128845, 0.031818684190511703, -0.029530679807066917, -0.007701423019170761, -0.006500286981463432, 0.018389564007520676, -0.027654483914375305, -0.0061194393783807755, -0.03190336376428604, 0.029683757573366165, -0.0021486803889274597, -0.018246762454509735, 0.005831331014633179, 0.034696418792009354, -0.014135003089904785, 0.033293481916189194, -0.010651074349880219, 0.03262495622038841, 0.0024709217250347137, -0.0030052922666072845, -0.021360743790864944, 0.026917222887277603, 0.019036080688238144, -0.012615418061614037, 0.03446873649954796, -0.007645441219210625, 0.014037754386663437, -0.0031394697725772858, -7.008388638496399e-05, 0.022265400737524033, -0.021665114909410477, -0.01760001853108406, -0.010225467383861542, 0.02310945838689804, -0.033236052840948105, 0.019119933247566223, 0.006921716034412384, -0.011510305106639862, -0.017306622117757797, 0.014890972524881363, 0.019410960376262665, 0.024243827909231186, -0.0010983645915985107, 0.03243215009570122, 0.0030398741364479065, 0.013551536947488785, 0.03145882114768028, 0.010816104710102081, -0.03464116156101227, -0.03284639120101929, 0.006076619029045105, -0.014451390132308006, -0.02693290449678898, 0.006804276257753372, 0.027548540383577347, 0.0031136907637119293, -0.0193502064794302, 0.009353064000606537, -0.004723770543932915, -0.02043631300330162, -0.026565471664071083, 0.03422883525490761, 0.012511663138866425, 0.020305603742599487, 0.007934197783470154, 0.029862042516469955, 0.032582785934209824, -0.02045649290084839, -0.012916041538119316, 0.02195267379283905, -0.02172292210161686, 0.0007552988827228546, -0.028510814532637596, 0.0011179372668266296, -0.003975454717874527, -0.011679351329803467, 0.03531802073121071, -0.0030835457146167755, -0.03429266810417175, 0.027986053377389908, 0.0054746828973293304, -0.0190513227134943, 0.0023571550846099854, -0.021499156951904297, 0.0038677752017974854, -0.034215047955513, 0.021559111773967743, 0.007561981678009033, 0.01548895612359047, 0.02770819142460823, -0.02620656229555607, -0.01774509623646736, -0.034990094602108, -0.029767893254756927, -0.0014938078820705414, 0.016664043068885803, 0.021581415086984634, -0.03036530315876007, -0.01985912397503853, 0.01989622786641121, -0.021884310990571976, -0.005523310974240303, 0.006533969193696976, -0.030680185183882713, 0.016241345554590225, -0.031142763793468475, 0.02291855216026306, 0.030758682638406754, -0.025605496019124985, -0.0027798227965831757, 0.01514052227139473, 0.008011925965547562, 0.023638766258955002, -0.007826443761587143, 0.02482496201992035, 0.02889775112271309, 0.014692384749650955, 0.005092717707157135, 0.02357211709022522, -0.027497410774230957, 0.035439383238554, 0.020308896899223328, 0.01460295170545578, 0.027940791100263596, -0.00946013443171978, -0.02981913648545742, -0.024791574105620384, 0.03389457240700722, 0.032714586704969406, 0.02098708599805832, -0.01195681095123291, -0.026421990245580673, -0.025564411655068398, -0.001062985509634018, 0.023406490683555603, -0.013007011264562607, 0.026250537484884262, -0.016484249383211136, 0.0019887909293174744, 0.01129140704870224, 0.017407938838005066, -0.02278321608901024, 0.02562035620212555, 0.026064779609441757, 0.0331905297935009, -0.020667988806962967, 0.007097039371728897, -0.022502630949020386, -0.03041721321642399, -0.013709532096982002, -0.010229017585515976, -0.024165460839867592, 0.016098447144031525, 0.008050110191106796, 0.02204575017094612, 0.010530665516853333, -0.010106725618243217, 0.008955772966146469, -0.009828507900238037, -0.03116750344634056, -0.0034619681537151337, 0.029631052166223526, -0.03291036933660507, -0.004863917827606201, -0.03024734929203987, -0.02997739054262638, -0.0016406551003456116, -0.02774810791015625, 0.0019716955721378326, 0.013871897011995316, 0.005962207913398743, 0.02678680792450905, -0.02169831097126007, -0.012417389079928398, 0.028180982917547226, -0.02320142090320587, 0.011826790869235992, -0.010074257850646973, 0.03319690003991127, 0.009503059089183807, -0.019458038732409477, 0.01520613580942154, -0.006019383668899536, -0.028777912259101868, -0.03476386144757271, -0.0028265155851840973, 0.004992958158254623, 0.0017611309885978699, -0.0138006042689085, -0.014964539557695389, -0.021174972876906395, 0.024117182940244675, 0.017029814422130585, 0.013630092144012451, 0.024518068879842758, 0.02063530683517456, -0.026210526004433632, -0.025106001645326614, 0.00530768558382988, -0.022452572360634804, 0.03365947678685188, 0.02226230874657631, -0.010539328679442406, -0.028216158971190453, 0.018686089664697647, -0.03437221050262451, -0.031421057879924774, -0.022128932178020477, 0.011590898036956787, 0.0254320427775383, 0.033223334699869156, 0.024435147643089294, 0.00538983941078186, -0.033469557762145996, 0.033372145146131516, -0.0005198493599891663, -0.017305618152022362, -0.014268394559621811, 0.020618263632059097, 0.018865317106246948, -0.024299707263708115, 0.03117625042796135, 0.016764670610427856, 0.0030333437025547028, 0.03461022302508354, -0.01712637022137642, -0.014363178983330727, -0.00840313546359539, -0.007838211953639984, -0.012995341792702675, 0.024205833673477173, 0.005151782184839249, 0.00718345120549202, -0.011799043044447899, -8.968636393547058e-05], [-0.0187491737306118, 0.012815885245800018, -0.03366931527853012, 0.005040552467107773, 0.0026439018547534943, 0.01890241727232933, -0.02616145834326744, 0.011739261448383331, -0.0038021020591259003, 0.009223133325576782, -0.014789395034313202, 0.017654426395893097, 0.018083766102790833, 0.004120539873838425, -0.024323955178260803, -0.01662546396255493, -0.029641445726156235, -0.00382411852478981, -0.019665975123643875, -0.00588117353618145, -0.025628618896007538, -0.0021505318582057953, 0.0286126546561718, 0.024153076112270355, -0.0006890594959259033, -0.0351804718375206, 0.028493497520685196, -0.012726938351988792, 0.026970800012350082, -0.016277816146612167, 0.010196909308433533, -0.021907228976488113, 0.03478556498885155, 0.015533540397882462, 0.013917595148086548, -0.0009249448776245117, 0.018891267478466034, 0.013006415218114853, -0.005095120519399643, 0.00671125203371048, 0.018351934850215912, 0.01928611844778061, 0.029101606458425522, -0.01824180595576763, 0.030879918485879898, -0.024463489651679993, -0.011910265311598778, 0.015728190541267395, 0.031155016273260117, -0.018034599721431732, -0.00526927225291729, 0.010642524808645248, 0.013740327209234238, 0.019863657653331757, 0.031914401799440384, -0.011305388063192368, 0.022806547582149506, -0.005379481241106987, -0.031033968552947044, -0.012722769752144814, 0.0006054118275642395, -0.016183316707611084, -0.02903539128601551, 0.00814567506313324, 0.010603867471218109, 0.012024566531181335, -3.6813318729400635e-05, -0.01955597847700119, 0.03175147995352745, -0.024181295186281204, -0.0296240895986557, 0.025929275900125504, -0.008365213871002197, -0.012593001127243042, -0.017953723669052124, -0.021281838417053223, -0.009009480476379395, -0.034830838441848755, -0.0040178075432777405, 0.010783791542053223, -0.030715547502040863, 0.021324053406715393, 0.014463581144809723, -0.019645892083644867, -0.030523573979735374, 0.03142843768000603, 0.0214981772005558, -0.004218515008687973, -0.03273560851812363, -0.02608563005924225, 0.028355222195386887, 0.025367412716150284, -0.00260118767619133, -0.03472044691443443, -0.02009700983762741, -0.01496296375989914, 0.021789327263832092, -0.0027653872966766357, -0.007091730833053589, -0.01603875122964382, -0.012702461332082748, 0.028356391936540604, -0.02640046551823616, -0.01574515551328659, 0.016655467450618744, -0.01047157496213913, 0.030840005725622177, 0.015367083251476288, -0.012471646070480347, -0.019503287971019745, -0.0018148384988307953, -0.023470457643270493, -0.030316732823848724, 0.0026569627225399017, 0.0033882930874824524, 0.0013974681496620178, 0.018135428428649902, 0.009146753698587418, -0.035648129880428314, -0.002617262303829193, 0.010270532220602036, -0.004171229898929596, -0.016895223408937454, -0.007367411628365517, 0.030223164707422256, 0.01511719822883606, 0.030710842460393906, 0.0027790628373622894, 0.006332460790872574, -0.013789551332592964, 0.006873477250337601, 0.025339387357234955, 0.012986857444047928, -0.010002970695495605, 0.00829390063881874, -0.003677528351545334, 0.004590429365634918, -0.02380463108420372, 0.00019830092787742615, -0.00951426476240158, -0.010668627917766571, -0.015488093718886375, 0.03330182656645775, 0.030521217733621597, 0.035124484449625015, -0.01622467115521431, 0.017848066985607147, -0.026142030954360962, -0.024173354730010033, -0.018905917182564735, 0.024171803146600723, -0.008056683465838432, 0.0336112342774868, -0.030800536274909973, 0.029218163341283798, -0.020781824365258217, -0.017298588529229164, 0.016477342694997787, 0.030252669006586075, -0.028927374631166458, -0.011755330488085747, -0.026135802268981934, -0.01150653325021267, -0.011300044134259224, 0.01641451194882393, -0.01386987417936325, 0.010062739253044128, -0.03154370188713074, 0.0340881310403347, 0.02469581738114357, 0.029159750789403915, 0.013070035725831985, -0.0006667152047157288, 0.029985737055540085, -0.028696129098534584, -0.017006296664476395, 0.013922072947025299, -0.012683814391493797, -0.01767767034471035, 0.0304114930331707, -0.03198518976569176, 0.020505808293819427, 0.017066169530153275, -0.029480446130037308, 0.024127375334501266, 0.032384242862463, 0.0027411319315433502, -0.021193215623497963, -0.028030017390847206, 0.023572996258735657, 0.034930963069200516, -0.01003861054778099, -0.017613863572478294, 0.028720904141664505, -0.026616796851158142, 0.017715785652399063, -0.012844579294323921, 0.002563837915658951, 0.016680870205163956, -0.020412825047969818, -0.0013064704835414886, 0.0323505662381649, 0.00446893647313118, -0.03141064569354057, -0.008022559806704521, 0.010682821273803711, 0.03448054566979408, 0.007458649575710297, -0.010288864374160767, 0.02804240956902504, 0.003213275223970413, -0.00536406971514225, -0.024293452501296997, 0.00030754879117012024, 0.016579464077949524, -0.031757157295942307, 0.0026118233799934387, 0.016591425985097885, -0.03252789005637169, 0.014708910137414932, -0.034991875290870667, 0.011719129979610443, -0.006537148728966713, 0.0006989799439907074, 0.01964941993355751, -0.027463719248771667, 0.02525392547249794, -0.022208180278539658, 0.0028302110731601715, -0.005847053602337837, -0.007296916097402573, -0.008121052756905556, -0.009360693395137787, 0.031024370342493057, -0.016092650592327118, 0.016299355775117874, -0.028393462300300598, -0.00047011300921440125, -0.015671947970986366, 0.028791431337594986, 0.02631891891360283, 0.011599410325288773, 0.021844040602445602, -0.027612168341875076, 0.030685972422361374, -0.007735695689916611, -0.024195024743676186, -0.033991336822509766, 0.026135172694921494, -0.001719992607831955, 0.01788588985800743, -0.030018415302038193, 0.006909869611263275, 0.021336734294891357, -0.015923548489809036, -0.029800930991768837, 0.008777782320976257, 0.018161877989768982, 0.02471216395497322, 0.02130977436900139, -0.0240069180727005, -0.010666221380233765, -0.0019007585942745209, 0.025399547070264816, -0.020432213321328163, 0.021810974925756454, -0.019210897386074066, -0.03499288484454155, -0.0057418812066316605, 0.025086674839258194, -0.032483555376529694, -0.0070507824420928955, -0.0347440205514431, 0.015446566045284271, 0.028972525149583817, 0.013419751077890396, 0.01343243196606636, 0.024944718927145004, 0.008872080594301224, -0.01924721710383892, -0.02352994680404663, 0.01010434702038765, -0.032081253826618195, 0.004226569086313248, -0.03203412517905235, 0.026540324091911316, 0.028146956115961075, 0.006060529500246048, 0.02157994732260704, -0.006466716527938843, -0.02856045588850975, -0.0305065605789423, -0.027052706107497215, -0.01603081449866295, 0.0030927658081054688, 0.005050055682659149, 0.005116719752550125, 0.026665661484003067, -0.015658698976039886, 0.027864035218954086, -0.034157462418079376, 0.014644451439380646, 0.011277690529823303, 0.007738128304481506, 0.024481195956468582, 0.01934843510389328, 0.03160184249281883, 0.00792129710316658, -0.0009042657911777496, 0.030926238745450974, -0.029063763096928596, -0.005606876686215401, 0.02723381295800209, -0.0024827495217323303, 0.02561825141310692, -0.028347238898277283, 0.018914252519607544, -0.02833108976483345, 0.03239233419299126, 0.026914771646261215, 0.013728126883506775, -0.02594015561044216, 0.004886094480752945, -0.03506472706794739, -0.0027605853974819183, 0.03365221247076988, 0.026029016822576523, 0.024609610438346863, 0.018948998302221298, 0.031048495322465897, 0.011954255402088165, 0.014182735234498978, 0.032867681235075, -0.022821133956313133, 0.010049022734165192, 0.028840068727731705, -0.022662270814180374, 0.021860241889953613, -0.0061614178121089935, 0.024954669177532196, 0.03538363799452782, 0.00796566903591156, 0.02025681361556053, 0.03084069862961769, -0.0200703926384449, -0.015103418380022049, -0.022614017128944397, 0.015053100883960724, 0.03402949497103691, -0.015302956104278564, -0.006405264139175415, -0.00845293141901493, 0.0025856271386146545, 0.034709129482507706, -0.03309924155473709, -0.006745252758264542, -0.002217233180999756, 0.03365056589245796, -0.028651461005210876, -0.033006392419338226, 0.019724909216165543, -0.0013534314930438995, 0.03470079228281975, -0.000176895409822464, -0.0013416334986686707, 0.0038399063050746918, -0.022846095263957977, -0.030040891841053963, -0.028309043496847153, -0.006194081157445908, -0.0352950319647789, 0.012598980218172073, 0.019185271114110947, 0.03148506209254265, 0.0017502009868621826, 0.01698153093457222, 0.03187303617596626, 0.00015601888298988342, -0.008149934932589531, 0.029272783547639847, 0.0027397945523262024, -0.021443240344524384, 0.02944083884358406, -0.023538731038570404, 0.010871917009353638, -0.012346761301159859, 0.021994158625602722, -0.013791941106319427, -0.0014355853199958801, 0.005694333463907242, -0.01483841985464096, -0.014316538348793983, 0.0353609062731266, -0.0290511641651392, -0.0349116176366806, -0.03337480127811432, -0.016870057210326195, 0.005837477743625641, -0.015457073226571083, -0.008139023557305336, -0.030884990468621254, -0.012191837653517723, 0.006391789764165878, 0.01672026515007019, -0.023048311471939087, 0.018829479813575745, 0.026852581650018692, -0.014171533286571503, -0.02078922465443611, 0.03212640807032585, 0.005358409136533737, 0.005766469985246658, -0.014474673196673393, 0.025883786380290985, -0.019994430243968964, -0.017790203914046288, 0.03200877830386162, 0.020363077521324158, 0.025953810662031174, -0.022021984681487083, -0.031205106526613235, 0.01849796622991562, 0.013722732663154602, -0.03201442211866379, 0.006383020430803299, -0.022238165140151978, -0.007922453805804253, 0.03400922939181328, 0.03372972086071968, -0.03099285066127777, -0.03533357009291649, 0.017305221408605576, -0.02884257398545742, -0.01776646450161934, 0.0074762701988220215, -0.007204605266451836, 0.02815493568778038, 0.0028881244361400604, -0.0013228319585323334, -0.029759395867586136, 0.026022817939519882, -0.017215674743056297, 0.018504492938518524, 0.027047697454690933, -0.007255673408508301, 0.02065914496779442, -0.01158224232494831, -0.010835355147719383, -0.00991762988269329, -0.025120314210653305, 0.0035517849028110504, -0.0112044308334589, 0.006892237812280655, 0.01425684243440628, -0.028952911496162415, -0.0036570653319358826, -0.027525166049599648, 0.004787806421518326, 0.013197943568229675, -0.02442324161529541, 0.021688643842935562, 0.032594408839941025, 0.006104316562414169, -0.011437514796853065, -0.011903047561645508, 0.0060161687433719635, 0.0113288052380085, 0.015205759555101395, 0.00766315683722496, 0.024575769901275635, -0.014830665662884712, 0.02348487824201584, 0.006341032683849335, -0.011963125318288803, -0.01363375037908554, 0.01177309826016426, -0.0060590896755456924, 0.013323608785867691, -0.018079068511724472, -0.017830146476626396, -0.03534126281738281, 0.0045603737235069275, -0.015125956386327744, 0.020005013793706894, -0.011636286973953247, 0.004230421036481857, -0.02462993934750557, 0.006298329681158066, -0.024861454963684082, -0.007905121892690659, 0.0015865825116634369, -0.01505368947982788, -0.002880129963159561, 0.01527019590139389, 0.03231503441929817, 0.006862223148345947, 0.017193183302879333, -0.020008917897939682, 0.009356055408716202, -0.01846865378320217, -0.0067820120602846146, -0.005974957719445229, -0.028679730370640755, -0.0018259547650814056, 0.025592494755983353, 0.015468806028366089, 0.007792200893163681, 0.031057078391313553, -0.017840884625911713, 0.022951815277338028, -0.004267390817403793, -0.001880146563053131, -0.004209015518426895, 0.0035494789481163025, -0.012159168720245361, 0.02590574324131012, -0.018885843455791473, -0.03419435769319534, -0.020676221698522568, 0.011599525809288025, 0.02962198480963707, -0.01313314400613308, 0.024663332849740982, -0.029324034228920937, 0.030805286020040512, 0.009424570947885513, 0.01235758513212204, 0.003978930413722992, -0.011594390496611595, -0.02780984342098236, -0.008925825357437134, 0.01163993775844574, 0.030453037470579147, 0.010903969407081604, 0.0015422925353050232, -0.012929044663906097, 0.016870934516191483, -0.022123903036117554, 0.028557267040014267, -0.020960574969649315, 0.0302027128636837, -0.01825706474483013, 0.013525683432817459, 0.00884326547384262, -0.022516697645187378, -0.03319777548313141, 0.019397620111703873, 0.00722246989607811, 1.0699033737182617e-05, -0.02468682825565338, -0.034414034336805344, -0.011254992336034775, -0.017340030521154404, -0.01160440407693386, 0.009349457919597626, 0.0013605952262878418, 0.033079613000154495, -0.001640506088733673, 0.03364911302924156, -0.032473187893629074, -0.01599089242517948, -0.006037943065166473, -0.028035884723067284, -0.023586109280586243, -0.005727019160985947, 0.01742221787571907, 0.02315215766429901, 0.012233246117830276, -0.007909068837761879, -0.021045124158263206, -0.030231084674596786, 0.01229260116815567, -0.0093056820333004, -0.032168567180633545, 0.008666001260280609, 0.01149621233344078, 0.0169823057949543, -0.01457398384809494, -0.004661308601498604, 0.022325996309518814, -0.009129643440246582, 0.004458267241716385, 0.008341170847415924, -0.027717510238289833, 0.022738449275493622, -0.02194070816040039, -0.029268687590956688, 0.0006417408585548401, -0.004263371229171753, -0.020220795646309853, 0.0002746507525444031, 0.012531396001577377, -0.011554144322872162, -0.02943628653883934, 0.017609290778636932, -0.00484846718609333, -0.02040252648293972, 0.00988970696926117, 0.010021913796663284, 0.006144192069768906, 0.025007400661706924, 0.03389144316315651, -0.019654138013720512, 0.006665606051683426, 0.02977820113301277, 0.015336867421865463, 0.006477661430835724, -0.003387685865163803, 0.03395703062415123, 0.01099485531449318, -0.0006536170840263367, 0.03569431230425835, -0.005603114143013954, -0.00923248752951622, -0.0024150945246219635, -0.0344100296497345, -0.02999945357441902, 0.021379809826612473, 0.03213841840624809, 0.0003053322434425354, 0.010039646178483963, 0.01280399039387703, 0.01123499870300293, 0.020784392952919006, -0.018446722999215126, -0.010561445727944374, 0.032186683267354965, 0.02965724840760231, -0.007205244153738022, -0.008867472410202026, -0.01635795459151268, -0.0021777451038360596, -0.0034728460013866425, -0.03558078408241272, 0.0034535229206085205, -0.011192522943019867, 0.0287165604531765, 0.03400556370615959, -0.005781494081020355, 0.0005186013877391815, 0.006343752145767212, 0.021412305533885956, -0.023259079083800316, 0.03070976957678795, -0.029482480138540268, -0.028583932667970657, 0.0148751400411129, 0.034501757472753525, 0.007800783962011337, 0.00070137158036232, -0.018280047923326492, 0.021451201289892197, 0.025826536118984222, 0.0076679810881614685, -0.00905994139611721, 0.020360972732305527, 0.017133738845586777, 0.009833205491304398, -0.01728888228535652, 0.01973668858408928, -0.010253941640257835, 0.023127343505620956, -0.027508333325386047, 0.012286819517612457, -0.018283942714333534, -0.03178498148918152, 0.0020003020763397217, -0.03343924880027771, -0.004720620810985565, -0.0061163268983364105, 0.029985923320055008, -0.0073072053492069244, -0.002337973564863205, 0.011275369673967361, 0.03155352547764778, -0.014280064031481743, -0.002027805894613266, 0.014929890632629395, -0.02862142026424408, -0.007063422352075577, 0.015640385448932648, -0.009377211332321167, -0.032858870923519135, -0.006081053987145424, -0.013628296554088593, -0.0065803322941064835, -0.03246216103434563, 0.03244476392865181, 0.0010548047721385956, 0.021386489272117615, 0.004868227988481522, -0.022269897162914276, 0.02538999170064926, 0.010807264596223831, -0.014058049768209457, 0.0279587022960186, 0.003566361963748932, 0.019571691751480103, -0.01611372083425522, 0.02471991628408432, 0.03364880755543709, 0.03391038998961449, 0.030601803213357925, -0.002620253711938858, 0.030288483947515488, -0.002531919628381729, -0.02579340897500515, 0.0018657036125659943, -0.03112093172967434, -0.021364545449614525, 0.012833207845687866, -0.01135287620127201, -0.028046315535902977, -0.0008874274790287018, 0.007941331714391708, -0.0032431557774543762, -0.027985986322164536, 0.01981183886528015, 0.0006669051945209503, -0.019223222509026527, -0.002839948982000351, -0.03340660035610199, 0.03514738753437996, -0.029610738158226013, -0.022482192143797874, 0.010341104120016098, -0.011027881875634193, 0.02776540443301201, -0.005970299243927002, -0.02704439125955105, -0.031654175370931625, -0.029678091406822205, 0.02486157789826393, -0.006130751222372055, -0.0081980861723423, -0.027301976457238197, 0.0016013756394386292, -0.026818081736564636, -0.009732306003570557, 0.007127072662115097, 0.017850764095783234, -0.022898249328136444, 0.0027184784412384033, -0.016756705939769745, 0.0042208172380924225, 0.012870900332927704, -0.004366565495729446, -0.0022582635283470154, -0.0028384141623973846, 0.004734151065349579, 0.0009399428963661194, -0.013248533010482788, -0.006846019998192787, 0.0029631033539772034, -0.027194131165742874, -0.025788564234972, -0.014050671830773354, -0.007909715175628662, -0.012839263305068016, -0.032215990126132965, -0.0029240883886814117, -0.004905343055725098, -0.026715919375419617, -0.02029939740896225, 0.028988059610128403, 0.03027014061808586, -0.01144811138510704, 0.011595554649829865, -0.023696113377809525, -0.020146243274211884, 0.000539582222700119, 0.0023268237709999084, 0.00767294317483902, 0.020676646381616592, -0.013003077358007431, 0.010917659848928452, 0.01836421713232994, -0.02544398047029972, 0.0341753326356411, -0.03422863036394119, -0.023454662412405014, 0.006701502948999405, -0.009167926385998726, -0.01045718789100647], [-0.009620437398552895, 0.016647692769765854, 0.023732665926218033, -0.004222322255373001, 0.032963816076517105, -0.022203663364052773, 0.016339335590600967, -0.019071796908974648, 0.03195879980921745, -0.007983813062310219, -0.002262897789478302, 0.0023712031543254852, -0.025368040427565575, 0.022890735417604446, -0.025612883269786835, 0.028019357472658157, 0.004970945417881012, -0.016985362395644188, 0.021945860236883163, 0.007513109594583511, 0.029896143823862076, -0.021792173385620117, 0.014571882784366608, 0.0272073857486248, -0.003335658460855484, 0.016962047666311264, 0.005724247545003891, -0.0307606253772974, -0.011741289868950844, -0.03131416067481041, 0.035396527498960495, -0.020625269040465355, 0.01636524498462677, 0.0044013746082782745, 0.018750939518213272, -0.00451723113656044, -0.023817021399736404, -0.0336950421333313, 0.006792895495891571, -0.020845064893364906, -0.016522694379091263, 0.02283509075641632, -0.014688752591609955, -0.006490644067525864, 0.01495090126991272, -0.032589543610811234, 0.03378249332308769, -0.021002374589443207, 0.012291308492422104, -0.019766386598348618, -0.009009268134832382, 0.007274992763996124, -0.00861339457333088, -0.003689836710691452, 0.033965904265642166, 0.031116250902414322, 0.015176348388195038, 0.011940095573663712, -0.006432287395000458, -0.028701337054371834, -0.008881757035851479, -0.024528875946998596, 0.027839165180921555, -0.013312676921486855, -0.0321122482419014, 0.0023852400481700897, 0.024164605885744095, -0.0013175904750823975, -0.010455681011080742, 0.019153796136379242, -0.025687895715236664, -0.01706000417470932, 0.008335456252098083, -0.030834432691335678, -0.0162431001663208, 0.03133813664317131, -0.030671516433358192, -0.02877424657344818, -0.0340702198445797, -0.025063559412956238, -0.00205148383975029, -0.028850259259343147, -0.031223809346556664, -0.03463434427976608, 0.021398887038230896, -0.001765180379152298, -0.015302833169698715, 0.0039015822112560272, -0.03037385083734989, 0.023216184228658676, 0.02963836118578911, 0.0010506734251976013, 0.0327787883579731, 0.01066899299621582, -0.030156072229146957, 0.007011696696281433, -0.009451411664485931, -0.02988113835453987, -0.016796952113509178, -0.023139506578445435, -0.022706646472215652, -0.029236560687422752, -0.023794570937752724, -0.0032466016709804535, -0.016173027455806732, -0.013566073030233383, -0.030813759192824364, 0.029355313628911972, 0.0060500167310237885, -0.03344334661960602, 0.016354843974113464, 0.029196251183748245, 0.014892388135194778, 0.0053387172520160675, 0.0023004598915576935, 0.02688705548644066, -0.02789444290101528, -0.028445206582546234, -0.012181350961327553, -0.0004969649016857147, -0.021352075040340424, 0.011711224913597107, 0.02689720317721367, 0.02304491400718689, 0.01483805850148201, 0.028325822204351425, 0.026073921471834183, 0.02338625118136406, 0.02842305228114128, 0.003943305462598801, 0.019176457077264786, 0.029843050986528397, -0.03169337660074234, -0.0192117877304554, -0.024110063910484314, -0.03125353530049324, 0.024495627731084824, 0.018117252737283707, 0.011510372161865234, 0.013157833367586136, 0.014752063900232315, 0.007868029177188873, 0.0005331821739673615, 0.006780371069908142, -0.032440848648548126, 0.014589477330446243, 0.011756811290979385, -0.02823970653116703, 0.014550656080245972, -0.004177957773208618, -0.023106474429368973, -0.026376981288194656, -0.029499923810362816, -0.02418101392686367, -0.025166645646095276, -0.02680104598402977, 0.0016201362013816833, -0.010915083810687065, -0.021744469180703163, 0.02217913791537285, -0.022917713969945908, 0.016107823699712753, 0.011591430753469467, -0.022590825334191322, -0.024949854239821434, -0.030618110671639442, -0.008070187643170357, -0.017077825963497162, -0.003299381583929062, -0.00218408927321434, 0.025908321142196655, -0.004101075232028961, 0.023703396320343018, 0.034139130264520645, -0.01103113777935505, 0.01927277073264122, 0.024974487721920013, 0.011227019131183624, -0.017275743186473846, -0.03291130065917969, 0.006900615990161896, -0.011747932061553001, 0.03067127987742424, -0.024563603103160858, 0.004997167736291885, -0.004497472196817398, 0.006132014095783234, -0.002965182065963745, -0.027556782588362694, 0.007132038474082947, -0.03564462065696716, 0.0069394297897815704, 0.011894401162862778, 0.02579382434487343, -0.008957220241427422, -0.0037267394363880157, 0.02664106711745262, -0.005055669695138931, 0.026065528392791748, -0.012139508500695229, 0.009102702140808105, 0.032870110124349594, 0.00218408927321434, -0.02404763177037239, 0.021562527865171432, 0.015008706599473953, 0.009212560951709747, 0.03220400586724281, 0.0003004781901836395, 0.0010193102061748505, -0.021631084382534027, 0.025494936853647232, -0.0017268098890781403, 0.024244170635938644, 0.019416525959968567, -0.02024616301059723, 0.02485077455639839, 0.00969836488366127, 0.005009736865758896, -0.018886758014559746, -0.014677124097943306, -0.029055137187242508, 0.01333751529455185, -0.03519441559910774, -0.029101887717843056, -0.028995715081691742, 0.026447560638189316, -0.02628117799758911, 0.006393447518348694, 0.009540274739265442, 0.016126736998558044, -0.006962954998016357, -0.03038792312145233, 0.0041236840188503265, -0.017033526673913002, -0.0007088072597980499, 0.0016310736536979675, -0.01662943698465824, -0.006428586319088936, 0.026834692806005478, 0.024913135915994644, -0.02266208827495575, 0.019855216145515442, -0.0028527043759822845, 0.03295223042368889, 0.02316279709339142, 0.03396579250693321, 0.012869477272033691, -0.015028316527605057, 0.019038517028093338, 0.024777404963970184, -0.006492525339126587, 0.0344693697988987, -0.01291210763156414, -0.005067948251962662, 0.024394523352384567, 0.004694145172834396, 0.021984469145536423, -0.0023952387273311615, -0.019979622215032578, 0.028908181935548782, 0.01099955290555954, 0.0016109421849250793, 0.011454887688159943, 0.005901720374822617, -0.01142081618309021, -0.0036505945026874542, 0.0058138929307460785, 0.020995397120714188, -0.029766790568828583, 0.027225445955991745, -0.031606510281562805, 0.02489301934838295, -0.02034519985318184, 0.02776140347123146, 0.0021572671830654144, -0.0063217319548130035, 0.003949757665395737, 0.03455856069922447, 0.012644670903682709, 0.02420360967516899, -0.011325322091579437, 0.03040393814444542, -0.026341136544942856, -0.025199346244335175, 0.005011085420846939, 0.029476147145032883, -0.032220259308815, 0.026528596878051758, 0.0036012306809425354, -0.007383601740002632, -0.03013487160205841, 0.010979916900396347, 0.033071380108594894, 0.028828632086515427, -0.02570296823978424, 0.007347926497459412, -0.0004204772412776947, 0.01613691821694374, 0.03195333108305931, 0.032441336661577225, 0.016926489770412445, 0.03212122246623039, 0.004405133426189423, 0.0240507610142231, 0.011148117482662201, 0.02015586942434311, -0.01853892207145691, 0.022724736481904984, -0.02689860761165619, -0.01702616922557354, -0.033490292727947235, 0.030734580010175705, 0.03165123984217644, -0.02843550778925419, -0.020172446966171265, 0.008457750082015991, -0.01200808770954609, -0.023655526340007782, 0.030567768961191177, 0.026588167995214462, -0.012080950662493706, 0.004456009715795517, -9.391829371452332e-05, -0.00676017627120018, 0.0063273049890995026, 0.004582587629556656, 0.013680152595043182, 0.0017829127609729767, 0.008426014333963394, -0.005532115697860718, -0.0023402459919452667, 0.0245257169008255, 0.031784433871507645, -0.024942979216575623, 0.01158381998538971, 0.029089350253343582, -0.006260093301534653, 0.012076251208782196, -0.016567103564739227, -0.014134496450424194, 0.031038571149110794, 0.03372589871287346, -0.009960293769836426, -0.015262901782989502, -0.012693874537944794, -0.021559473127126694, 0.035001810640096664, -0.022225260734558105, 0.008469481021165848, -0.022749055176973343, 0.035447243601083755, -0.016824718564748764, -0.022406548261642456, -0.030607672408223152, 0.028219733387231827, 0.030904624611139297, -0.004390653222799301, -0.008607016876339912, -0.012621667236089706, 0.03177810087800026, -0.01794198714196682, -0.022115278989076614, -0.0030477121472358704, 0.015370931476354599, 0.026998724788427353, 0.01878507062792778, 0.03157266601920128, -0.015161370858550072, 0.016039010137319565, -0.02431812882423401, 0.008070196956396103, -0.03532546013593674, 0.007894102483987808, -0.02108171209692955, -0.013466179370880127, -0.019636064767837524, 0.02686842903494835, -0.013632290065288544, 0.019419368356466293, -0.02994825690984726, -0.030138064175844193, -0.010337315499782562, 0.014811351895332336, 0.016879159957170486, -0.00830591656267643, 0.027277503162622452, 0.018398605287075043, 0.00915927067399025, 0.007604822516441345, -0.034699078649282455, 0.014816418290138245, 0.01963537558913231, 0.021836083382368088, 0.023661475628614426, -0.033861082047224045, -0.03049536794424057, -0.029459545388817787, -0.023112723603844643, -0.03449137881398201, -0.016505008563399315, 0.03304683044552803, 0.032401543110609055, -0.028544984757900238, 0.013807691633701324, 0.01944812387228012, 0.009340353310108185, -0.012403232976794243, 0.026799451559782028, 0.023866578936576843, 0.026345863938331604, -0.0016854293644428253, 0.033876944333314896, 0.02115454152226448, -0.03280242532491684, -0.025989465415477753, 0.021883796900510788, -0.03514949977397919, -0.0062755439430475235, 0.025868501514196396, -0.03062218613922596, -0.02421325445175171, 0.02127494290471077, -0.004403531551361084, 0.025243233889341354, -0.0029399506747722626, -0.021829256787896156, 0.03495393320918083, 0.002862006425857544, -0.03333117067813873, -0.001741170883178711, -0.03564828634262085, 0.023034214973449707, -0.018836408853530884, 0.022454027086496353, -0.01583503559231758, -0.006198260933160782, 0.01810305193066597, -0.006489299237728119, -0.01751544699072838, -0.009714646264910698, 0.006587602198123932, 0.034719761461019516, 0.002023465931415558, -0.019283384084701538, -0.007070720195770264, -0.020808145403862, -0.03558860346674919, 0.017791688442230225, 0.015887930989265442, -0.019439855590462685, -0.034799303859472275, 0.029054854065179825, -0.01028168760240078, -0.023379921913146973, -0.005057547241449356, -0.01423310860991478, 0.03490028902888298, -0.028142649680376053, -0.033262863755226135, -0.008205946534872055, -0.0009668804705142975, 0.014381173998117447, -0.0308652576059103, 0.0030836351215839386, 0.016838211566209793, -0.00011068955063819885, 0.021113473922014236, -0.01166255958378315, 0.00566486269235611, 0.014239586889743805, 0.011706370860338211, -0.015145830810070038, 0.015401411801576614, -0.020450014621019363, 0.02556678280234337, 0.03321054205298424, 0.0032198242843151093, -0.00990799069404602, -0.012942975386977196, -0.0017430968582630157, -0.023642387241125107, 0.006284154951572418, -0.03126433491706848, -0.02323809824883938, 0.007990226149559021, -0.025993455201387405, -0.01369265653192997, 0.012891024351119995, -0.0035603344440460205, -0.021572019904851913, 0.03337237611413002, -0.02025640942156315, 0.013914376497268677, -0.012775391340255737, -0.020050471648573875, -0.01695134863257408, 0.00412391871213913, 0.01967969536781311, 0.011821269989013672, -0.020714253187179565, -0.0017500929534435272, 0.016557030379772186, 0.01324358582496643, 0.008238878101110458, 0.0006210766732692719, 0.006862100213766098, 0.0031533651053905487, 0.030888881534337997, -0.009030781686306, 1.7356127500534058e-05, -0.01102256029844284, 0.022786740213632584, -0.024181589484214783, -0.001705564558506012, 0.025241218507289886, -0.015734443441033363, 0.014846313744783401, -0.019123315811157227, 0.03548220172524452, -0.01687367632985115, -0.010176489129662514, -0.017738891765475273, 0.01877720281481743, -0.018613914027810097, 0.01247306540608406, 0.023431509733200073, -0.016312092542648315, -0.02600359544157982, 0.023962900042533875, 0.0009386278688907623, 0.008469954133033752, -0.010675158351659775, -0.01516992412507534, 0.026683736592531204, 0.002753887325525284, 0.015247426927089691, 0.02131449431180954, -0.016156423836946487, 0.005201365798711777, -0.031031107529997826, 0.024015747010707855, 0.016156241297721863, -0.03366582840681076, 0.03287869319319725, 0.02094879373908043, -0.007084326818585396, -0.008710239082574844, 0.004575591534376144, 0.002125687897205353, 0.035009000450372696, 0.007359970360994339, -0.013985050842165947, -0.03117179125547409, 0.004246760159730911, -0.03125472739338875, -0.00011662393808364868, 0.01801231876015663, -0.007196439430117607, 0.017685815691947937, -0.018953822553157806, -0.007372239604592323, -0.021670807152986526, 0.014939896762371063, 0.008091207593679428, -8.035823702812195e-05, 0.024983149021863937, -0.013491690158843994, -0.017408380284905434, 0.02076307311654091, -0.0007543861865997314, 0.03479698672890663, 0.025729674845933914, -0.03007667139172554, 0.006166040897369385, -0.00844835489988327, 0.014400240033864975, 0.015145480632781982, -0.0268966443836689, 0.003468334674835205, -0.013503819704055786, 0.019551556557416916, -0.0014858134090900421, -0.028595419600605965, -0.027089780196547508, 0.02352040261030197, -0.016826540231704712, 0.00708935409784317, 0.0008024163544178009, 0.013993017375469208, -0.026652082800865173, -0.022523578256368637, 0.02449120581150055, -0.011622408404946327, -0.012163175269961357, 0.010152041912078857, -0.004498869180679321, -0.034609004855155945, -0.002147287130355835, 0.018213164061307907, 0.019412890076637268, 0.02723509445786476, -0.012986017391085625, 0.02555389329791069, 0.010114748030900955, 0.027566853910684586, 0.027025017887353897, -0.002002377063035965, -0.010037153959274292, 0.02847610041499138, 0.030131172388792038, 0.01780589669942856, -0.003606785088777542, 0.033980559557676315, 0.024308089166879654, -0.027650246396660805, -0.028958501294255257, 0.0004436373710632324, -0.020567512139678, 0.006256312131881714, 0.026410900056362152, 0.013163942843675613, 0.029574383050203323, -0.023458659648895264, 0.03262222930788994, 0.02770772948861122, -0.018258849158883095, -0.009480677545070648, -0.011624127626419067, 0.020155802369117737, -0.010629087686538696, -0.016225555911660194, -0.0300154946744442, 0.003813408315181732, 0.009732358157634735, 0.02484719082713127, 0.02095039188861847, 0.023170344531536102, 0.019290141761302948, -0.020020630210638046, -0.003530602902173996, 0.0353056900203228, -0.008287442848086357, 0.03327563777565956, -0.02741977572441101, -0.00965094193816185, -0.0060677360743284225, -0.027856789529323578, 0.031611714512109756, -0.02507992461323738, 0.021824538707733154, 0.007166687399148941, -0.00024680420756340027, -0.029985573142766953, 0.020697910338640213, -0.02525787428021431, -0.005668751895427704, 0.005148828029632568, 0.0349392332136631, -0.001630924642086029, -0.017240772023797035, 0.015446946024894714, 0.014805320650339127, 0.03367335721850395, -0.0310101006180048, -0.009899383410811424, -0.015591580420732498, 0.02367490902543068, 0.015423048287630081, -0.034702520817518234, -0.025433188304305077, -0.015817774459719658, 0.029364939779043198, 0.011929262429475784, 0.0321168415248394, -0.01853097788989544, -0.008989280089735985, -0.005045771598815918, 0.011007007211446762, -0.02819075435400009, 0.016544226557016373, -0.03186816722154617, -0.02962801419198513, -0.014080427587032318, -0.03320130705833435, -0.011722927913069725, -0.023997465148568153, -0.01744290068745613, -0.0012556873261928558, -0.027615830302238464, -0.02289535477757454, -0.02184610813856125, -0.029342329129576683, -0.010722480714321136, -0.00315132737159729, 0.024597574025392532, -0.03506059944629669, -0.018770933151245117, -0.014457549899816513, 0.01457984745502472, 0.030359428375959396, -0.026668868958950043, 0.0006906650960445404, 0.004894603043794632, -0.035606663674116135, 0.03207535669207573, 0.013901270925998688, 0.023953769356012344, -0.017507553100585938, 0.003493513911962509, -0.021608412265777588, -0.017555637285113335, -0.007736699655652046, 0.01725083217024803, 0.03508460894227028, 0.010113514959812164, 0.007126443088054657, 0.021396726369857788, -0.027344807982444763, -0.02205761894583702, -0.027721073478460312, 0.00937018170952797, 0.028617296367883682, 0.0038125403225421906, -0.00988687016069889, -0.012398166581988335, -0.014706088230013847, -0.0027083642780780792, 0.01906084641814232, -0.019283542409539223, 0.029782738536596298, 0.013899058103561401, -0.00010934844613075256, 0.021052610129117966, 0.012706011533737183, 0.034869592636823654, -0.00020365044474601746, -0.008109936490654945, -0.0028651058673858643, 0.011661455035209656, 0.019336428493261337, 0.029294852167367935, 0.006616022437810898, 0.005982354283332825, 0.008354861289262772, 0.014193236827850342, -0.03412221744656563, 0.02330596372485161, 0.009366601705551147, 0.030440669506788254, 0.03305494412779808, -0.02949773147702217, -0.02557504177093506, 0.0322512723505497, -0.03244894742965698, 0.03327491506934166, -0.03233153373003006, 0.03319044038653374, -0.02276276797056198, 0.026854511350393295, -0.00261818990111351, 0.030462663620710373, 0.01700487732887268, -0.01707232929766178, 0.00912800058722496, -0.017586151137948036, 0.014676902443170547, -0.007126025855541229, -0.005016190931200981, 0.0006210394203662872, -0.014579931274056435, 0.01300014927983284, 0.027826327830553055, 0.010721016675233841, 0.027177076786756516, 0.014206994324922562, -0.024814948439598083, -0.0021190233528614044, -0.03292252495884895, -0.012133007869124413, 0.016872599720954895, 0.011059898883104324, 0.035129133611917496, -0.029366644099354744], [-0.022953331470489502, 0.014400932937860489, 0.027389798313379288, 0.00526779517531395, 0.013294357806444168, -0.004920516163110733, 0.024019990116357803, 0.03202686086297035, -0.013910140842199326, -0.006110724061727524, 0.001426495611667633, -0.01685238443315029, -0.004469672217965126, 0.03459063544869423, 0.009405042976140976, -0.0034211203455924988, -0.008099406957626343, 0.017149806022644043, 0.01021825522184372, -0.026546496897935867, 0.02226749062538147, 0.008494675159454346, 0.0041470713913440704, -0.02375723421573639, -0.03384906053543091, -0.013483703136444092, -0.006459258496761322, -0.03215688467025757, 0.031495895236730576, -0.018361952155828476, 0.009345345199108124, -0.022963857278227806, -0.035498619079589844, 0.005122631788253784, 0.0017506442964076996, 0.018085431307554245, 0.02070586010813713, -0.0278843492269516, -0.024090290069580078, 0.008628226816654205, 0.020946964621543884, 0.006190899759531021, 0.005242675542831421, -0.0022926293313503265, -0.02046079933643341, -0.031230511143803596, 0.007883094251155853, 0.02375459298491478, 0.010975494980812073, -0.007120490074157715, 0.028757598251104355, 0.0034921765327453613, -0.005965437740087509, -0.031863559037446976, 0.003110170364379883, -0.025560162961483, -0.014094250276684761, 0.010017871856689453, -0.032911267131567, -0.020338699221611023, -0.02449333667755127, 0.016245950013399124, -0.03234931454062462, -0.031468674540519714, 0.01953946426510811, -0.035385362803936005, -0.009260641410946846, 0.023240044713020325, -0.03273481875658035, -0.025263573974370956, 0.004090931266546249, -0.030262978747487068, -0.02245524525642395, 0.035120222717523575, -0.011639855802059174, -0.01567358709871769, 0.0030440501868724823, 0.00950486958026886, -0.028691085055470467, -0.023476053029298782, 0.03564764931797981, -0.020035233348608017, -0.01553281769156456, 0.023497413843870163, -0.02438422292470932, 0.013057906180620193, 0.030909080058336258, 0.01072397455573082, -0.005826026201248169, -0.02113836631178856, -0.016513343900442123, 0.022821370512247086, 0.019141655415296555, 0.027161341160535812, -0.03543035686016083, 0.03495318070054054, 0.026990149170160294, -0.00551900640130043, 0.013567417860031128, -0.017497748136520386, -0.029447153210639954, 0.01653240993618965, 0.020375505089759827, 0.033514972776174545, 0.033574920147657394, 0.01364598423242569, -0.025252215564250946, 0.0012324787676334381, 0.0048176683485507965, -0.02117268741130829, -0.004613714292645454, -0.013172907754778862, -0.0014822594821453094, 0.017127513885498047, 0.015696395188570023, -0.023536095395684242, 0.026696596294641495, -0.012118557468056679, -0.02767542004585266, 0.0004439540207386017, -0.004617784172296524, -0.002589073032140732, 0.02413839101791382, 0.007738560438156128, 0.035627271980047226, 0.008812930434942245, -0.03222903609275818, -0.02389146387577057, 0.022566288709640503, -0.02283237874507904, -0.025792017579078674, -0.011799579486250877, -0.020640626549720764, -0.024421829730272293, -0.032512664794921875, 0.0008055567741394043, 0.02870388701558113, -0.01187773235142231, 0.023141782730817795, -0.030214348807930946, -0.0031764768064022064, -0.00804319977760315, 0.017975710332393646, 0.031977031379938126, -0.0006398558616638184, 0.03329957649111748, 0.009827617555856705, 0.02447940781712532, 0.009091705083847046, 0.013350758701562881, 0.00432080402970314, 0.0027030333876609802, -0.016256440430879593, 0.008824743330478668, -0.023950926959514618, 0.025886647403240204, 0.01099349930882454, 0.030538145452737808, 0.008992884308099747, -0.024917641654610634, -0.03370209038257599, 0.012815918773412704, 0.02750309929251671, -0.005809519439935684, -0.003589581698179245, 0.01849261298775673, 0.02961079403758049, 0.017708543688058853, 0.016531065106391907, -0.009808562695980072, -0.004748135805130005, 0.010829094797372818, 0.033812541514635086, 0.026822339743375778, -0.0008961521089076996, 0.03302692994475365, -0.003118027001619339, 0.029072027653455734, 0.006041541695594788, 0.02296069636940956, -0.021026501432061195, -0.002144787460565567, 0.02412020042538643, 0.02057330682873726, 0.009700179100036621, 0.006218470633029938, -0.03060312010347843, -0.034547358751297, -0.032145630568265915, 0.010066628456115723, -0.004886500537395477, 0.003992240875959396, 0.032484639436006546, 0.003184579312801361, 0.02548496052622795, 0.009020660072565079, -0.024546105414628983, 0.020533427596092224, 0.008749991655349731, -0.009399320930242538, -0.018421361222863197, -0.03229762241244316, 0.0065070465207099915, -0.02882387489080429, 0.031304981559515, 0.018797587603330612, -0.01197809912264347, 0.0015753433108329773, -0.033841948956251144, -0.007745862007141113, -0.006548367440700531, 0.019232656806707382, -0.008331391960382462, 0.003121364861726761, 0.00861617922782898, 0.016592565923929214, 0.008963719010353088, 0.033853236585855484, 0.026200972497463226, -0.011752903461456299, 0.020667310804128647, -0.0010667629539966583, -0.03263082727789879, 0.02823089435696602, 0.029759112745523453, -0.020310211926698685, 0.007350388914346695, 0.012746788561344147, 0.011753514409065247, 0.03211678937077522, 0.0173674114048481, -0.0029537901282310486, 0.03487275168299675, -0.0010671652853488922, 1.6044825315475464e-05, 0.029467817395925522, -0.011047717183828354, 0.027625057846307755, -0.019862303510308266, 0.003505248576402664, -0.02111978828907013, -0.027730679139494896, -0.0191390048712492, -0.030192317441105843, -0.03357063606381416, -0.0028656087815761566, -0.02042768895626068, -0.008896760642528534, -0.02481510117650032, 0.035631608217954636, -0.0027076713740825653, 0.03209579363465309, -0.00720471516251564, -0.03317195922136307, 0.011589914560317993, 0.030677925795316696, -0.004851400852203369, -0.03013301081955433, 0.014411602169275284, -0.014417396858334541, 0.012331780046224594, -0.026896465569734573, -0.022489994764328003, 0.03161199763417244, -0.02648039534687996, 0.025008246302604675, -0.001578986644744873, 0.001418236643075943, -0.010279260575771332, -0.01535101979970932, 0.004754703491926193, -0.0028158314526081085, 0.030201468616724014, 0.030329834669828415, -0.032659851014614105, 0.0039900727570056915, -0.01761588454246521, -0.004719343036413193, -0.016226751729846, 0.021694693714380264, 0.010603103786706924, 0.0009016618132591248, -0.02915269322693348, 0.0321839414536953, 0.032467346638441086, -0.014946741983294487, 0.012420300394296646, 0.022571105509996414, 0.011149127036333084, -0.025613650679588318, 0.01028655469417572, -0.026787273585796356, 0.010173525661230087, 0.012770380824804306, -0.004710160195827484, -0.01695786789059639, -0.009488515555858612, -0.032858915627002716, -0.011647939682006836, 0.022517386823892593, -0.010873880237340927, 0.0019470155239105225, 0.01902436465024948, -3.819912672042847e-05, -0.02379452809691429, -0.008268147706985474, 0.030227188020944595, -0.024711549282073975, 0.02491006627678871, -0.0326973982155323, -0.01677679270505905, 0.035333115607500076, 0.0028915219008922577, -0.006345758214592934, -0.03480420634150505, -0.000302974134683609, 0.01297825574874878, -0.033510372042655945, -0.002396371215581894, 0.006647258996963501, -0.02521098591387272, 0.020575478672981262, 0.014659542590379715, 0.014502093195915222, 0.034208010882139206, 0.020915579050779343, -0.00031577423214912415, -0.01800847053527832, 0.006625141948461533, 0.014618638902902603, 0.003171037882566452, 0.004227060824632645, -0.018954869359731674, -0.016253991052508354, 0.01955532655119896, -0.0015288777649402618, -0.003468479961156845, 0.023536723107099533, -0.007871905341744423, 0.012927588075399399, 0.03444863483309746, 0.007274650037288666, 0.030230846256017685, -0.0047051869332790375, -0.009111281484365463, 0.003417760133743286, -0.014008104801177979, -0.01714637130498886, -0.035650331526994705, -0.028934964910149574, 0.0020500458776950836, -0.03088148683309555, 0.03508235886693001, -0.027480393648147583, 0.018479660153388977, -0.032833799719810486, 0.02328689768910408, -0.004740949720144272, -0.0012831911444664001, -0.010212404653429985, 0.021501537412405014, -0.008321844041347504, -0.0007932819426059723, -0.031623780727386475, -0.03024263121187687, 0.008426137268543243, 0.02300795540213585, 0.026247132569551468, -0.005074046552181244, 0.031239282339811325, 0.0017112381756305695, -0.032358746975660324, -0.03569982200860977, -0.0002756677567958832, 0.01838338002562523, 0.008607987314462662, 0.03345843032002449, -0.006134446710348129, -0.03043326362967491, -0.019554883241653442, 0.007835842669010162, -0.015646427869796753, -0.005832897499203682, -0.012702858075499535, -0.025316715240478516, 0.029978279024362564, -0.014724595472216606, 0.02106807753443718, 0.022731155157089233, -0.01792973279953003, 0.0302131287753582, -0.018278207629919052, -0.03040315955877304, -0.029031086713075638, -0.028198976069688797, -0.035314399749040604, -0.024368636310100555, -0.016979213804006577, 0.020381886512041092, 0.025690142065286636, -0.014836018905043602, -0.0288380179554224, 0.0283534936606884, -0.021037057042121887, 0.006196223199367523, 0.02127619832754135, -0.00012996047735214233, 0.02478163316845894, 0.01960676908493042, 0.010732069611549377, -0.005227668210864067, -0.024961046874523163, -0.024738913401961327, 0.017114169895648956, 0.02647862210869789, -0.029826229438185692, -0.021154290065169334, -0.018211957067251205, 0.034934934228658676, -0.02560395561158657, -0.0012256093323230743, 0.025521699339151382, -0.0305336806923151, 0.018647365272045135, -0.023844540119171143, -0.03137043118476868, -0.032266922295093536, -0.017628639936447144, -0.022537628188729286, 0.00900837779045105, 0.01237630844116211, 0.02840552106499672, 0.025085631757974625, -0.00206105038523674, -0.03341800719499588, -0.01388687826693058, 0.015173453837633133, -0.015603909268975258, -0.0012778639793395996, 0.03182920441031456, 0.011540308594703674, 0.031197402626276016, -0.03268522024154663, -0.03019779548048973, 0.029011521488428116, -0.025112200528383255, -0.026615075767040253, 0.025802843272686005, -0.015597786754369736, -0.03477098420262337, -0.0207425057888031, -0.033985354006290436, 0.0022330358624458313, -0.00836244598031044, 0.0023921728134155273, 0.015594426542520523, -0.01013064943253994, 0.02242174744606018, -0.018218781799077988, -0.022085458040237427, 0.02230791747570038, -0.024632170796394348, -0.004761764779686928, -0.010106934234499931, 0.014372177422046661, 0.002170141786336899, 0.03496954217553139, -0.023515230044722557, -0.00214323028922081, -0.009922871366143227, -0.022291388362646103, 0.029411766678094864, 0.020830783993005753, -0.0210768673568964, 0.02759508416056633, -0.02658982016146183, 0.03531894460320473, -0.02159133180975914, -0.010867293924093246, -0.003704231232404709, 0.0027253329753875732, 0.004966426640748978, 0.014669805765151978, 0.03527345880866051, 0.034612637013196945, -0.0015569068491458893, -0.01976448856294155, 0.030140887945890427, -0.012581566348671913, -0.016288690268993378, 0.013916943222284317, 0.01586265116930008, 0.008854959160089493, -0.025855354964733124, 0.0018644295632839203, -0.0034417733550071716, -0.009788654744625092, 0.029215428978204727, -0.013248588889837265, -0.03286493942141533, 0.027231980115175247, -0.001459471881389618, -0.018167590722441673, -0.012497520074248314, -0.009695768356323242, 0.031182091683149338, 0.03216708078980446, -0.010065525770187378, -0.025617187842726707, -0.009437238797545433, -0.006400849670171738, -0.03427017852663994, -0.013856172561645508, -0.008224202319979668, -0.024754192680120468, 0.025010131299495697, -0.007153196260333061, -0.008040372282266617, 0.005319815129041672, -0.021327972412109375, -0.0116224754601717, 0.017278023064136505, -0.0020220503211021423, -0.0018886961042881012, -0.011167692020535469, -0.011541502550244331, -0.02392842248082161, -0.015866834670305252, -0.03242014721035957, -0.02188437432050705, -0.0018520466983318329, -0.019641686230897903, 0.0035110674798488617, -0.011295953765511513, 0.02546653151512146, -0.030577775090932846, 0.022818289697170258, 0.0029470697045326233, -0.03468973934650421, 0.010194715112447739, 0.0190524160861969, -0.009478442370891571, 0.008005745708942413, 0.029508408159017563, -0.013539737090468407, 0.013172723352909088, 0.0034994445741176605, -0.024269407615065575, 0.03014678880572319, -0.0036538057029247284, -0.009666750207543373, -0.014059638604521751, -0.013505643233656883, -0.012208735570311546, 0.0232391320168972, -0.015549417585134506, 0.006304718554019928, -0.012083185836672783, -0.02158738113939762, 0.013345837593078613, 0.027296636253595352, -0.0019733570516109467, 0.0311075858771801, 0.03500846400856972, 0.004273604601621628, 0.025572624057531357, 0.016809459775686264, -0.003245580941438675, 0.017645463347434998, 0.022550396621227264, -0.028778579086065292, -0.03318667411804199, 0.03458843007683754, -0.008097661659121513, -0.027689985930919647, -0.0330597348511219, -0.012490421533584595, 0.004244837909936905, -0.015925366431474686, 0.0041473619639873505, 0.007029969245195389, 0.022725697606801987, -0.012125888839364052, -0.0250078197568655, 0.02645992860198021, -0.027429381385445595, -0.02057189680635929, -0.03307955339550972, -0.008072303608059883, -0.00030519813299179077, -0.016608595848083496, -0.03274659067392349, -0.004937473684549332, -0.015367269515991211, 0.031262170523405075, 0.013960890471935272, -0.03157110512256622, -0.025337811559438705, 0.0007335133850574493, -0.024764712899923325, -0.018086332827806473, -0.027629487216472626, -0.0162695050239563, -0.0017748400568962097, -0.030003851279616356, 0.01211017370223999, 0.006479207426309586, -0.008139066398143768, -0.008842332288622856, 0.02263195440173149, -0.0035875141620635986, 0.02345600724220276, 0.03395776078104973, -0.028260495513677597, 0.00508471205830574, 0.02037864923477173, -0.022723574191331863, -0.02954871952533722, -0.001312248408794403, -0.019387274980545044, 0.032953742891550064, 0.031785931438207626, -0.022752827033400536, 0.013371732085943222, -0.015148162841796875, 0.03475373610854149, -0.019485780969262123, 0.03421690687537193, 0.01902705430984497, 0.008841842412948608, -0.003337256610393524, 0.03179892525076866, 0.026553183794021606, -0.021972214803099632, -0.021732186898589134, -0.015993528068065643, -0.010800248011946678, 0.017929330468177795, 0.007468231022357941, -0.009561501443386078, -0.02406991459429264, -0.01301068626344204, -0.01998860575258732, -0.004335559904575348, -0.00715278834104538, 0.02373552694916725, 0.026883956044912338, 0.004048008471727371, 0.030771378427743912, -0.021011408418416977, 0.027382846921682358, -0.003057055175304413, 0.004113662987947464, -0.016231482848525047, -0.012822633609175682, 0.003022819757461548, 0.021631229668855667, 0.034451525658369064, -0.02038918435573578, -0.007343262434005737, -0.022979550063610077, -0.005265219137072563, 0.006414987146854401, 0.01657983660697937, 0.0124659463763237, 0.004527978599071503, -0.013035761192440987, 0.029304098337888718, 0.013034675270318985, -0.02765045128762722, -0.03106347657740116, -0.011341577395796776, 0.00548350065946579, 0.012752112001180649, -0.03497797250747681, 0.015850577503442764, 0.014727964997291565, 0.01454826071858406, 0.02009841427206993, -0.00703023187816143, -0.0335298590362072, -0.013271408155560493, -0.013191835954785347, 0.016955412924289703, 0.026910152286291122, -0.014164285734295845, -0.020753968507051468, 0.011910844594240189, 0.028820406645536423, -0.0015050731599330902, 0.00612008199095726, -0.008349547162652016, 0.029379215091466904, -0.02055124007165432, 0.014149181544780731, -0.027268696576356888, -0.034655388444662094, -0.0005178786814212799, 0.028892751783132553, -0.03083455190062523, -0.005949506536126137, 0.0008481331169605255, 0.02432205155491829, 0.032528724521398544, 0.03517661616206169, 0.005599867552518845, 0.014485139399766922, -0.009621070697903633, 0.020677201449871063, -0.031078115105628967, 0.023730214685201645, 0.007172193378210068, -0.034713465720415115, -0.03037291392683983, -0.008992685005068779, -0.014719899743795395, 0.0015870817005634308, -0.0019073113799095154, 0.019432008266448975, 0.026785384863615036, -0.029938766732811928, -0.004403620958328247, 0.007357344031333923, -0.03467244654893875, -0.014135641977190971, 0.010109592229127884, 0.03250342234969139, 0.00604601576924324, 0.024885747581720352, -0.007978687062859535, -0.013419412076473236, -0.006489234045147896, 0.011867627501487732, -0.0034313760697841644, -0.023890024051070213, 0.030469205230474472, -0.012730492278933525, -0.016602184623479843, 0.006472412496805191, 0.02499447762966156, 0.018180839717388153, 0.03455248847603798, 0.007720019668340683, 0.017893049865961075, 0.0263383649289608, 0.016592897474765778, -0.031002292409539223, -0.019209671765565872, 0.03414041921496391, -0.010976694524288177, 0.01528138667345047, 0.005240056663751602, -0.02320234850049019, 0.015496030449867249, -0.02073109708726406, 0.0069120414555072784, -0.010559329763054848, -0.029427090659737587, -0.028630457818508148, -0.031391650438308716, -0.02223215438425541, -0.03244023770093918, 0.026718340814113617, 0.0074106380343437195, -0.03182317316532135, 0.017912738025188446, -0.016100509092211723, 0.02708129957318306, -0.0022458136081695557, -0.00742712989449501, -0.027466773986816406, -0.025647960603237152, 0.004227377474308014, 0.018606897443532944, -0.00503678061068058, -0.03175201639533043, 0.029937971383333206, -0.0013676919043064117, 0.0007128007709980011, 0.009292740374803543, 0.012388184666633606, -0.011571059003472328, 0.0034085288643836975, 0.024926260113716125], [-0.002918783575296402, 0.029279228299856186, -0.023601878434419632, -0.031059423461556435, -0.03162076324224472, 0.01639619842171669, -0.003438372164964676, -0.023927204310894012, 0.027203824371099472, 0.033806439489126205, 0.0043348148465156555, -0.03116236999630928, 0.018558233976364136, 0.006959259510040283, 0.008325446397066116, -0.027604099363088608, 0.01796802133321762, 0.0014548338949680328, -0.008323274552822113, -0.023572102189064026, 0.010345179587602615, 0.00246560201048851, 0.03256891295313835, 0.034923624247312546, -0.03140101581811905, -0.013986771926283836, 0.010167181491851807, 0.0237547867000103, -0.007045255973935127, 0.01337457075715065, -0.005907254293560982, -0.02803102694451809, -0.003215901553630829, -0.011299453675746918, 0.0051099397242069244, 0.019091449677944183, 0.028348665684461594, -0.024637091904878616, -0.021597841754555702, -0.005680093541741371, -0.03512916713953018, -0.03368958458304405, -0.03009692020714283, 0.017321310937404633, 0.023553382605314255, 0.02861107513308525, 0.03216194733977318, -0.031955111771821976, -0.020580586045980453, -0.015939785167574883, 0.018724016845226288, -0.025328602641820908, 0.03176852688193321, 0.029845502227544785, -0.03355840966105461, 0.033102210611104965, -0.0046935901045799255, 0.032641831785440445, -0.03153889626264572, -0.01583327166736126, -0.029115857556462288, -0.003479916602373123, -0.00926256738603115, -0.03155876323580742, -0.016290312632918358, 0.020072326064109802, 0.028801526874303818, -0.015718717128038406, 0.008861381560564041, -0.0054620373994112015, 0.008738938719034195, 0.03172867372632027, 0.012156352400779724, 0.015594188123941422, 0.012841109186410904, 0.015464648604393005, -0.029193636029958725, -0.025313783437013626, 0.019513245671987534, 0.00729307159781456, -0.015026072040200233, 0.00492163747549057, 0.016148891299962997, 0.028121400624513626, 0.0013551488518714905, 0.0025782249867916107, -0.007270392030477524, 0.028712306171655655, 0.03156932815909386, -0.022355839610099792, -0.007995916530489922, 0.029044706374406815, 0.028506051748991013, 0.009766537696123123, 0.006878364831209183, 0.002760510891675949, -0.005925145000219345, 0.0022675469517707825, -0.01818271353840828, 0.03164013847708702, -0.003834519535303116, 0.014612291008234024, 0.02444586157798767, -0.012687074020504951, 0.0026238039135932922, -0.028428619727492332, -0.012463247403502464, 0.029889967292547226, -0.0022866688668727875, -0.009531255811452866, 0.005464326590299606, -0.02155906893312931, -0.013887792825698853, -0.00968196615576744, 0.03505615517497063, 0.034605253487825394, -0.011576546356081963, 0.0036952607333660126, -0.03076145611703396, 0.025508347898721695, -0.033065374940633774, 0.013663671910762787, 0.009270399808883667, -0.0320846326649189, 0.0216604582965374, -0.0015925690531730652, -0.009840689599514008, 0.030873116105794907, 0.03550044819712639, 0.03207571431994438, -0.029097750782966614, 0.01186680793762207, -0.006242347881197929, -0.007730526849627495, 0.007502689957618713, 0.0015305876731872559, -0.01489357091486454, -0.01809248887002468, -0.02718021720647812, -0.01248958334326744, -0.03451263904571533, -0.00020221620798110962, 0.022011004388332367, 0.0013714097440242767, -0.03568459674715996, 0.025519516319036484, 0.016048863530158997, 0.013189051300287247, -0.030410196632146835, -0.0006042085587978363, -0.032543450593948364, 0.020086899399757385, 0.003761153668165207, -0.01148911565542221, 0.024743732064962387, -0.010900583118200302, 0.03540753200650215, -0.019904708489775658, 0.030257415026426315, 0.01973528042435646, 0.02814033254981041, 0.005206692963838577, -0.017493529245257378, 0.009988903999328613, 0.019120506942272186, 0.0018724985420703888, 0.030459050089120865, 0.01010262593626976, -0.009677022695541382, -0.016194207593798637, -0.020628884434700012, -0.019765092059969902, 0.007635977119207382, -0.006826562806963921, -0.03332432359457016, -0.018918007612228394, 0.011444713920354843, -0.006925148889422417, -0.015443509444594383, 0.0014175474643707275, -0.013753397390246391, -0.008107684552669525, -0.023348383605480194, 0.014768488705158234, 0.004123277962207794, -0.02588912472128868, 0.00018004700541496277, -0.023124948143959045, -0.029815122485160828, -0.014932267367839813, 0.007360324263572693, 0.019755173474550247, -0.028783267363905907, -0.005493782460689545, 0.018611758947372437, -0.01960074156522751, -0.013819508254528046, 0.01762538030743599, 0.03425654396414757, 0.006732095032930374, -0.029851283878087997, -0.010443305596709251, 0.0003726668655872345, 0.00994892418384552, 0.006347663700580597, 0.009125538170337677, 0.017448782920837402, 0.0014445073902606964, 0.005665462464094162, -0.035358086228370667, 0.0035706758499145508, -0.018223609775304794, 0.027853500097990036, -0.021593967452645302, 0.01580847054719925, 0.007964570075273514, 0.030896108597517014, -0.014092782512307167, -0.00666239857673645, -0.029467668384313583, -0.028596095740795135, 0.003548063337802887, 0.0089438296854496, 0.002958092838525772, 0.019157182425260544, -0.003851652145385742, -0.019345875829458237, 0.012079212814569473, -0.00021022185683250427, -0.0025639161467552185, 0.01950182020664215, -0.016265908256173134, 0.0069410838186740875, 0.01586867868900299, 0.03226671740412712, -0.0034287236630916595, 0.022662028670310974, -0.015716353431344032, -0.004393700510263443, 0.01264316588640213, -0.003905612975358963, 0.022529054433107376, 0.02051781862974167, -0.001882009208202362, -0.017185594886541367, 0.030997108668088913, -0.003862950950860977, 0.013422448188066483, -0.018716467544436455, 0.015657756477594376, 0.018071316182613373, 0.023828301578760147, -0.025057176128029823, -0.014346562325954437, -0.012622872367501259, -0.02188677154481411, 0.023686792701482773, 0.024791788309812546, -0.03556900471448898, -0.024931102991104126, -0.02028714492917061, -0.0005504079163074493, 0.011549387127161026, 0.02753790095448494, -0.01777714118361473, 0.03264522925019264, 0.00033033639192581177, -0.033406373113393784, -0.014321332797408104, -0.02349616028368473, 0.011629179120063782, 0.0022587180137634277, -0.009426040574908257, 0.00404839962720871, -0.0121146310120821, 0.021417483687400818, 0.019922401756048203, -0.0065454840660095215, 0.022933129221200943, 0.0056403689086437225, 0.020629197359085083, -0.01909147948026657, -0.024715237319469452, -0.028130069375038147, 0.019731897860765457, 0.005933023989200592, 0.004083983600139618, -0.0016774125397205353, 0.028851035982370377, -0.03270081430673599, -0.00924612395465374, -0.03184784948825836, -0.01166013814508915, -0.01235596276819706, 0.029393058270215988, 0.0006242357194423676, 0.018239818513393402, 0.01191885769367218, 0.02079353854060173, -0.003975413739681244, 0.021209105849266052, 0.021004240959882736, -0.009939109906554222, -0.0067957863211631775, 0.02183755859732628, -0.024580497294664383, 0.014696482568979263, -0.02723521552979946, 0.0012668035924434662, -0.02544877864420414, 0.004004396498203278, -0.0198312196880579, 0.017452888190746307, 0.007645357400178909, -0.003227103501558304, 8.881092071533203e-05, 0.0252971388399601, 0.024532224982976913, 3.185868263244629e-05, 0.02034180611371994, -0.03406951576471329, -0.03345151245594025, 0.03226598724722862, -0.002583172172307968, 0.027459610253572464, 0.03159072622656822, 0.001922793686389923, 0.02042454481124878, -0.024833330884575844, 0.026150010526180267, -0.008059114217758179, -0.009160799905657768, 0.013751611113548279, -0.012587981298565865, -0.006751660257577896, -0.007843732833862305, 0.007558070123195648, 0.019002720713615417, 0.011850167065858841, -0.015920085832476616, 0.024031877517700195, 0.023459266871213913, -0.0326065793633461, -0.025414012372493744, -0.012577228248119354, 0.030179064720869064, -0.016958322376012802, 0.014687202870845795, -0.00557677261531353, 0.01564827188849449, -0.00273982435464859, 0.005836237221956253, 0.006849750876426697, 0.017300650477409363, -0.016714543104171753, -0.02241089567542076, -0.01687714457511902, -0.0066036321222782135, 0.005087103694677353, 0.03546518459916115, -0.0026611946523189545, 0.0010630376636981964, 0.029547590762376785, -0.012808429077267647, -0.03161833807826042, -0.006294455379247665, -0.024091199040412903, 0.0012152418494224548, 0.027188297361135483, 0.0023214444518089294, -0.011087417602539062, -0.007207585498690605, 0.008866224437952042, 0.0067337751388549805, -0.019637593999505043, -0.018853796645998955, 0.0019503533840179443, 0.031742628663778305, 0.010137498378753662, -0.03479202464222908, -0.012414507567882538, -0.03260837495326996, 0.03362421318888664, 0.008894015103578568, 0.025701478123664856, 0.02448202297091484, -0.018283624202013016, -0.006590383127331734, 0.022838696837425232, 0.01655932143330574, -0.02819722518324852, -0.023572390899062157, -0.03130890056490898, -0.0002950429916381836, -0.015618950128555298, -0.017456110566854477, -0.009724527597427368, -0.0018554367125034332, -0.03005296178162098, -0.0031578242778778076, -0.02430480718612671, 0.03294864669442177, 0.01728907600045204, 0.017833299934864044, 0.026944171637296677, -0.028225384652614594, -0.008868519216775894, -0.002094905823469162, 0.0030159316956996918, -0.028630603104829788, 0.03462052717804909, -0.01325102336704731, 0.01074577122926712, -0.0030196793377399445, -0.008250687271356583, 0.010206878185272217, 0.03360867127776146, 0.02035386487841606, 0.02515159547328949, -0.015174252912402153, -0.004892174154520035, -0.019669465720653534, -0.009277217090129852, 0.0018577873706817627, -0.02848554588854313, 0.03408169373869896, -0.014746304601430893, 0.0064405761659145355, 0.021007832139730453, 0.014374081045389175, -0.008598851040005684, 0.01832154020667076, -0.01297817938029766, 0.0004948899149894714, -0.007145272567868233, -0.034386046230793, 0.003082018345594406, 0.0207817405462265, 0.018856819719076157, -0.01822040043771267, -0.028225691989064217, -0.003468174487352371, -0.007314734160900116, 0.01897285506129265, 0.011017143726348877, -0.0013528577983379364, 0.0036059729754924774, 0.004538465291261673, 0.021454717963933945, 0.0002546235918998718, -0.020560601726174355, 0.022487405687570572, -0.009476521983742714, -0.034175094217061996, -0.0026432648301124573, -0.018417328596115112, 0.00725908949971199, -0.0069418251514434814, 0.014079399406909943, -0.00644192099571228, -0.028426453471183777, -0.03496038168668747, -0.032627083361148834, 0.003993678838014603, 0.027005743235349655, 0.0072804950177669525, 0.008429702371358871, 0.02480165660381317, -0.0024954117834568024, 6.14263117313385e-05, -0.01792786456644535, 0.010009586811065674, 0.018247507512569427, 0.0038528218865394592, 0.008162587881088257, 0.0098353810608387, 0.0015849247574806213, 0.007654309272766113, 0.008022226393222809, -0.018597492948174477, -0.0066736433655023575, 0.0066207535564899445, 0.0287916399538517, -0.020586824044585228, -0.021973032504320145, -0.030322298407554626, 0.0066374726593494415, -0.033790040761232376, 0.014359798282384872, -0.03533824533224106, -0.007889240980148315, 0.032321747392416, -0.006452659144997597, -0.016062626615166664, 0.022671133279800415, 0.025891665369272232, 0.016914404928684235, 0.013313405215740204, 0.02397807314991951, 0.010662037879228592, 0.03372849151492119, -0.006820840761065483, 0.030251193791627884, -0.023872464895248413, -0.02298271283507347, 0.006767667829990387, 0.010864056646823883, 0.007721293717622757, -0.020815875381231308, 0.023479610681533813, -0.004877375438809395, -0.015199044719338417, 0.00029769912362098694, 0.030008461326360703, -0.013206375762820244, 0.03445473685860634, 0.004107322543859482, -0.012533843517303467, 0.006640352308750153, 0.025652442127466202, 0.0066040195524692535, -0.013300232589244843, 0.012635048478841782, -0.030083777382969856, -0.027518656104803085, 0.01567097380757332, -0.02627568319439888, 0.03307769075036049, 0.034687113016843796, 0.027770522981882095, 0.01762460544705391, 0.0048598311841487885, -0.031223461031913757, 0.0037823840975761414, -0.011008262634277344, -0.003670431673526764, 0.030469205230474472, -0.029348187148571014, -0.024685192853212357, -0.032584916800260544, 0.011393461376428604, 0.011265963315963745, 0.020721904933452606, -0.023575589060783386, -0.004530204460024834, -0.006238115951418877, 0.01653585582971573, -0.009880833327770233, 0.007196895778179169, 0.0021447204053401947, 0.022903673350811005, 0.010086826980113983, -0.02961898036301136, -0.007519274950027466, -0.011601679027080536, -0.026006456464529037, -0.027936603873968124, 0.03399915620684624, -0.02351563051342964, -0.020548537373542786, -0.016291869804263115, 0.031979527324438095, 0.022643525153398514, 0.0147077776491642, -0.012493917718529701, 0.03473402187228203, 0.02895784005522728, -0.026452934369444847, -0.027569448575377464, -0.01869061216711998, 0.016376275569200516, 0.03300803527235985, 0.008644931018352509, 0.034242939203977585, 0.034794095903635025, -0.010641269385814667, -0.0042426325380802155, -0.016744107007980347, -0.02925262413918972, -0.033132217824459076, 0.028677288442850113, 0.005440991371870041, 0.017793990671634674, 0.00916237011551857, -0.00827762857079506, 0.029619280248880386, -0.02309533953666687, -0.009031057357788086, -0.02289610356092453, -0.0227372944355011, 0.01915745437145233, -0.015827098861336708, 0.02330506220459938, -0.012702729552984238, -0.009743481874465942, 0.031318750232458115, -0.016582269221544266, -0.02120041474699974, -0.02176971733570099, 0.0013604499399662018, 0.02655509114265442, 0.02686808630824089, -0.01395585760474205, -0.008649783208966255, 0.031341876834630966, 0.009093616157770157, -0.023568695411086082, -0.008816055953502655, 0.013585466891527176, -0.03202866017818451, 0.0035577192902565002, -0.030259789898991585, 0.02802353724837303, 0.02557835355401039, -0.008465133607387543, 0.03374166414141655, 0.01161658763885498, 0.010263100266456604, -0.00027927011251449585, 0.017541293054819107, 0.011433407664299011, -0.022036787122488022, -0.009274521842598915, 0.03425619378685951, 0.00012127310037612915, 0.0007433071732521057, -0.029515739530324936, -0.02332102507352829, -0.004268299788236618, 0.007079869508743286, 0.0004010610282421112, -0.02358340471982956, 0.03088456764817238, 0.011931970715522766, 0.013334441930055618, 0.03125278279185295, 0.01866116002202034, -0.0016929283738136292, -0.03273031860589981, -0.033804185688495636, 0.0026654191315174103, 0.026652824133634567, -0.00760103203356266, 0.025250554084777832, -0.018010294064879417, -0.031121179461479187, 0.021862875670194626, 0.02017955109477043, -0.007710440084338188, -0.0006150305271148682, -0.010181235149502754, -0.01537933200597763, -0.002756301313638687, 0.03292560204863548, -0.006876124069094658, 0.0020118914544582367, -0.024593239650130272, 0.015663228929042816, -0.011593278497457504, 0.03343683108687401, 0.03332821652293205, -0.013134961947798729, -0.026738643646240234, 0.025647249072790146, -0.005289070308208466, 0.02174874022603035, 0.02076350897550583, 0.013812370598316193, 0.02020648494362831, -0.017384184524416924, 0.025682900100946426, 0.03153572604060173, -0.021529629826545715, -0.005013667047023773, -0.018061650916934013, 0.030786801129579544, 0.0057485103607177734, 0.025925669819116592, 0.012058481574058533, -0.023733144626021385, 0.013236500322818756, 0.008866753429174423, -0.019403893500566483, -0.0038409754633903503, 0.003332924097776413, -0.02367318607866764, 0.034185122698545456, -0.0007496587932109833, -0.009869134053587914, 0.028404932469129562, 0.017598256468772888, 0.016222991049289703, -0.024836890399456024, -0.006953325122594833, -0.0011256523430347443, -0.017038844525814056, 0.008036680519580841, -0.024129260331392288, -0.0035705380141735077, 0.028334613889455795, 0.014814041554927826, -0.0341368168592453, -0.03011918254196644, 0.03504953905940056, 0.008846282958984375, 0.015649136155843735, -0.027932334691286087, -0.014524783939123154, -0.028105026111006737, 0.017314571887254715, -0.008620675653219223, -0.00402957946062088, -0.03564390540122986, 0.02383783459663391, -0.013692997395992279, 0.0026948191225528717, 4.871934652328491e-05, 0.02393477037549019, -0.010435637086629868, 0.01508677750825882, 0.034979525953531265, -0.011427368968725204, -0.034574754536151886, -0.02198067307472229, 0.007931310683488846, 0.004517722874879837, 0.030940603464841843, 0.0050622448325157166, -0.025561129674315453, 0.01961834356188774, -0.005705343559384346, 0.01586884632706642, -0.015093643218278885, -0.03295215591788292, -0.021754777058959007, -0.017610598355531693, -0.00013322755694389343, -0.016374606639146805, 0.03515104576945305, -0.021466128528118134, -0.029193773865699768, 0.0032574571669101715, 0.001766301691532135, -0.02163313701748848, 0.013811644166707993, -0.0037346184253692627, 0.007079757750034332, -0.005650252103805542, -0.028506960719823837, 0.03399611636996269, 0.004440087825059891, 0.03316090628504753, -0.003792840987443924, 0.027057882398366928, -0.010556280612945557, -0.0055746398866176605, -0.023840680718421936, 0.028501641005277634, -0.027400359511375427, -0.032294414937496185, 0.01762523129582405, -0.0026378072798252106, 0.0027437247335910797, 0.024134844541549683, 0.0025160610675811768, -0.006111787632107735, -0.026107996702194214, 0.018522128462791443, -0.006434189155697823, 0.03388206288218498, 0.032999228686094284, -0.022815756499767303, 0.022913597524166107, -0.006335075944662094, 0.020140334963798523, 0.0081651471555233, 0.013394884765148163, 0.022075746208429337, -0.01449018344283104, 0.0004149042069911957, -0.015069685876369476, 0.018607262521982193, 0.009943656623363495, -0.012556970119476318], [-0.01959782838821411, -0.00824708677828312, 0.025390498340129852, -0.03043231926858425, 0.028280291706323624, -0.015792502090334892, 0.003660578280687332, -0.01638108491897583, 0.03102370724081993, -0.03060854971408844, 0.0068865008652210236, -0.012240134179592133, -0.013021362945437431, 0.024635154753923416, -0.010485930368304253, -0.013838863000273705, -0.025093484669923782, -0.02914111688733101, 0.02662142738699913, 0.014359422028064728, 0.013746239244937897, -0.017294306308031082, 0.008517563343048096, 0.026283536106348038, 0.00663892924785614, 0.007803846150636673, -0.005918916314840317, 0.0027241334319114685, 0.023507673293352127, 0.01601549983024597, -0.012505859136581421, 0.02680763229727745, 0.005035318434238434, -0.01919565163552761, 0.02011694759130478, 0.012311544269323349, -0.03548487648367882, -0.020343828946352005, 0.029943305999040604, 0.024637337774038315, -0.033433713018894196, -0.012822505086660385, 0.03459567949175835, -0.014136383309960365, -0.01901557296514511, 0.02640824392437935, -0.0015203021466732025, -0.0061986371874809265, 0.002672351896762848, -0.02217704989016056, 0.011863715946674347, -0.02639133296906948, 0.021470963954925537, -0.012461274862289429, 0.031181376427412033, 0.007942676544189453, -0.0275197122246027, -0.02392728626728058, -0.001678910106420517, -0.001636851578950882, -0.020713722333312035, 0.0003475770354270935, -0.03508686274290085, 0.015310592949390411, -0.025453675538301468, -0.03127160295844078, -0.02265232801437378, 0.005069766193628311, -0.02310236543416977, -0.033553458750247955, 0.020755618810653687, 0.029512647539377213, -0.008324967697262764, -0.027621129527688026, -0.0006511881947517395, 0.014364488422870636, 0.034585561603307724, -0.01578551158308983, -0.01475943811237812, 0.006244290620088577, -0.0011098459362983704, -0.007008476182818413, -0.014888960868120193, 0.03346189484000206, -0.006030092015862465, -0.02324196696281433, 0.024425044655799866, 0.028496768325567245, 0.03299002721905708, 0.006694663316011429, 0.0034702643752098083, 0.02583489939570427, 0.016095370054244995, 0.004265647381544113, -0.016265951097011566, -0.01267520897090435, 0.023186836391687393, -0.012326501309871674, 0.013716340065002441, -0.01274615153670311, 0.026903603225946426, -0.011183857917785645, -0.006445996463298798, -0.026726417243480682, 0.009685397148132324, 0.01275106891989708, -0.033196546137332916, -0.013474715873599052, 0.01976649835705757, -0.013552738353610039, -0.013442350551486015, -0.016712559387087822, 0.022310756146907806, 0.011826235800981522, 0.03219537064433098, 0.014121852815151215, 0.03033192828297615, 0.02953777089715004, 0.014300543814897537, 0.03542006388306618, -0.014854857698082924, -0.025042211636900902, -0.008773118257522583, 0.03238559141755104, 0.006101302802562714, 0.02813432738184929, -0.020727133378386497, 0.027414489537477493, -0.005576262250542641, 0.009997852146625519, -0.031286999583244324, 0.016131095588207245, -0.03373829275369644, -0.02738647535443306, -0.016817433759570122, 0.01687934249639511, 0.02286427840590477, -0.0234377384185791, 0.010401152074337006, 0.009644228965044022, 0.009959772229194641, -0.021541476249694824, 0.005220603197813034, 0.012624230235815048, 0.00742773711681366, -0.008275674656033516, 0.016588523983955383, 0.02048959955573082, 0.005403216928243637, -0.026176825165748596, 0.029116977006196976, -0.027692437171936035, -0.02562333084642887, -0.02986440621316433, 0.000893469899892807, 0.025647342205047607, -0.0033352673053741455, -0.00020739436149597168, 0.010582823306322098, -0.011262975633144379, 0.03503333404660225, -0.02606489136815071, 0.02810700610280037, 0.01654958724975586, 0.02077391743659973, -0.003972645848989487, 0.03126038983464241, -0.006399895995855331, 0.01646900549530983, -0.026520956307649612, -0.021100059151649475, -0.007349822670221329, -0.025092914700508118, 0.0038510970771312714, 0.002575155347585678, 0.01010885089635849, -0.032975245267152786, 0.03262157365679741, -0.020757535472512245, 0.00680285319685936, -0.030813056975603104, -0.0029300227761268616, 0.024842556565999985, -0.023823905736207962, -0.022835111245512962, -0.028192052617669106, 0.02982780709862709, -0.02407747134566307, -0.02058521844446659, 0.027140874415636063, 0.012200761586427689, 0.007295522838830948, -0.031283188611269, -0.003521133214235306, 0.023260239511728287, 0.013030335307121277, -0.027205204591155052, -0.02339797094464302, 0.017701849341392517, -0.03097469173371792, 0.02024983987212181, 0.012642472982406616, -0.015828151255846024, 0.03529619798064232, -0.023891454562544823, -0.028693893924355507, -0.022611040621995926, -0.02924196422100067, -0.03493637964129448, -0.013093983754515648, -0.023762304335832596, 0.035445671528577805, 0.022053387016057968, -0.014847543090581894, 0.031502339988946915, 0.01014930009841919, 0.017308469861745834, 0.023496203124523163, 0.02742719277739525, -0.020096486434340477, -0.03388052061200142, -0.02648751437664032, -0.006083318963646889, -0.0043687522411346436, 0.027358610183000565, -0.003740917891263962, 0.0139106884598732, -0.00609789602458477, -0.03231362998485565, -0.006624685600399971, 0.02065477892756462, -0.011021802201867104, 0.010653361678123474, 0.032479193061590195, 0.0005874745547771454, -0.01966165378689766, -0.0027494169771671295, -0.00571046955883503, -0.033477313816547394, -0.004353884607553482, 0.015427712351083755, -0.009833276271820068, 0.031010542064905167, -0.026916593313217163, 0.026878569275140762, -0.01637185551226139, 0.006745900958776474, 0.0010171569883823395, -0.0025299564003944397, 0.0033630989491939545, -0.023674258962273598, 0.015242334455251694, -0.011923769488930702, -0.02754785493016243, 0.002889048308134079, 0.016274508088827133, -0.0309314988553524, 0.02695174142718315, -0.0299586970359087, 0.03221503272652626, 0.033701103180646896, 0.02528725564479828, -0.026255756616592407, 0.016750622540712357, 0.02900775894522667, -0.02690129727125168, 0.014887109398841858, -0.02656295895576477, -0.00947304256260395, -0.00180811807513237, -0.006294373422861099, 0.014047719538211823, -0.02899891324341297, -0.02325664460659027, -0.030171595513820648, -0.020279506221413612, -0.020945508033037186, 0.02387901023030281, -0.024587031453847885, 0.00040655210614204407, -0.01004161685705185, 0.02733144536614418, 0.007209353148937225, 0.004507552832365036, -0.024528205394744873, -0.02699713408946991, 0.026753675192594528, -0.011090032756328583, 0.01158834993839264, -0.02349945902824402, 0.025004170835018158, 0.024859949946403503, 0.03503826633095741, 0.025971923023462296, -0.031573932617902756, -0.005496429279446602, -0.030698241665959358, -0.022320061922073364, -0.011603960767388344, -0.012994294986128807, 0.02641461417078972, -0.011460946872830391, -0.013683974742889404, 0.008312046527862549, 0.006388816982507706, -0.014165341854095459, 0.01791916787624359, -0.0343475416302681, -0.03446825593709946, 0.0008625686168670654, -0.010259389877319336, -0.030336769297719002, -0.011627107858657837, 0.02249085158109665, 0.00829239934682846, -0.024606803432106972, 0.005565457046031952, 9.385496377944946e-05, 0.021581381559371948, -0.011642346158623695, -0.008401185274124146, -0.017364775761961937, 0.001999620348215103, -0.009098069742321968, 0.03065865859389305, -0.0005352161824703217, -0.01032341830432415, -0.024061374366283417, -0.0012227296829223633, -0.028335586190223694, 0.03395180031657219, 0.034309301525354385, 0.023250900208950043, 0.007499393075704575, 0.034631188958883286, 0.030186954885721207, -0.022632399573922157, 0.021229539066553116, -0.01780030131340027, 0.0006469450891017914, 0.01966768130660057, -0.01957261562347412, 0.015729770064353943, -0.03153802827000618, 0.03517023101449013, -0.015131112188100815, -0.00558910146355629, -0.027017995715141296, -0.02201283909380436, -0.03157570958137512, -0.031463902443647385, -0.009931938722729683, 0.004707761108875275, 0.008635971695184708, -0.02935992181301117, 0.028578687459230423, 0.035264406353235245, -0.010050611570477486, -0.022591209039092064, 0.009134139865636826, -0.027442961931228638, -0.011845098808407784, -0.019573532044887543, -0.003760814666748047, -0.008236531168222427, 0.007401227951049805, 0.019140027463436127, -0.03533707931637764, 0.027089785784482956, 0.017637811601161957, -0.02093733847141266, -0.004385378211736679, -0.033744245767593384, -0.009034013375639915, -0.002330321818590164, 0.002631891518831253, 0.012475792318582535, -0.014668967574834824, 0.012957856059074402, -0.021449055522680283, 0.009246498346328735, 0.03163344785571098, -0.004617942497134209, -0.021024033427238464, 0.015520811080932617, -0.010689251124858856, -0.031194450333714485, 0.005805756896734238, 0.005398906767368317, -0.010598808526992798, 0.021277032792568207, -0.009602837264537811, 0.033291254192590714, -0.025534486398100853, 0.02793724462389946, -0.03383850306272507, -0.021207302808761597, -0.007302403450012207, 0.006033390760421753, -0.01828649267554283, 0.017544060945510864, -0.027461007237434387, 0.01647186651825905, -0.024806637316942215, -0.027205821126699448, -0.025913039222359657, -0.026128854602575302, 0.033263932913541794, 0.028300683945417404, -0.007811158895492554, 0.02198858931660652, -0.005025757476687431, 0.004223383963108063, 0.03137294575572014, -0.01450151763856411, 0.025532756000757217, 0.014640890061855316, 0.02972511574625969, -0.022341972216963768, 0.009953059256076813, -0.0010576918721199036, -0.026407957077026367, -0.024961519986391068, 0.03462269529700279, 0.027832191437482834, 0.0020172297954559326, -0.001110803335905075, -0.02707546204328537, -0.007772402837872505, 0.024902641773223877, 0.011342164129018784, -0.0071283020079135895, 0.03317585960030556, -0.00404931977391243, 0.012158337980508804, -0.023532714694738388, -0.0022076889872550964, -0.015352999791502953, 0.00922972708940506, 0.01657233014702797, -0.024068986997008324, -0.005699591711163521, -0.013979384675621986, 0.022449444979429245, -0.004302572458982468, -0.023974552750587463, 0.007962621748447418, -0.00719558447599411, -0.014880269765853882, -0.01114923320710659, -0.028595125302672386, 0.01527278870344162, 0.002018280327320099, 0.013489361852407455, -0.005500283092260361, -0.025589220225811005, -0.014769179746508598, -0.01967727392911911, 0.023620277643203735, -0.008460232987999916, 0.02958238497376442, 0.00641893595457077, 0.01939733698964119, -0.028249308466911316, 0.006052348762750626, 0.014534380286931992, 0.029385056346654892, 0.0034444890916347504, -0.03132803738117218, -0.012217359617352486, 0.0051069073379039764, 0.016802120953798294, 0.023874055594205856, -0.002565685659646988, -0.03128063306212425, -0.026854127645492554, -0.030705874785780907, -0.01858082413673401, 0.02134634181857109, -0.009362243115901947, 0.024103663861751556, -0.004673408344388008, -0.03423374518752098, -0.003685835748910904, -0.026758506894111633, -0.014248393476009369, -0.004217199981212616, 0.02295885980129242, -0.021846985444426537, 0.03357679024338722, -0.02079693414270878, -0.014763450250029564, 0.004154890775680542, -0.023795809596776962, 0.017488796263933182, -0.02557981014251709, 0.0058737099170684814, -0.02901502326130867, 0.02076411247253418, 0.006115760654211044, 0.024203620851039886, 0.004357106983661652, -0.02440943568944931, 0.01608540490269661, -0.034708619117736816, 0.02973329648375511, 0.024356964975595474, 0.03075636550784111, 0.020986076444387436, -0.01320539228618145, 0.029014471918344498, -0.0017409995198249817, 0.01939983293414116, -0.030061718076467514, -0.02936514839529991, 0.03543643280863762, 0.005261857062578201, 0.03442169353365898, 0.03316199406981468, -0.02172319032251835, -0.00404546782374382, -0.021029001101851463, 0.029304083436727524, 0.011021848767995834, -0.03291633352637291, 0.03480060026049614, -0.011676384136080742, 0.009623095393180847, -0.01340520940721035, 0.023351412266492844, -0.021101996302604675, 0.030943434685468674, 0.019030295312404633, 0.03292145952582359, -0.001176096498966217, -0.019931726157665253, 0.013721935451030731, -0.01476590521633625, 0.017700280994176865, -0.024991657584905624, -0.0349961519241333, -0.025920942425727844, 0.015022922307252884, 0.005960352718830109, -0.033980946987867355, 0.006059136241674423, -0.03545449674129486, 0.028529029339551926, -0.009974611923098564, -0.012063102796673775, -0.014311270788311958, -0.0322529561817646, -0.01136542297899723, -0.006431605666875839, 